# W1
128 64
-1.03297 -0.96222395 -2.1063142 -1.9103255 0.7357158 0.7764674 -1.8926972 -0.059606507 1.488272 -1.3423696 -2.0341978 -0.46255168 1.0177255 0.28312013 -1.386867 1.9062096 0.19551925 -0.73325276 -2.5748088 -0.0273901 -2.5044448 -2.2541962 -2.050847 -0.8432763 0.011880936 -1.8893551 2.1845472 -2.1784885 1.5372089 -1.2368121 -0.20799403 0.26820174 -0.12387354 -0.3423227 -2.3161352 -2.5283263 -1.4191519 -0.7745825 -1.1963495 -0.23117949 1.7619928 -0.43863305 -0.39436322 -1.1783571 1.0133181 -1.5952504 1.462192 -1.0074832 1.3114086 0.6305762 -0.07161072 -0.3647488 -0.7025439 0.43864724 1.4622084 3.1325765 1.3002063 -0.9233995 -0.13831663 -1.363753 1.0669982 -0.47745728 1.3479396 -1.3914828
0.6907781 0.5712671 2.8295474 -0.40935776 -0.9539858 -0.88020676 -1.0843607 -0.035323918 -1.2711353 0.18051808 2.6818893 0.012489025 -0.574178 -1.2494129 -0.46116713 -0.14118597 0.94351935 0.4910978 2.1898355 0.3518484 2.782948 0.003640174 -0.5628982 1.0299108 0.5707657 1.0097198 -4.8549404 -2.008011 -3.9797435 0.69704604 -1.1242087 -1.1983174 1.0934058 -0.088665955 0.3645978 1.046659 -0.216907 1.4417195 0.6052274 -0.3993382 -2.320547 -0.9843044 -1.8076268 -0.5096892 -2.4426625 -0.030286865 -2.5235822 1.4418262 -1.0376846 -0.96793866 0.497254 0.5464999 -0.29757324 -0.22285321 -0.9453198 -0.48470366 -0.95942694 1.112554 -0.33937722 1.6364528 -1.4408548 0.46187085 1.147154 -1.7540572
-0.5326664 -0.6813791 0.72464955 -0.16222294 0.2595869 -0.23179767 -0.06055808 0.075544015 0.77203596 -0.4483851 0.5808032 0.19423175 -0.30522716 -0.04372006 -0.2731622 -0.27661306 1.5670666 -0.29553556 1.7533499 -0.5957556 1.6086541 -0.3603681 -0.5816012 -1.220125 1.6067833 -0.11095541 -2.7905512 -2.8171868 -1.9752954 -1.2689383 -1.9178646 -2.2486415 2.1154346 0.34819373 0.93216145 0.39151266 0.44373122 -0.4140113 -1.150699 -1.8566374 0.2655611 0.048476838 -1.0216507 -1.5964721 -0.6444326 -1.1458942 -0.0008014919 -0.9385954 0.26925164 -0.85577273 -1.0674427 -0.783602 -0.40751383 1.4243383 -0.1736823 -0.30402395 0.57790804 -0.45912606 -0.43684638 -0.85800105 0.8398466 0.0059229475 -0.010719899 -0.12801304
-0.59306705 -1.1238449 1.772525 -0.47303292 -0.15057799 -0.24834277 -2.4360294 0.065518856 0.10291466 -1.9939369 1.5987675 -0.08749937 -0.0061919303 -0.52702534 -1.166658 0.16091825 1.6843283 -1.5283732 2.9504504 0.123635046 3.0646806 -0.58977926 -0.90799147 0.0058673257 1.6158704 -1.4391079 -3.9076304 -0.65304023 -4.307624 0.5376155 -1.9682403 -1.8959966 1.950667 -0.30911344 1.6713635 2.3748698 1.5136391 1.019345 -0.8452911 -1.4564935 -0.49563122 -1.0469013 -1.5391674 -0.8881536 -1.4943513 -0.22078067 -1.1635709 0.3124063 0.69923794 -1.1714479 -0.31138235 -0.15321459 -0.20065735 0.26986387 -0.41050395 0.6141264 0.6681429 -0.22924717 -1.4462923 0.09863795 -0.47874397 -0.08068932 1.9477879 -1.8944981
-2.3889513 -2.3506458 0.5180955 -3.2627323 0.8640646 0.81491345 -3.2186909 -0.072148725 2.8137155 -2.6394174 0.9686365 -0.26129478 1.5236515 0.63842183 -1.1609441 3.6972528 4.111869 -1.1331189 1.8621701 -0.6455877 2.5993237 -2.3498363 -2.9344773 -1.5846186 3.921661 -1.0721271 -4.480511 -5.5647063 -4.7340646 -1.3162558 -5.010743 -4.22265 4.6743007 1.8350554 1.3751167 1.1187596 1.8127103 0.99247247 -2.7362325 -2.8441403 1.4623734 1.0885074 -3.9926784 -4.1686025 -0.9999254 -3.5049164 0.44570827 -1.4211031 2.5323782 0.15094964 -0.6883223 -0.86749333 -1.2820503 3.3987093 1.2943741 5.0922294 2.6821754 -1.8085319 -1.720706 -2.5759776 1.951053 -1.3100004 2.5231574 -2.4632106
0.97114664 1.0311717 2.7656753 0.15349142 -0.6505351 -0.5474705 0.11046659 0.021157444 -1.825905 0.5600661 2.4558399 -0.02485385 -0.8523041 -0.6959374 0.048457533 -0.59577286 -0.444674 -0.33005783 2.946374 0.21549857 1.082155 0.26495278 -0.27283478 1.0744983 -0.89421594 -1.3638852 -3.8521461 -0.8044582 -3.0045655 1.2665242 -0.1317512 -0.44454166 -0.6386701 -0.011265236 -0.24231525 -0.18738836 -1.5835991 0.2513256 1.0018336 -0.19336875 -2.4327857 -1.0208265 -0.76165134 0.7960167 -3.036151 0.6571828 -2.6610732 1.327109 -1.4396826 -1.5345039 0.3429761 0.6589251 0.51972204 -1.6327224 -0.7654131 -0.6800135 -1.3792663 0.84036845 -0.90845895 1.7079118 -2.2383738 -0.109447196 -0.11549319 0.049527302
-1.6690516 -1.7376261 -3.4037726 -2.652907 0.29941282 0.25980574 -2.57559 -0.048045084 1.9383746 -1.5920037 -2.2238984 -0.2941285 0.72102714 0.2772177 -1.1367836 3.031879 -0.13091353 -0.6837213 -3.876386 -0.44126365 -3.3554134 -0.83622694 -2.6427019 -1.3468132 -0.12411762 -2.9944215 2.0226808 -3.204484 1.7784349 -1.3934277 -0.120077364 0.6120373 -0.62323433 -1.7394984 -2.1090415 -2.9641092 -1.9077982 -1.1378758 -1.7429128 -0.4041326 2.3011675 -0.22300437 -0.323504 -2.2724333 1.5429755 -2.3339252 1.901836 -1.5729176 1.3906118 0.93270534 -0.46318424 -0.5686558 -1.6522261 0.4476246 0.57254046 3.686347 1.4189833 -1.1477444 0.19298357 -1.721678 1.5942411 0.43898296 2.0624638 -4.326153
-1.2603937 -1.2693453 0.16543701 -1.5572108 0.2207133 0.18055405 -1.5930631 0.054055393 1.5305636 -1.388085 0.8760907 -0.25810158 0.4726281 0.23260482 -0.88016737 1.7058802 2.165204 -0.8136271 1.4915053 -0.24716304 1.1887298 -1.1264222 -1.6705537 -0.9768311 2.0734472 -1.2920632 -2.2504594 -3.552577 -2.832504 -0.75993747 -2.5767689 -1.9989734 2.3006897 0.54880494 0.782955 0.968711 0.6530804 -0.1687853 -2.0231674 -1.8121834 1.2207876 0.058735684 -1.6374384 -1.5506752 -0.049876478 -1.853365 0.2628189 -0.76307523 1.4316511 0.20051172 -0.19623093 0.059366506 -0.43788418 1.3324744 0.8299308 2.308009 1.615788 -1.1180478 -0.9484511 -1.3362274 0.95122266 -0.5037645 0.93674594 -1.0032855
0.5912862 0.10170256 1.6577866 -0.65595096 -1.023506 -1.0130322 -3.1571872 0.04380521 -0.86317587 -0.38249838 1.710093 0.3751716 -0.30423096 -1.0255479 -0.5679661 0.48458278 0.7100232 0.7021951 1.9300112 0.7445351 2.3849137 -0.44279638 -0.81660235 1.2453967 0.5891706 0.22599073 -3.873744 -0.6931329 -3.747778 0.15907772 -0.7319977 -0.5574799 1.1142036 0.79968554 1.492654 2.7353487 0.82376134 0.9943907 0.46364722 0.24061367 -1.1068937 -0.75884724 -1.6429739 0.7368151 -1.5848999 -0.2486105 -1.5514755 1.4755498 -0.49168202 -0.054503724 0.71172696 0.94444376 -0.7812556 -0.7208166 -0.3692609 0.35732588 -0.52435553 0.65950245 -0.09204632 1.021156 -1.4772915 0.047885425 2.23491 -2.1613135
0.93155634 0.55873495 1.901527 -0.1854491 -0.87584466 -0.17507842 0.115446135 -0.0056562573 -1.0817581 0.21944214 1.589584 -0.38747987 -0.8510542 -0.5228994 0.06253612 -0.2058659 0.12503201 -0.2612347 2.2160804 -0.28548577 2.2280912 -0.33771467 0.07091823 1.0720916 0.009110477 0.4589662 -2.983842 -0.58022296 -2.9221587 -0.22206528 -0.6800438 -0.84371114 0.50206 0.10913008 1.3445636 1.4546753 0.40808812 0.7357126 0.78518456 0.11059119 -1.7209852 -0.7756605 -1.3290523 0.3176797 -1.7272247 0.11162734 -1.9578671 1.2432312 -1.0626493 -0.86185986 0.40104046 0.46612892 -0.32947937 -0.33510324 -0.37713477 -0.45574182 -0.96739554 0.62574196 -0.48741212 1.160823 -1.1151268 0.09573384 0.012718368 0.00087428093
1.0158674 0.6743691 -0.8586356 -0.23236434 -0.7257758 -0.54766876 -0.060254667 -0.097272724 -1.3572631 0.5855516 -1.5716239 -0.12788673 -0.61031467 -0.7092962 0.355951 0.0041416725 -2.5720363 0.26372385 -1.0427233 -0.2844937 -0.7742336 -0.48807862 -0.044385795 1.0926987 -2.6116397 -1.3614063 -0.051425185 -1.2846199 1.6336153 -1.2225362 2.2511106 2.3628912 -2.7186074 -1.9502195 -3.0561943 -3.2328684 -2.585622 -0.76426786 1.620544 1.6036189 -1.2357259 -1.4857911 0.37704986 0.9370835 -1.2738348 0.6589677 -0.47021875 1.0418762 -1.267604 -0.22862111 0.72158986 0.58443415 0.051786423 -1.8134739 -0.37419063 -0.3451428 -1.133801 0.81938773 0.2614099 1.3047067 -1.1673657 0.24718177 0.040424764 -0.07906705
0.5746851 0.3639371 0.45931408 -0.08478484 -0.43470162 -0.45860445 -0.17704917 -0.11311595 -0.912093 0.16061418 0.23659335 0.015167812 -0.6734953 -0.47173765 0.14391877 0.022614148 -1.0882013 -0.012964975 0.97828066 -0.37153855 -0.42226183 -0.19260296 -0.017698176 0.6466809 -1.2442774 -1.8997697 -1.5539165 -2.176231 -0.9072411 -1.0031135 0.7816512 1.0072954 -1.2552091 -0.9174988 -0.8604677 -1.0852164 -1.9519678 -0.7383972 0.6849031 0.83551836 -0.9162899 -0.7232252 0.20616888 0.47345927 -1.5559767 0.8055485 -0.678368 0.75757337 -0.83433765 -0.5507601 0.18220955 0.013231729 -1.2329692 -1.4272708 -0.06850332 -0.27936217 -0.8088958 0.6043994 0.021651853 0.90527374 -0.95712453 -0.02552678 0.1937534 0.0947369
-0.9896355 -1.0808831 1.4240742 -0.55095017 0.21528095 0.030525507 -2.2997732 0.0136806965 0.1693796 -1.511931 1.4260335 -0.18159024 0.8007603 0.4057835 -0.9600684 0.44519055 2.0091085 -1.177745 2.9741645 0.21830651 2.9018488 -0.17335477 -1.0672908 0.17249018 2.0419638 -1.6290249 -3.9571886 -0.6351023 -4.6476746 -0.18354769 -2.3282328 -1.5255973 1.8145107 0.45761025 2.6108487 2.2742062 0.4317926 1.1241429 -1.401223 -1.6503091 -0.79722273 0.76026297 -1.3097548 -0.921554 -1.916364 -0.49100137 -1.3437544 0.5688965 0.52942985 -1.5667742 0.003674115 0.33573133 0.3496159 0.3429667 0.07226786 0.8828338 0.6610732 -0.8746794 -2.1325235 -0.012722937 -0.7500278 -0.36851007 1.8801262 -1.8413851
0.6074791 0.7467451 1.3295708 -0.61996 -0.49849156 -0.7740636 -0.93815124 0.0036602467 -0.10570868 0.4071425 0.76490986 0.3972553 -0.21358661 -0.96456224 0.23918727 0.14469841 1.2599851 0.63619787 1.0098537 -0.374674 1.3190678 -0.48386368 -0.40983975 -0.15557809 1.2828897 0.59397244 -3.2794049 -2.348883 -1.9555029 -0.81335217 -1.4333668 -1.2193664 1.2215418 0.38710296 0.35982326 0.7216595 0.0330854 -0.6258797 -0.40989265 -0.90528476 -0.36792266 -1.0329058 -0.9515767 -0.5288988 -1.2298832 -1.0276581 -1.0046399 0.036606874 -0.26104596 0.44901416 -0.21341607 0.10695751 -0.19065739 0.62410647 -0.44895524 -0.15739518 -0.28257138 0.99996465 0.87890774 0.24922842 -0.06978871 0.58814216 1.1063002 -1.8472664
1.5483278 1.4853696 0.35698217 0.14786424 -0.99695307 -0.73012257 0.16866134 0.088589296 -1.6883419 0.81531864 -0.37135768 -0.11773308 -1.1889051 -1.0037313 0.40198892 -0.34943116 -2.460391 0.1315997 -2.1010885 -0.19554375 -1.1513324 0.021825848 -0.1377208 1.2626277 -2.4343002 -1.1031454 -1.1486858 -0.12637079 1.5634601 0.45054927 2.4553075 2.1677234 -2.7920604 -1.7815388 -3.3288372 -2.4289234 -3.553715 0.14708634 1.8686424 1.4008278 -2.032732 -0.84823775 0.769837 0.6825958 -2.3122976 0.8349145 -1.4314244 1.4702407 -1.5576715 -0.9934652 0.6012856 0.043766852 -1.3339276 -2.1471384 -0.5041036 -0.37310156 -1.5069498 0.95340174 -0.50251716 1.5538218 -1.9412204 -0.14217396 -0.2671346 -0.078532115
-1.0330139 -0.97391635 -2.054451 -1.6985172 0.57104117 0.50712216 -1.5324186 0.01949957 1.0807496 -0.5963259 -2.4371192 -0.22430237 1.0624722 0.36207777 -0.43249834 2.0899324 -0.038216867 -0.2392007 -2.8314292 -0.22537263 -1.6960571 -0.4977497 -1.6907562 -0.77444947 -0.27604315 -1.3827865 0.87169605 -2.4536602 1.4073981 -1.258128 -0.5354693 0.043316882 -0.05353653 -0.12943909 -1.7641146 -2.556601 -1.290707 -0.6056822 -0.29021287 0.15905242 1.5176202 -0.19654228 -0.6402796 -0.45384485 0.84904754 -1.3023901 1.3697488 -0.61037064 0.5994102 0.10166606 -0.35460132 -0.41154712 -0.23419431 0.0863393 0.5334311 2.7428527 0.7272361 -0.5728005 0.037804455 -1.1249843 0.90909505 -0.3396607 1.2921116 -1.3049954
0.9032765 0.64675957 2.4329574 -0.6892138 -1.4587431 -1.0482771 -2.4270232 -0.08351906 -1.1688329 0.12295045 2.258086 0.35876986 -0.5356743 -1.5060103 -0.37267894 0.47233838 0.27114937 0.53110224 2.713607 0.38272622 1.5662351 -0.7677661 -0.8064859 1.7061235 0.1709351 -0.42018452 -4.346963 -1.5903502 -3.558265 0.86750746 -0.75267065 -0.43527037 0.78971606 0.79676396 -0.1989522 0.87545574 -0.017685408 1.2737081 0.21687363 0.14696136 -1.7822067 -1.1169448 -2.3146203 0.7121689 -2.2956371 -0.19310097 -2.0083544 1.7841171 -1.3577026 -0.98618853 0.7735416 0.87516344 -0.6413142 -1.0472338 -0.16853793 0.117919154 -1.2051415 0.8661535 -0.34839463 1.4447689 -1.7447199 -0.27539095 1.2028028 -1.8646976
-1.615494 -1.9048158 -0.63841265 -2.6529002 0.46667045 0.61765516 -2.4533515 -0.06745209 1.8473908 -1.6590044 0.05677727 -0.29944444 0.8655067 0.7150409 -0.78812623 2.6337302 2.3515773 -0.81938213 1.1109213 0.030382914 1.140053 -0.857295 -1.9043357 -1.1858588 2.4395156 -1.7383485 -1.8229157 -4.021976 -2.8288052 -1.5931361 -2.6013265 -1.9403453 2.435814 0.28878173 0.7012112 -0.21600652 1.056449 -0.659731 -1.8420353 -1.4390156 1.1513749 -0.83300745 -2.698805 -2.6342394 -0.61920935 -2.7935967 0.625726 -1.1089242 1.1786126 -0.08736275 -0.2994104 -0.43835893 -0.5662561 1.1166965 0.23946957 3.2477546 1.4168868 -1.2230562 -0.732404 -1.5459666 1.462748 -0.21473403 1.8300781 -1.9455861
1.1943941 0.5843327 2.6063244 0.19172382 -0.6368066 -0.7106915 0.25878936 -0.08314356 -1.5664471 0.2552417 2.0132744 0.2447126 -0.9424895 -0.9813277 0.40405822 -0.42172548 0.19730547 0.16632538 2.8616674 -0.7971625 3.2505682 -0.63382477 -0.35551965 1.326524 -0.2234956 -0.2116547 -4.958622 -2.2280786 -2.6930623 -0.40878186 -0.68512785 -1.0314445 0.40290678 0.038343158 1.0447758 0.6312235 -0.79624534 0.8334854 0.6908889 -0.3368396 -2.0949285 -1.3278223 -1.8328853 0.38607073 -2.5749593 0.5453651 -2.4696789 1.2993109 -1.7541144 -0.5717989 0.86913514 1.1387429 0.30454502 -0.9686987 -0.1388519 -0.07534083 -1.8357193 0.84391165 -0.1935978 1.5122141 -1.981348 -0.36745617 -0.31200647 -0.00011821091
-0.9054078 -0.93050057 0.45023203 -2.8775153 0.34025016 0.32599157 -2.8732476 -0.055989683 1.7710292 -1.2625188 0.8301362 0.036509678 0.9179631 0.19661614 -1.0896487 3.5901716 3.0081108 -1.1346784 2.1151676 -0.75434625 1.8824915 -1.9258145 -3.1384215 -1.3453401 2.9900465 -1.358727 -2.9436603 -2.8104014 -3.9569056 -1.2263771 -3.5795553 -3.0119255 3.0671036 0.4175148 2.7376482 2.6709852 2.4053602 -0.21387872 -2.0309627 -2.334541 1.1444682 -0.08002861 -1.6092747 -2.2483566 -0.3602131 -2.32945 -0.10694956 -1.1123506 1.2505541 0.3321238 -1.084677 -0.9002599 -1.0800323 1.5340644 0.71047837 4.4014945 1.4257029 -0.7591957 -0.20443203 -1.5929407 0.9583163 -0.48044226 2.1591883 -2.264771
1.3098458 0.96005106 -0.29939136 0.2849659 -0.95585155 -0.64845514 0.29259163 0.124537334 -1.8122904 0.5171855 -0.74368 0.036574014 -0.8819635 -0.7830421 0.4388065 -0.07829376 -2.8115897 -0.008807596 -0.47956604 -0.4316893 -0.5516502 -0.20831363 -0.1297171 1.3959807 -2.712281 -2.278933 -2.703216 -2.742203 -0.8315011 -1.4605544 2.5655499 2.6408923 -2.996111 -2.39438 -1.7525139 -1.4303267 -2.0152175 -0.61505425 1.5925493 2.1551843 -1.6091375 -1.9309297 0.73588365 1.1440693 -1.4111737 0.80908227 -1.3552513 1.1425302 -1.6762062 -0.95363796 0.9367628 0.9137563 -0.63399476 -2.3701775 -0.2600883 -0.26176527 -1.6909946 0.9520407 0.17299305 1.4825526 -1.8195207 -0.2256912 -0.17737857 -0.037664324
1.1160327 0.59992737 1.279327 -0.2646555 -0.74591684 -0.4913413 0.116537996 -0.115121946 -1.347149 0.28842047 0.6137227 -0.3098462 -0.63402414 -1.0203173 0.14648229 -0.38757238 -0.6578005 0.021711173 1.7207888 -0.1498501 1.1726568 -0.28449956 -0.13746507 1.0790732 -0.64390147 -0.784035 -3.535469 -1.8152359 -2.232117 0.40205327 0.7050764 0.42279175 -0.51738405 0.3954897 -0.23451105 -0.056857463 -1.5266327 0.15525211 1.3921702 0.2608012 -1.7459937 -1.4346863 -0.038392548 0.5804875 -2.7667756 -0.5926636 -1.9907025 1.2342576 -1.2153195 -0.89392495 -0.09254336 0.9382905 0.75395966 -1.2207547 -0.4398554 -0.29226524 -1.2798246 0.8638934 -0.3351823 1.2784976 -1.4665163 0.117567606 -0.12215415 -0.088746056
1.3073609 0.7717567 3.0806131 -0.1540422 -1.5011493 -0.82791704 -0.124849044 -0.10712959 -1.9676192 0.5899603 2.4250612 -0.16825064 -1.5309327 -1.1425599 -0.19986628 -0.62188697 -0.059011254 0.078982234 3.2589693 0.24496078 3.4467957 0.09175502 -0.5816981 1.4834054 -0.25726283 0.60941476 -5.0631843 -0.5815674 -4.331693 0.37983388 -0.51022047 -1.1837445 0.985507 0.8308979 2.1066658 2.6196854 0.5167633 0.9443316 1.1245384 -0.15732452 -2.2178597 -1.524268 -2.285235 0.27217224 -2.657463 0.4752582 -2.8099291 1.5053916 -1.8413893 -1.2564685 0.5492662 0.87192136 -0.08564402 -0.99760926 -0.6424618 -0.5103315 -1.7592788 1.0834857 -0.26975447 1.7584509 -1.9621683 0.1398092 0.24804088 -0.58508664
0.93241596 0.7452312 0.40236276 -0.04415225 -1.219788 -0.3602945 0.012238426 -0.030229852 -1.4327422 0.1575342 0.0549594 -0.34751043 -0.9456619 -0.83082896 0.04265374 -0.1568421 -2.2948196 -0.101743944 -0.4888216 -0.07718993 0.2885897 -0.17126666 -0.27402446 0.9685071 -2.4337955 -2.2028909 -2.4285955 -2.3792865 -0.4230457 -1.5840478 1.3764247 1.4206853 -2.2988682 -2.0427344 -1.1128967 -1.2289186 -1.4870734 -0.17347477 1.4504948 1.3165358 -1.1650325 -1.6064209 -0.45670933 0.32889926 -1.339117 0.9519778 -0.7728637 0.9121626 -1.0582644 -0.3673877 0.841046 0.7041764 -0.8897744 -1.6714659 -0.6134223 -0.27128068 -1.2093002 0.5804793 0.12164667 1.470665 -1.3090008 -0.08291071 -0.02132735 0.03371862
-1.3695275 -1.2527292 -1.9478284 -1.6031646 0.49227712 0.053301994 -1.6180267 -0.09374525 1.4775892 -1.3500904 -1.6057234 -0.13975137 0.61031836 0.23769887 -0.1169469 1.9850631 0.39688978 -0.68517 -0.97275877 -0.60353327 -0.7166445 -0.836056 -0.8623525 -0.8391193 0.33551583 -2.6059475 -0.9840744 -3.59171 -0.2049245 -2.1252344 -0.49953383 0.09011133 0.09959512 -1.0447427 -1.1543611 -0.9459791 0.44741574 -0.81503296 -0.9998574 -0.05937238 0.6282829 0.23854275 -0.33286145 -1.5349134 0.59412247 -1.3246151 1.5176411 -0.75555444 1.2849623 0.52969354 -0.67791075 -0.7560899 -0.6326038 0.57572645 0.19345236 2.1459837 1.307234 -0.7936127 -0.49693373 -1.3793747 1.0575104 -0.55051315 1.2413995 -1.4135157
-1.9179065 -1.8224572 -0.17780454 -2.3853338 0.8750334 0.33802843 -2.4005742 0.089543894 2.088264 -1.728068 -0.072616175 -0.45345125 1.0487769 0.5739482 -0.8473021 2.6330094 2.9916553 -0.48792312 0.068580665 -0.4042661 0.5829897 -1.3802977 -2.173196 -1.2493397 2.7712822 -1.227274 -2.712863 -4.0376754 -3.2277033 -1.0847056 -3.5469546 -2.904405 3.0150967 1.0993114 0.8749975 0.53517693 1.0940602 -0.19449735 -2.4420311 -2.4409208 1.7313037 0.8409505 -2.0497248 -2.3147273 0.06181652 -2.3855045 0.97574157 -1.0592588 1.4418799 0.30942094 -0.635484 -0.2309788 -0.070215106 1.8873258 0.8537706 3.6692681 1.836165 -1.1604764 -0.90761983 -1.8025638 1.5756189 -0.4011715 1.6776942 -1.7007533
1.1847197 1.1433542 -0.1057382 0.20526299 -0.8099314 -0.45037782 0.20313281 0.07841697 -1.4220768 0.8886615 -0.28561538 -0.2673996 -1.260934 -1.0144368 0.1118027 -0.3185899 -1.9158238 0.087145 -0.58202636 -0.24317339 -0.9068496 -0.18895969 -0.21307282 0.7588415 -2.2245085 -2.356718 -2.3549113 -2.6864853 -0.062118225 -0.55753565 1.9012817 1.605423 -2.2372074 -1.8686558 -0.91512734 -0.6952011 -0.7307513 -0.5604083 1.4311733 1.363435 -1.1225854 -0.9655092 -0.14805003 0.229852 -0.942311 0.77999604 -0.45121717 0.74366426 -1.3273245 -0.23920572 0.52763796 0.42361823 -0.577138 -1.4376227 -0.43145752 -0.60753095 -1.3100748 0.80789864 0.4599671 1.081128 -1.2415452 -0.058483973 -0.09759903 0.12313916
1.0766828 0.5925389 0.96799254 -0.11185542 -0.9040049 -0.72141075 -0.14951208 0.08881818 -1.875102 0.22281335 0.4453612 -0.18921362 -0.750708 -1.075047 0.10852606 0.024745539 -1.6687742 0.18580714 -1.2674499 -0.0018150432 -1.084439 -0.37103677 -0.21388955 1.5049927 -1.6898348 -0.61968416 -1.1826462 -0.7958237 0.38281313 0.486937 1.7014115 1.8014015 -2.4719377 -1.0207659 -3.6676934 -3.2563078 -4.2150946 -1.0482409 2.4862118 1.7593504 -1.985222 -1.846551 0.25009143 1.5283413 -2.3595994 1.3609065 -1.0722032 1.8057588 -1.2541125 -0.49420214 0.5126223 0.36746794 -0.7668424 -2.6384785 0.04456406 -0.21957584 -1.2277385 0.77477133 -0.3138713 1.7083181 -2.3057938 -0.4008075 -0.18692385 0.16919495
0.7671706 0.2654955 0.7818114 -0.14375179 -1.1658423 -0.5303351 -0.16452041 0.058358997 -1.1979065 0.22413233 0.6163537 -0.1190551 -0.9592788 -0.92021906 -0.0953052 -0.3063304 -1.4946378 0.24659643 -0.71121615 0.15705019 -0.36035216 -0.24194114 -0.33774686 1.1321572 -1.388792 0.11691057 -1.2887554 -1.0552764 0.44772574 0.60602695 1.6318146 1.3626547 -1.5767415 -0.44410837 -2.6131287 -2.7920854 -2.9595356 -0.5757927 1.9533505 1.4782244 -1.4620095 -1.4474839 -0.35015386 0.78086126 -1.970125 0.81121325 -0.7860469 1.1422644 -1.6040567 -0.9949045 -0.07955044 -0.22353737 -0.9017996 -1.9253614 -0.67453355 -0.50259876 -1.4127754 0.83071786 -0.06119777 1.3376855 -1.1819927 0.1850909 0.30947968 -1.5905555
1.1834823 0.5528559 0.9108884 0.0038676362 -0.9823611 -0.8295869 -0.031616118 -0.020908996 -1.6083244 0.0003371383 0.42845824 -0.032621376 -0.8577598 -1.0865809 0.008898604 -0.094710894 -1.902714 0.05936862 -0.53615564 0.057393033 -0.8946266 -0.38207865 -0.39147994 1.524023 -1.921526 -0.6625684 -0.63435775 -0.40322745 1.0016441 -0.012335522 2.204078 2.0040376 -2.3313482 -1.7472032 -3.2282038 -2.6730158 -3.6377017 -0.24747756 2.0955896 1.7398499 -1.8471056 -1.786849 -0.01314825 1.6438742 -2.0400913 1.3683534 -1.3465601 1.8373451 -1.5882413 -1.333791 0.32987657 0.1259637 -0.69033927 -2.410434 -0.6264817 -0.55105925 -1.6301432 0.82113177 -0.5564892 1.5124586 -2.167141 -0.07876949 -0.15162522 -0.09888796
-1.1915046 -1.2545485 -2.2305336 -1.503472 0.54341257 0.51800364 -1.3165922 -0.043729037 1.4981271 -1.1596916 -1.6393753 0.038769826 0.9192755 0.48564702 -0.68819135 1.726693 0.27748576 -0.5747656 -2.6628375 -0.010338153 -2.1843004 -0.49341455 -1.3558843 -0.93010664 0.23234233 -1.8733735 1.4570813 -2.2586026 1.6679335 -1.4761854 -0.32304198 0.0866784 -0.36470163 -1.1418684 -2.5019026 -2.6283953 -1.6624656 -1.0715262 -0.867558 -0.29840654 1.1117998 -0.23581512 0.04945079 -1.5337341 1.4613196 -1.387176 1.692216 -0.87048525 1.1001645 0.5451924 -0.47796455 -0.50430644 -0.7647009 0.39439178 0.32202974 2.1966312 1.2474016 -1.027656 -0.38909897 -1.109143 1.2682917 -0.24243344 1.1793311 -0.9558745
-0.18046299 -0.20372756 -2.0898583 -0.24758701 0.018809188 0.06697194 -0.05002938 -0.030099034 0.75017536 -0.3518849 -2.132152 0.029452601 -0.12686196 0.06748278 -0.19235823 -0.0062466837 -0.660628 -0.51663667 -2.0595596 -0.7326181 -2.2877858 -0.5528933 -0.44658244 -1.0821704 -0.6452862 -1.5695846 1.5643653 -2.3353267 1.9081538 -2.2428408 0.44351748 0.33797014 -0.7154066 -2.049392 -3.4185398 -3.8625383 -2.49841 -1.8481148 -0.839286 -0.28895107 1.0784138 -0.95059836 0.11963973 -1.7752821 0.82075566 -1.2172718 1.0704452 -1.0124899 0.19136338 0.29523507 -0.5860713 -0.6622888 -1.2963693 -0.10076005 -0.015605242 -0.025127169 0.4334987 -0.29112723 0.5655025 -0.7797658 0.621246 0.0363843 0.16444756 -0.07113338
1.0218133 0.9220585 0.37875313 -0.237289 -0.5949347 -0.39160538 0.035250988 -0.086055994 -1.3905491 0.079316765 -0.38690418 -0.3134705 -0.46134928 -0.71452534 0.24761403 -0.13082576 -1.9205227 -0.16903265 -1.0346869 -0.332709 -0.40868795 0.008569088 -0.17564371 1.1389674 -1.8491464 -0.27446178 -0.8948866 -0.8087419 0.6454777 -0.14530154 1.8754164 1.7450919 -1.6908481 -1.1374737 -2.5666888 -2.1387897 -2.6242797 0.28120875 1.6713217 1.3832024 -1.4435368 -0.8874786 0.5188792 1.0995606 -1.3718445 1.0392063 -1.1496468 1.2487781 -1.1148969 -1.0732704 0.051882755 -0.15665174 -0.5495329 -1.6311909 -0.5943292 -0.6646073 -1.0472003 0.65661794 -0.21387571 1.1824812 -1.370915 0.12936495 0.0050677983 0.11052711
-0.92707473 -1.0195917 1.146842 -1.2832242 -0.4122053 -0.46693403 -2.6952593 -0.018854156 1.1776457 -0.41695553 1.6660945 0.252045 -0.2630862 -0.611225 -0.5976849 0.9641013 2.4817011 -0.35819504 2.936876 -0.68905467 0.8399932 -1.3860323 -0.82665664 -0.73499393 2.2558415 -1.3918971 -3.2390058 -1.7862065 -4.04138 -0.22857964 -2.8974423 -2.5304055 2.7918925 0.27353567 2.7127328 1.8833742 2.4418266 -0.41551465 -1.5552552 -2.037165 0.25126404 -0.070981376 -2.4668503 -1.31016 -0.9891581 -1.6095332 -0.5064802 -0.3198064 0.5602714 -0.4321934 -1.2002722 -1.0416871 -1.4860805 0.680852 -0.03806653 0.53607446 0.33753848 -0.7797671 -0.5012219 -0.96498436 0.28560227 -0.7751902 1.8843383 -1.8479509
-0.044940937 -0.37678736 0.32065713 -0.733093 -0.3553686 -0.23154502 -1.4881407 -0.0022429675 -0.19752912 -0.9802722 0.17013781 -0.61519027 -0.37394884 -0.4204708 -0.7924032 0.5078724 -0.083451495 -0.50488704 0.94923025 -0.1845113 -0.637902 -1.1314561 -0.84659946 0.20941569 -0.36716112 -2.4424279 -1.6415966 -1.4408168 -1.6867659 -0.13292588 -0.43148834 -0.31580803 -0.042611167 -1.4572992 -0.5665222 -0.89710873 -0.50320286 -0.60146064 -0.25021747 0.0088235745 -0.74949914 -1.1492751 -1.6949774 -1.256626 -1.6915795 -1.0712355 -0.60336256 0.30681816 0.157128 -0.19949502 0.49998584 0.4164792 -0.2195848 -0.58925194 0.22228022 0.95874643 0.15240395 -0.06988074 -0.55867475 0.46846992 -0.4236322 -0.290408 1.0075182 -1.4220784
0.47976598 0.13656408 1.7383446 0.09974275 -0.696274 -0.045015432 0.25705206 -0.080028474 -0.9345135 0.050488178 1.4870118 -0.2569499 -0.700296 -0.7135141 -0.16851807 -0.24497752 0.14142685 -0.09027895 2.0458462 0.31514305 1.4413744 0.15646346 -0.22008371 0.4924218 0.12399004 -0.113947645 -3.0227478 -0.58274 -2.7799764 0.52548814 -0.45062926 -0.51151407 0.42936257 -0.10524931 0.8706077 1.4305322 1.0817708 0.4679101 0.55736554 -0.2754135 -1.3724079 -1.2504913 -1.1849241 0.05974848 -1.6997148 0.13328174 -1.6842529 0.7352799 -0.57584095 -0.76844907 0.1606411 0.096511975 -0.3531999 -0.7832229 -0.6538947 -0.5059104 -0.68452656 0.43846944 -0.40782285 0.71621394 -0.90676004 -0.22811292 -0.23140152 -0.14622015
1.1371841 1.001454 -0.71295714 -0.3455912 -0.8926772 -0.6946532 -0.194213 -0.0050126314 -1.5746374 0.64639413 -1.1244717 -0.43811443 -1.0092151 -1.1622677 0.094008826 -0.23230971 -2.2920384 0.15996732 -1.2882389 -0.48266235 -2.3604722 -0.17976607 -0.25386372 1.1353414 -2.2922273 -2.2047973 -1.3192838 -2.0699582 0.6088291 -0.40344387 2.737878 2.6106963 -2.866909 -1.8666228 -2.6411884 -2.2686903 -2.3691204 -0.18532951 1.8972188 1.9341435 -0.8521933 -1.1730403 1.0178914 1.2289895 -1.5685462 1.0030441 -0.7987501 1.1538837 -1.2295163 -1.0476433 0.20237306 -0.199266 -0.96729136 -1.9361434 -0.45773813 -0.29092398 -1.2228289 0.9480912 0.17356712 1.464269 -1.4419657 0.13431981 0.20736606 -0.1454861
1.0302874 0.7056524 0.20911051 -0.27879798 -0.7260541 -0.66352236 -0.19227883 -0.049990118 -1.358168 0.3388597 -0.5263842 -0.36988604 -0.8088478 -0.8417643 -0.07258797 -0.43334857 -2.0383432 -0.010873111 -0.92350775 0.31321135 -0.91678363 -0.25278193 -0.3530896 0.5992499 -1.9161521 -0.8384177 -0.43329632 -0.49057233 0.7396981 -0.29170159 1.9978553 1.7908418 -2.0800576 -1.1280234 -2.374112 -2.0700722 -2.5296698 -0.30458376 1.2971067 1.1698354 -0.9180022 -1.3229355 0.22120334 0.31274706 -1.5766875 0.6375889 -0.87547725 0.66038257 -1.19009 -0.6294509 0.4416551 0.3102289 -0.36559758 -1.427822 -0.5306795 -0.32797635 -1.0296612 0.97374845 0.2913524 1.2847834 -0.9512801 0.09197479 0.24419977 -0.085264996
-2.3008666 -2.4102561 0.25701842 -2.8668916 0.72137034 0.6370808 -3.0549493 0.0064110756 2.3906403 -1.7739276 0.9322399 -0.073325686 1.5687237 0.8422667 -1.0407995 3.6730363 3.2039595 -0.5482198 2.136502 -0.7859621 2.7004783 -2.2612762 -3.2166882 -1.3938043 3.1791785 -0.9557418 -3.343284 -4.137681 -3.4223995 -1.7412866 -3.3610651 -3.053564 3.28546 0.96990484 1.2988266 0.74145854 1.5525191 -0.23121381 -2.754957 -2.8705106 1.2027463 0.5625434 -2.3193064 -2.1241004 -0.35798767 -2.4878674 0.27728727 -0.9982295 1.5164366 0.03161345 -0.28101653 -0.5822539 -1.0525867 1.4809456 1.5662159 5.1176395 1.72254 -1.9106358 -1.034184 -2.078098 1.1099161 -0.853016 2.401162 -2.2375271
1.2489507 1.2493458 0.55076754 0.0482316 -0.88231033 -0.63366777 0.13289045 -0.04361306 -1.7185603 0.73088866 -0.1870007 -0.30993193 -0.8556581 -1.1558974 0.29942864 -0.3805146 -2.5516658 -0.027781447 -0.81860214 0.01614239 -0.7060815 -0.31434873 -0.2522114 1.4050438 -2.5938907 -1.1498485 -0.5393595 -1.1216235 1.3139524 -1.0888922 2.5469582 2.2373793 -2.7344182 -2.1384296 -3.9545002 -2.8690937 -4.1640253 -1.0090557 1.759531 1.6543549 -1.8412937 -1.1940739 0.50639325 1.066333 -1.9901512 1.2879528 -1.1733739 1.6773627 -1.2878973 -0.98545146 0.04129861 -0.10703116 -0.5922984 -2.6113777 -0.4727606 -0.43857276 -1.3080056 0.8670739 -0.516032 1.829541 -2.0683594 -0.025451632 -0.22513993 0.11699788
-1.7100196 -1.7765992 0.20972551 -2.0515847 0.6279963 0.48020282 -1.9225547 0.06259228 1.9370475 -1.5959557 0.7943024 -0.14632812 0.8841302 0.30665073 -0.92860174 2.3480618 2.775135 -0.6771522 1.3256357 -0.3411499 1.4674307 -1.0099581 -1.5536497 -1.1746736 2.508577 -0.3220847 -2.4119818 -2.6823566 -4.141412 -0.66554075 -3.1881232 -2.761975 3.217956 0.9118483 1.7323889 1.7426302 2.8754048 -0.16252092 -2.1113882 -2.288134 1.2783047 0.42737502 -2.098532 -2.0626473 -0.0014790456 -2.2072804 0.4520086 -0.9105604 1.4568169 -0.30098447 -0.5903149 -0.6683115 -0.7090716 1.3586396 0.58797044 2.6414766 1.5334485 -1.3934718 -0.9836217 -1.727299 1.087407 -0.2709579 1.4959255 -1.3491149
0.90892327 1.0976193 -0.43430713 -0.7446337 -1.1235485 -0.81113863 -1.1352801 0.06729859 -1.3939481 0.3723576 -0.46991763 -0.19105574 -0.8236778 -1.0195357 -0.2979604 0.37570944 -2.33667 0.234531 -1.7918661 0.33764908 -1.8374363 -0.5601042 -0.82601476 1.5681328 -2.3682117 -1.3767668 -0.2661591 -0.33407223 0.8903332 0.2245216 2.4012716 2.5532932 -2.3880923 -1.6666274 -3.6654663 -2.3229606 -3.9397695 0.31652498 2.116137 1.9472167 -1.2389197 -0.5042645 0.8301797 1.5768331 -1.8490146 0.46547565 -1.000668 1.821075 -0.91187364 -0.8815843 0.5449361 0.5787817 -1.1970791 -2.5121675 0.28371042 0.23497534 -0.9298159 0.2576271 -0.78440326 1.1998732 -2.227034 -0.95570713 -0.3578579 0.2795094
-1.115377 -1.1977618 0.3146528 -1.653573 0.38036612 0.39003256 -1.6745596 0.079870775 1.3727599 -1.1289941 0.42760402 -0.11387112 0.68495417 0.485321 -0.6685409 1.7690586 2.0639138 -0.35526913 0.2616096 -0.20169914 1.4011545 -0.86515886 -1.0366703 -1.0666313 1.8348521 -0.32654032 -2.8121703 -2.8776107 -2.389414 -0.70851123 -2.5153275 -2.2232373 2.2971995 0.34264573 0.8835179 0.5887787 1.1228082 0.043517772 -1.7715302 -1.9393811 0.7166699 0.5105841 -1.7559949 -1.5528369 -0.21585439 -1.5140401 0.496502 -0.5940427 1.0674759 -0.21166955 -0.54262596 -0.4745405 -0.5643515 1.3375614 0.2767265 1.8400799 1.1243343 -0.8843765 -0.7031684 -1.0944412 0.83882815 -0.1505562 1.2122387 -1.2135866
0.22652008 -0.13396065 -1.4299272 0.20215416 0.40672663 0.77359277 0.09162615 0.09927827 0.46567416 -1.2868696 -1.9645036 -1.2958082 -0.15877585 0.5625071 -0.1566113 0.45698613 -1.0231143 -1.3093213 -2.7746031 -0.25364962 -2.0674555 -0.5355422 0.109906904 -0.41321334 -0.94168353 -2.0243719 1.301069 -1.4260957 0.8612274 -0.8290861 0.8134828 0.8490083 -1.1917139 -1.4096245 -1.6038753 -3.4690902 -2.1809847 -0.44634393 -0.3750727 0.39389664 0.62627596 -1.1263022 -0.8791492 -1.0332708 0.07726113 -0.7528314 0.45828307 -0.48068765 -0.17919743 -0.009952301 0.10478512 0.12176528 -0.52868474 -0.27408984 0.1814047 0.6631169 0.04279218 -0.5622253 -0.34079602 -0.46800476 0.1994372 -0.43131348 -0.14390409 0.018212125
0.96518874 0.67375314 -0.44474262 -0.24133873 -0.52346796 -0.48033294 -0.02354084 0.037176475 -1.2459066 0.53247136 -0.9331981 -0.3747859 -0.66874117 -0.7009287 0.007638212 -0.3387112 -2.4638317 -0.11857744 -1.6422057 0.024627475 -1.6530498 -0.18267831 -0.2816133 0.7019912 -2.317773 -1.4655162 0.34087953 -0.8158971 1.6359932 -0.5420818 1.7551022 1.849802 -2.7070832 -2.07667 -2.4474862 -2.7684307 -3.0078464 -0.4944984 1.3648205 1.2714978 -0.7871143 -1.2809718 0.19508867 0.27108476 -1.3579361 0.50156474 -0.4831981 0.5107628 -1.0268314 -0.096974775 0.9337812 0.7583868 0.11966465 -1.3967388 -0.29284227 -0.12930204 -0.9393381 0.62924033 0.34156913 1.2462584 -0.9021869 0.35560468 0.0935065 0.10953818
0.15004097 -0.27589414 1.2979342 -0.6565316 -0.73273355 -0.64046586 -1.6054163 0.053563282 -0.109293625 -0.7362677 1.274547 0.021720063 -0.74569505 -1.1706016 -0.77181506 -0.13705671 1.3912579 -0.58652574 1.8106805 -0.37526223 1.7073147 -0.81351835 -1.3921429 0.2700352 1.420056 -1.5585287 -3.8581522 -2.5132513 -2.7914062 -0.48560748 -1.2291732 -1.194175 0.93809336 -0.68046945 0.32434586 0.39652997 -1.0974398 1.0165224 -0.7366356 -0.9994616 -0.9229473 -0.6315839 -1.7507447 -1.237891 -1.9800872 -1.3198118 -1.9436694 0.37280086 -0.43204382 -0.44173974 0.11770141 0.5070299 -0.8124453 0.50783676 -0.25289416 0.21071307 -0.31440192 0.2089399 -0.5892135 0.51823944 -0.6916296 0.089826025 0.8614416 -1.7509853
-2.8325322 -2.8844674 0.41603315 -3.4260604 0.7487304 0.38940167 -3.4716816 0.06721039 2.654233 -2.2296064 1.0323325 0.009718481 1.7622797 0.5660708 -1.2597406 4.2539306 3.7387512 -0.7321715 2.429284 -0.7586696 2.4305632 -2.097386 -3.8047934 -1.8108857 3.6657367 -1.2384682 -3.734346 -5.141638 -3.8693657 -1.4827869 -4.4326386 -4.0131583 4.3861437 1.6210663 0.7861403 0.9694713 1.8156179 0.0035185535 -3.1849942 -3.411058 1.6367097 0.45195162 -3.410775 -2.4736667 -0.36846796 -2.4109323 0.62302995 -1.1327101 1.6829778 -0.76292616 -1.2170274 -1.0738817 -0.9825507 2.0182152 0.9104749 5.2298613 2.2033675 -2.1749158 -1.2425032 -2.2011688 1.5000366 -0.5214367 2.5837908 -2.43646
1.5487492 1.597188 0.58112234 -0.2405046 -0.8418469 -0.74158674 0.08766071 -0.07155971 -1.941325 1.1959074 -0.6605163 -0.33898243 -1.0583137 -1.5444387 0.14598186 -0.38490054 -2.757235 0.13853057 0.47014666 -0.41665068 0.32791993 -0.46326467 -0.507692 1.6075714 -2.6598701 -3.0209208 -3.4937363 -3.1058757 -1.0692297 -2.3557477 2.7036986 2.2722573 -2.750439 -2.6562173 -2.7057498 -1.8724113 -1.8426188 -0.0146407075 2.4943838 1.9226738 -2.2363272 -0.7293264 0.46226707 1.2705826 -2.7169158 1.6722975 -1.5616478 1.9055734 -1.7026062 -1.3271278 0.56751907 -0.016824614 -0.34117767 -2.8136826 -0.6447093 -0.7947253 -1.8052782 1.4703945 -0.36112532 1.9939029 -2.287714 0.19330585 -0.010674396 0.10933414
-1.0492465 -1.2400324 0.50218284 -1.838581 0.21740139 0.34367096 -1.7991327 0.11417061 1.5713121 -1.2269982 0.48102847 0.007712259 0.8561431 0.594903 -0.6199936 1.558025 2.441816 -0.7604655 1.398881 -0.016913773 1.6383905 -0.57692504 -1.7745088 -1.1252098 2.2195277 -0.8500743 -2.7105293 -1.6998714 -3.7789667 -0.19672872 -2.9396195 -2.5861974 2.9390073 0.7866215 2.4105628 2.034253 2.7034032 0.4208368 -1.8939054 -1.9997611 0.9865821 0.35547936 -2.3876636 -1.4097979 -0.067245275 -1.7214929 0.30254906 -0.61525005 1.3641603 0.12877259 -0.5556982 -0.44612694 -0.7873725 1.2973177 0.011554588 2.3973367 1.3632603 -0.92069674 -0.61084104 -1.3968586 1.0781813 -0.07646875 1.1404856 -1.2113992
1.1084945 0.5478962 2.3926525 -0.2878342 -0.6904961 -0.60980785 -0.17135814 0.08594212 -1.383917 0.18690246 1.6061845 -0.12767874 -0.4915553 -0.88739663 0.41414836 -0.09451005 0.13030767 -0.023738137 2.0963635 -0.4286084 2.283136 -0.43578264 0.035282373 1.2763661 0.16521043 0.5730333 -3.9727368 -1.195632 -2.7239475 0.25910884 -0.5864314 -0.73138386 0.8691863 0.58556557 -0.07926551 0.5348362 -0.655852 1.0424265 0.44991452 -0.25951633 -2.137343 -1.5224265 -1.3544928 -0.24755895 -2.5791016 0.1354568 -2.551377 1.5456283 -1.2886665 -1.039938 0.4331576 0.9800731 0.8501428 -0.30580607 -0.45652458 -0.3127287 -1.0428497 0.82187384 -0.477671 1.4762064 -1.5634072 0.09777438 0.14540608 -0.30429086
-0.6631231 -1.3007647 -1.0046997 -1.3844972 0.42268524 0.3819823 -1.474751 -0.0267044 0.62060183 -1.8171705 -0.8859866 -0.06796715 0.8710501 0.42053595 -0.54248077 1.7174721 0.27444413 -1.0977346 -1.1005343 -0.00013926055 -0.70242995 -0.18681167 -1.5143815 -0.101445965 0.05342398 -2.4869199 -1.5190666 -3.3838794 -1.5048344 -0.8920604 -0.2832085 0.21809341 -0.036212064 -1.3271283 0.019901212 -1.4167943 -0.26649475 -0.96456367 -0.4491878 0.29851323 1.0527313 -1.2674974 -1.1031808 0.094222054 0.5022751 -0.7954322 0.76664555 -0.23852678 0.5611248 -0.052009616 0.15147787 0.21602012 -0.58403647 -0.49435624 0.18610147 2.2352202 0.5173843 -0.67220175 -0.39907056 -0.44127777 0.30187324 -0.26294345 1.0058615 -0.9103251
0.9047666 0.7602909 -1.4145293 -0.6058866 -0.9611927 -0.8352581 -0.92736435 0.017738745 -0.39961398 0.3959474 -1.8386364 -0.22678268 -0.6207022 -1.2746642 -0.1168031 -0.22524911 -1.6582727 0.51564014 -2.9397576 -0.16964476 -2.5781848 -0.5115308 -0.88804734 0.11413466 -1.6700906 -1.0191699 1.0018424 -1.9059607 2.542064 -1.635393 1.1559429 1.3010628 -1.8719935 -1.550911 -3.4250293 -2.8480604 -2.5413277 -1.6020597 0.9873121 1.0763891 -0.042266212 -1.4270527 0.15427393 -0.39144963 -0.77330726 -0.83325005 0.60492516 -0.057546828 -0.64600766 0.8675996 0.2046804 -0.07321569 -1.2250522 -0.861529 -0.55191 0.0510372 -0.6254977 1.2490654 1.3671882 0.7468023 0.017305262 0.6569475 1.0029422 -1.8343743
1.0080353 0.2947472 -0.5488151 -0.17056403 -1.4155419 -0.8982357 -0.2264489 0.03754863 -1.7263485 0.0012909331 -0.6007058 0.048716456 -1.35801 -1.4291523 -0.1637328 -0.20140202 -3.1314273 0.22586241 -2.5537899 -0.06486421 -2.0630083 -0.43877202 -0.71360356 1.0589421 -3.112545 -2.1154172 -0.666898 -1.3373461 1.7311839 -0.57760024 2.3552258 2.645616 -3.5742683 -2.5851734 -3.0228965 -3.7428863 -3.6658356 -0.8211704 2.0898554 2.0518527 -1.1161791 -2.2844532 -0.089603655 1.2906797 -1.6944748 0.4241861 -0.45795098 1.2634568 -1.7884464 -0.17363739 1.4012548 1.1455534 -0.6120971 -2.3634493 -0.028861497 -0.11693866 -1.8044689 0.79518473 0.27455285 1.6284306 -1.4101056 -0.23751973 0.016516548 -0.049513675
-1.4988036 -1.5295073 0.5086004 -1.8389636 0.6109772 0.57631093 -1.9743631 -0.007378429 1.8798945 -1.7472028 1.3690594 0.14593953 1.3648295 0.5078568 -1.0139484 1.999746 2.854655 -0.95381445 2.0365517 -0.27702883 2.3923697 -1.0349824 -2.0281024 -1.3543991 2.9424787 -0.52103 -3.2442267 -1.9995812 -3.9953449 -0.25211698 -3.023178 -2.8365798 3.247088 0.611405 2.6957471 2.1652079 3.0275304 -0.20225163 -2.320999 -2.3540258 0.7596954 0.48804498 -2.103229 -2.1744385 -0.4315809 -1.9576099 -0.034741007 -1.0274626 1.6298805 0.42466334 -0.2756403 -0.4853824 -0.72360265 1.488972 0.86189544 2.9655712 1.7993951 -1.159021 -1.233449 -1.8071986 1.295229 -0.3803614 1.4064828 -1.5595658
0.38254195 -0.0061296513 -1.1509302 -0.5601133 -0.67870116 -0.6017248 -1.0876611 0.03031157 -0.0502625 -0.49074244 -1.0161488 0.1461979 -0.30863324 -0.7663151 -0.26361024 0.112965055 -1.1529406 -0.15696338 -1.6575176 0.19694604 -1.8213103 -0.5886837 -0.72075903 0.032533552 -1.0994266 -1.2406329 1.1915653 -1.3739887 1.8722446 -0.93590444 0.9003957 0.78706115 -1.3623656 -1.3710601 -2.405277 -1.910964 -1.496312 -1.0458574 0.0692312 0.41335508 0.2513537 -1.6845126 0.22954962 0.06690417 -0.17843038 -0.65261775 0.3714692 0.0072055627 -0.41417783 -0.2356692 0.31470454 0.011771302 -0.49976668 -0.1821471 -0.4495038 0.2104841 -0.3146652 0.4614714 0.8372142 0.43834692 0.07599514 0.42188153 1.0760497 -5.1668444
-1.1026762 -1.030992 -1.9364499 -1.8996184 0.43080303 0.36094087 -2.0110052 0.0001591593 1.3399004 -1.2551347 -1.7975205 -0.14095144 0.7114813 0.65737057 -0.22355267 2.061799 0.7935083 -0.6566436 -1.311145 -0.16158195 0.09051432 -0.59108025 -1.394354 -0.9257146 0.84047216 -2.6083863 -1.0039613 -3.2887316 -0.6989712 -2.5479364 -1.4070796 -0.71237445 0.9033566 -0.54785436 -1.3986098 -0.19742101 0.4914403 -1.0280784 -1.5539855 -0.7125751 1.0191745 0.5933695 -0.6204869 -1.7890266 -0.14098702 -2.027231 1.1441933 -0.7228992 1.1061149 -0.030825319 -1.0858814 -1.425478 -1.1408473 0.45631015 -0.003940243 2.7512887 1.1610292 -0.599498 -0.32180065 -1.1566128 0.88765925 -0.5324715 1.5600421 -1.3940166
-0.12755288 -1.0522108 1.0245583 0.11777834 0.44516584 0.47282958 0.0259701 0.090794995 0.22234732 -1.2858151 0.6566883 0.0015981696 0.47563204 0.5496275 -0.0252648 0.1577671 1.1372856 -1.084297 1.4376184 -0.59146816 2.0078042 -0.24647336 -0.09412933 -0.18565792 1.0483449 -0.31067473 -2.498096 -1.9204452 -2.1930065 -0.38472643 -1.3809617 -1.4973246 1.574483 -0.04854951 0.8310513 0.08935355 0.15016857 0.58468705 -0.3605931 -0.8393576 -0.4991722 -1.0297155 -1.5269303 -0.80173755 -0.89630437 -0.8042723 -1.0842758 -0.063991286 -0.2613214 -1.3022621 -0.5373116 -0.3227233 0.30030036 0.5731885 -0.24700354 0.05586458 0.0470941 -0.46595544 -1.148043 -0.27597257 -0.044548377 -0.42663133 -0.17157395 0.078769535
0.99381727 0.7875844 0.89403194 -0.36593643 -1.06854 -0.7102097 -0.23085411 0.007702559 -1.2405051 -0.04791141 0.50639725 -0.17523715 -0.6270137 -0.92315686 -0.20354801 0.023769816 -1.4551253 0.34841633 1.4523327 0.27967104 0.46376014 -0.35531247 -0.63628393 1.2520183 -1.6966252 -2.5335968 -2.2025452 -3.0656765 -1.3514861 -1.1286187 1.1621423 1.3572066 -1.7069842 -1.2512298 -1.1980301 -0.92272305 -2.6137214 -0.7446996 1.884429 1.4064832 -1.4131596 -1.530674 -0.27994874 1.0539435 -1.6812302 0.47486126 -0.84614766 1.3681254 -1.0574034 -0.6935055 0.05798715 0.64038897 -0.53052413 -2.0925553 0.17293948 0.17227733 -1.1592467 0.56656015 -0.4461458 1.1396632 -1.6120386 -0.3417516 -0.13067475 0.49061215
-0.83481437 -1.0737033 -1.9154537 -1.9883578 0.48720115 0.3628973 -1.728941 -0.117725775 1.3937765 -0.99514776 -1.4571475 -0.10889735 0.99973047 0.84334344 -0.49767703 1.8625987 0.5297326 -0.59442997 -2.2412636 -0.2772315 -1.7712098 -0.56438196 -1.7458886 -0.95327294 0.52163625 -1.7795748 1.3470933 -1.9295996 1.0629764 -0.8502573 -0.787406 -0.102184296 -0.020661736 -0.7716896 -1.6837426 -2.515993 -1.336078 -1.0441058 -1.0164752 -0.3991547 1.4928687 -0.01543283 -0.4413437 -0.8875072 0.5827586 -1.4215221 1.5790437 -0.94121176 0.9248265 0.24802408 -0.31717718 -0.34362137 -0.66885173 0.36469683 0.37901792 2.4439747 0.94890964 -0.8070547 0.08819376 -1.1353235 1.0964931 -0.054683775 1.1775572 -1.1298922
-1.4669102 -1.4527149 -2.795859 -2.512868 0.6444333 0.47958082 -2.2816293 -0.03415692 1.8477194 -1.440046 -2.1723828 0.17350744 1.0443547 0.7565514 -0.8814098 2.7883477 0.21057692 -0.90164196 -1.7828 -0.33810833 -1.2778054 -0.60252905 -2.9646587 -1.3913474 -0.10065759 -3.1808953 -0.9085104 -5.431313 -0.7300635 -3.1310465 -0.9337395 -0.19746058 0.54169697 -1.9066005 -0.58877915 -1.4973209 0.8165274 -1.4670553 -1.5424525 -0.46106488 1.9145998 -0.035836294 -0.98654974 -2.045122 1.6184661 -2.0671928 2.12449 -1.3850945 1.42882 0.6433973 -0.5683162 -0.89567685 -1.1755164 0.42262456 0.43045327 3.8179994 1.4627333 -1.3468573 -0.34424847 -1.6584165 1.4824387 -0.36957055 1.4727861 -1.6260453
1.3983364 0.907673 3.7725163 -0.12136242 -0.5957614 -0.34856704 0.04655632 -0.11353184 -2.2500117 0.1743503 2.5471828 -0.66403955 -0.58424217 -1.0501148 -0.02077491 -0.47171757 0.59513915 -0.048337784 3.3788574 0.0181189 3.3361623 0.080584705 -0.17861013 1.6980397 0.3593042 1.1657845 -4.7272477 -1.5927596 -4.328541 1.2220331 -1.3048339 -1.5753119 0.77409524 0.8786147 -0.01937072 0.51413673 -0.98848563 1.5738001 0.66021854 -0.5392275 -3.1321585 -1.8133656 -2.6438677 -0.2239888 -3.3576772 0.46588647 -3.4408567 1.8704484 -1.87364 -2.385784 0.006021001 0.32371125 0.26038408 -1.0510014 -0.62156063 -0.39556697 -1.6697702 1.1767739 -1.2276739 1.6743213 -2.3344154 0.096779004 0.08792535 0.107135355
-1.4019645 -1.4988583 -0.27319396 -2.7232475 0.58185214 0.26509318 -2.8260615 0.09529024 1.9469005 -1.7021813 0.17763773 0.016604261 0.9669863 0.4741771 -0.97593576 2.697917 2.6084197 -0.63826215 0.9167341 -0.30303782 0.910222 -0.98219365 -2.1591058 -1.4919251 2.5279617 -1.5423172 -2.6274276 -3.7388177 -2.932526 -0.57066226 -2.9598994 -2.6515648 2.5094736 0.340937 1.1551081 0.08973534 0.96943533 0.022664547 -2.3814006 -2.2034395 1.843357 -0.07233727 -2.532824 -1.3864667 0.4042384 -1.7701919 0.63990426 -1.2520194 1.1759937 -0.312065 -0.9252432 -0.44911125 -0.053569917 1.8903915 0.5357629 3.283826 1.3220432 -1.1640508 -0.63293225 -1.4954338 1.3583999 -0.15121688 1.9418106 -2.1098657
1.119348 0.8142106 0.92805207 -0.11716534 -0.8159142 -0.56559557 -0.08705984 -0.053361014 -1.530713 -0.11915902 0.2212458 -0.29718053 -0.8800224 -0.7097646 0.13875335 -0.118506275 -1.2859856 -0.25355765 -0.90817857 0.10305019 -0.116528004 -0.26633146 -0.20459558 1.2755369 -1.2429072 0.07864498 -1.5748371 -0.08802724 -0.010743891 0.35113412 1.3353577 1.3292513 -1.6088859 -1.2532408 -2.4760098 -2.4513085 -2.6567972 -0.8299679 1.4581649 1.1936058 -1.4110975 -1.0676976 -0.16069181 1.3583387 -1.719487 1.3865019 -1.0360545 1.3161645 -1.0422264 -0.81446695 0.024817636 0.027670104 -0.5830551 -1.9826053 -0.6130411 -0.4806976 -1.0304393 0.7795669 -0.09814929 1.3093863 -1.4469268 0.29527494 0.3127884 -0.23946701
0.794201 0.88303554 2.5335777 0.20284234 -0.9435441 -0.532374 0.034592234 -0.10047023 -1.453777 0.5457746 1.9233235 -0.06140238 -1.0960861 -0.787516 0.19573765 -0.11299597 0.3046209 0.15557398 2.1217012 0.00645106 2.554526 -0.32382157 -0.18546623 1.1172489 -0.054321613 0.22799626 -3.8588543 -1.5020292 -3.4487429 -0.60592866 -0.99695903 -1.0162868 0.56458604 0.20280229 0.38459885 0.5557704 -1.0032817 0.4625355 1.0176682 -0.27665806 -1.4848787 -0.93857515 -1.5106338 0.7206428 -2.220613 0.80501145 -2.0721083 1.4118773 -1.2009532 -1.3541019 0.12006105 0.49628714 -0.39516374 -1.0410272 -0.569849 -0.28259757 -1.1965482 0.8093755 -0.56916803 1.4756167 -1.6790401 0.03247588 0.21451995 -0.2801485
1.2632291 0.78834313 2.718747 -2.7890239 -1.3634238 -1.5024397 -2.7759461 -0.05999127 -1.7669696 0.0016457811 2.5599344 0.3123879 -0.34712216 -1.8560246 -0.45932308 0.6086515 0.4306277 0.5401423 0.019387541 -0.05872064 0.18462133 -1.3214442 -1.8413548 1.9551812 0.36756602 0.77644306 -3.00272 0.9351107 -1.2311383 2.447744 -0.3277877 0.32691166 -0.8382559 -0.2645125 -3.401389 -2.2692795 -4.44412 1.3451732 0.6925851 0.20064075 -2.2631755 -1.0704509 -1.5477216 0.62005496 -3.0367765 -0.3687128 -2.5376978 2.0261557 -1.5390742 -0.66798687 1.2553557 1.5262145 0.24643509 -0.9372491 -0.09006329 0.38911858 -1.5574292 1.1586937 -0.47065568 1.8065827 -2.1128476 -0.03794634 1.5216669 -2.243254
-1.3722992 -1.1857605 -1.7658054 -2.246344 0.82675606 0.5576521 -2.052885 -0.0191233 1.7652617 -1.5453718 -1.9942297 -0.5564211 1.3218851 0.55883676 -0.7846146 2.744681 1.0824211 -1.0003201 -2.4737687 -0.3711794 -1.6355809 -0.52376854 -2.2728467 -1.3628393 0.96091086 -0.9703061 0.7367032 -2.3990786 1.0857865 -0.7274954 -1.2975377 -0.89501464 0.8036144 0.027242811 -2.2380898 -2.832304 -2.051039 -1.44134 -1.7681609 -1.0374014 1.5357857 -0.62263006 -1.3330086 -2.4606843 0.16072524 -1.7382742 1.3276325 -1.5675999 1.3341384 0.79754174 -0.9813487 -0.8525307 -0.5497291 0.6502825 0.42235953 3.1839006 1.6149033 -1.1319572 -0.16596316 -1.5639299 1.5501106 -0.075975046 1.5056815 -1.7088729
-1.5950141 -1.7308933 -2.6123202 -2.5973654 0.6135327 0.44365728 -2.4938588 0.039280817 1.7179108 -1.7239093 -2.251424 0.25723156 1.0382916 0.5140784 -1.135556 2.4341588 0.18926072 -0.91387147 -3.628633 -0.40119582 -2.6385498 -1.3000221 -2.619683 -1.1767893 0.17800504 -2.9270952 1.2101808 -2.571092 1.6412847 -1.8315332 -0.06772198 0.69764227 -0.5471652 -2.6647906 -2.1785896 -3.6078737 -2.4069479 -0.9401934 -0.94098234 0.09828843 1.4326196 -0.7077412 -0.6797752 -2.210573 1.3553127 -1.9646221 1.8203602 -1.2917536 0.81857884 0.23990317 -0.7741285 -1.0065851 -1.5249883 0.36426854 0.71379566 3.317253 1.1561884 -1.4274719 -0.6615642 -1.4452443 1.3543092 -0.3786181 1.8660567 -1.7411397
1.1971114 1.2042993 2.6530266 -0.3351681 -1.0457213 -0.3618535 -0.026315095 0.09065767 -1.7167927 0.58611435 1.7614663 -0.81211585 -0.8696603 -0.85887045 -0.18140593 -0.45659307 0.064229466 -0.12595066 2.8194325 0.10999123 3.0379002 -0.547313 -0.5209462 1.3993747 0.16479985 0.75956327 -4.1169896 -0.09104237 -3.7419548 -0.33327663 -0.27295706 -0.69258726 0.24605271 0.43524832 1.5780619 1.7183574 0.4831041 0.8135116 1.3399372 0.12285216 -2.3388212 -0.5996227 -1.631735 0.5361361 -2.800127 -0.14636499 -2.7532892 1.4960344 -1.5420353 -0.9950984 0.632186 0.9614839 0.33545166 -0.8139633 -0.1402555 -0.1907927 -1.3851609 0.87782145 -0.43305504 1.5989721 -1.7579238 0.40137178 0.05055169 0.06621122
0.9808828 0.6989145 -0.5712995 0.10807505 -0.16547039 -0.14084946 0.15703651 -0.08695845 -1.1468859 -0.3442006 -1.4040923 -0.5536462 -0.32233456 -0.6396218 -0.18671422 -0.39243868 -2.0739768 -0.8367639 -0.8498133 -0.07602221 -1.2546586 -0.22371015 -0.18994752 0.36083966 -2.169945 -2.5086935 -0.77803046 -2.8705065 -0.45692194 -1.790259 1.6510078 1.4030912 -2.3503375 -1.6859356 -1.1973437 -0.84656376 -1.5818082 -0.5587108 0.9949243 1.0429208 -1.2100053 -2.1773086 0.63512117 -0.59640527 -0.56781304 0.1302423 -0.40962186 0.37443498 -0.67103803 0.596678 0.17707416 0.15259008 0.010327083 -1.2698184 -0.46845233 -0.42046937 -0.56166464 0.73082334 0.30775034 1.0187296 -0.6699763 0.05583498 -0.13149698 2.0816922e-05
-1.1820617 -1.0491561 -2.1913936 0.10296286 0.8605002 0.70209086 -0.009385116 -0.04581204 1.3624301 -0.99405825 -2.0941124 -0.17392017 0.589847 0.8044315 -0.3291295 0.13871966 -0.042881284 -0.7373863 -0.5633163 -0.28629613 -1.0794519 -0.2630163 -0.01830577 -1.2698061 0.05506114 -3.400579 -0.026994457 -3.7609115 0.34930128 -2.4350734 -0.0048519582 0.0067019807 -0.48713255 -1.5485959 -0.85265845 -2.2723227 -0.36814064 -1.4452637 -0.9939677 -0.7650853 1.2991238 -0.61647433 -0.33148733 -1.7358103 0.82904 -0.9045705 1.7294939 -1.3879621 0.8738253 0.13341193 -0.62618303 -0.87252676 -0.74545753 -0.050728526 0.099814154 0.5895757 0.7796719 -0.9645331 -0.17845765 -1.2523395 1.1898754 -0.62299466 -0.12442899 0.05243888
-1.4082233 -1.4658769 -2.1761692 -2.1474955 0.5590028 0.28605235 -2.038019 -0.012078062 1.5880029 -1.5061772 -1.6932697 -0.12798709 1.0578815 0.25009042 -0.97358215 1.9508761 0.3072156 -0.7324952 -1.7167766 -0.3818282 -0.17779602 -0.70933586 -2.034068 -1.1080998 0.06547759 -2.7394617 -0.9652537 -4.3905883 -0.3800656 -2.9168816 -0.39102906 0.1732993 0.243698 -1.577763 -0.87373006 -1.0317724 0.9819843 -1.0318336 -1.2900847 -0.27035943 1.7690388 0.19254088 -0.58918005 -1.5345999 1.3436403 -1.5526218 1.6810049 -1.067851 1.4522985 0.62650615 -0.22039208 -0.41666594 -0.91194946 0.65820414 0.21639158 2.7063334 1.4887685 -0.73532766 0.19712333 -1.2342322 1.3741001 0.3218842 1.5597726 -1.6947072
-1.3700595 -1.3668131 -2.6233237 -1.7801508 0.4421379 0.5923923 -1.7050982 -0.017207414 1.5501812 -1.3662238 -2.3854094 -0.51029 0.6676055 0.5122411 -1.0604813 2.058617 0.029630763 -0.75630146 -3.1620882 -0.23255648 -2.6577053 -0.9999783 -1.8137048 -1.102766 -0.10244534 -2.5945625 2.1849246 -1.9424293 2.346112 -0.9361337 0.040934265 0.4829001 -0.6259987 -1.2403429 -2.7119513 -2.7390742 -2.1583219 -0.87176144 -1.2492455 -0.31927112 1.7902933 0.13315588 -0.17237826 -1.3664454 1.2717223 -1.6372626 1.8759767 -1.0053468 1.413665 0.76515776 -0.3859678 -0.8253311 -1.5492309 0.44875336 0.33631474 2.7785828 1.3916507 -0.7602266 0.06252326 -1.2845194 1.1549636 -0.029767785 1.5214319 -1.405061
0.83921134 0.66860735 0.37628472 -0.19968337 -0.5244341 -0.3942066 -0.028659496 -0.026833773 -1.5112174 0.33586812 -0.29589862 -0.12495425 -0.46673012 -0.87087435 -0.2884922 -0.1968381 -1.7791791 0.063060135 -0.81825835 0.0052260524 0.45293325 -0.2921701 -0.50954014 0.9071618 -2.1178167 -1.7512896 -2.5720706 -2.6481662 -0.79584545 -1.4820969 0.96480584 0.81751233 -1.678111 -1.9936246 -0.777217 -1.9085109 -0.75812006 -1.2454565 1.2817421 1.0994401 -1.082371 -1.0217347 -1.140567 0.10499416 -1.9929227 0.63968414 -0.27892783 0.70592606 -1.4098696 -0.6843329 1.0206555 0.47187874 0.26311716 -1.5213729 -0.26445076 -0.16403206 -1.3820612 0.6347333 0.026451763 1.5198708 -1.0095869 0.15400445 0.1896398 -0.13114034
1.4060874 1.3638294 3.9700367 -0.17959522 -1.3280406 -0.7604402 -0.00436355 0.06716308 -1.8562142 0.64087445 3.204833 -0.24757802 -1.3184046 -1.1489403 0.3787498 -0.20810837 0.7733943 -0.08156586 4.359932 -0.38872 4.074578 -0.47630465 -0.21465452 1.594879 0.53744256 0.81973493 -6.1424766 -0.45609355 -5.591519 0.87650865 -1.5723501 -1.8108836 1.357174 0.13592216 2.6037319 3.1659663 1.3976047 0.7787153 1.3379422 -0.46011123 -3.2755823 -1.2736834 -2.3999646 0.3804825 -4.115922 -0.4126003 -3.307175 1.7954898 -1.7347839 -1.8412572 0.8263862 0.7025523 0.39432243 -1.084059 -0.7012554 -0.6595503 -1.6446844 1.1045549 -0.8674075 1.8151134 -2.080286 0.055380646 -0.097251914 0.07026745
0.904654 0.9562779 0.6102115 -0.34607652 -0.82390535 -0.7147035 -0.1294447 0.015687034 -1.2987921 0.47739303 0.04296878 -0.1952678 -0.69591063 -0.9032607 0.22336581 -0.112966776 -1.5603448 -0.21148719 -0.09874573 -0.5772386 -0.480115 -0.24462423 -0.2973932 0.9881893 -1.9656148 -1.6222013 -2.2202084 -2.4465988 -0.83430994 -0.4817808 1.2932462 1.0714527 -1.4300237 -2.0800118 -1.3712543 -1.1541986 -1.2700046 -0.71085125 1.7922722 1.333429 -1.0735476 -0.99067664 -0.13759466 1.1995478 -2.0853684 0.8181039 -0.6853469 1.1352164 -1.1587844 -1.0842737 0.6392775 0.21050867 -0.44083 -1.5222576 -0.38547134 -0.18870836 -1.0585827 0.8839002 -0.08633281 1.3014618 -1.2021765 0.28423297 0.3049118 -0.1219021
-0.74627906 -1.2019619 -1.6289309 -0.35891512 0.65733474 0.2509364 -0.84583694 -0.094138026 1.1770526 -1.3673018 -1.8074859 -0.55422133 0.38995913 0.48065916 -0.5361779 0.23856571 0.18399304 -0.9301664 -1.4242711 -0.65908134 -0.4836746 -0.61056614 -0.62748736 -1.0387608 0.10426178 -2.6086295 -0.6228149 -3.7230194 -0.6002615 -2.387036 -0.73701924 -0.6255016 0.32165968 -1.3445563 -0.07705579 -1.0813882 0.31276858 -1.0766538 -1.1386106 -0.352802 1.3923819 -0.36528257 -1.3268207 -1.2743161 0.8161919 -1.0388393 1.5623412 -0.97565 0.57606226 0.21444471 -0.20410734 -0.38064927 -0.4938045 0.45733428 0.5634086 0.85896045 0.8221018 -0.9297538 -0.4253573 -1.068048 0.844584 -0.12154942 0.3974425 -1.2409489
0.7742295 0.48729512 3.1472943 -1.145979 -1.2063519 -0.98676074 -1.5007057 -0.0330413 -1.3523605 -0.048712265 2.7481992 -0.17129502 -0.92939484 -1.0551801 0.116312966 0.22806764 0.911959 0.18413696 3.3892806 -0.06384386 3.5411782 -0.6789488 -0.78617424 1.569265 0.68401194 0.7956086 -4.971616 -0.083565466 -4.7082124 0.48735482 -1.3600363 -1.4795979 1.8267363 0.8736182 2.0505178 2.775111 1.4469057 1.0194186 0.6873664 -0.39154223 -2.2620897 -1.320856 -1.9938112 0.42127377 -3.070649 -0.118060924 -2.7329953 1.6889455 -0.9865813 -1.2866987 0.16423021 0.65188503 0.62961614 -0.5124579 -0.88340974 -0.37893528 -1.0748161 0.96074224 -0.6590138 1.7705042 -1.585278 1.4273766 1.589566 -2.5421886
0.8023237 0.6760306 0.42028216 0.1371436 -0.7835232 -0.8392676 0.15199809 -0.04582371 -1.7101076 0.42994735 0.24893972 0.5080071 -0.6173792 -1.2892172 0.19715422 -0.46267274 -2.2509499 -0.07594688 0.6957408 -0.3435007 -0.2736801 -0.44356763 -0.4619595 1.0970745 -2.4502673 -2.497399 -3.0035765 -3.0438771 -0.89065814 -1.5724355 2.1744874 1.6722778 -1.8872535 -2.5257623 -2.0531366 -0.7636558 -1.6685756 -0.5610849 2.1666675 1.3513645 -1.3361462 -1.3267627 0.37661996 1.4014279 -1.3333234 1.1147982 -1.2662024 1.5992723 -1.4690566 -1.6202815 -0.3103103 -0.256271 -1.221063 -2.4965825 -0.5347444 -0.65147465 -1.2687291 0.5107958 -0.8904506 1.6098481 -2.2679605 -0.31861347 -0.08419125 -0.073347375
-1.33264 -1.179134 -2.2583938 -1.8682966 0.42246974 0.38339543 -1.8626616 0.06716664 1.3911898 -1.3671677 -1.9487541 -0.08542531 0.93171424 0.5365957 -0.8110748 2.1596975 0.15614122 -0.6955728 -2.532175 -0.2612078 -2.3626761 -0.5873804 -1.6976147 -1.0337756 -0.016784016 -2.7363558 1.9519019 -2.5490723 1.7077888 -1.9326339 -0.38956505 0.0098190345 -0.024876213 -1.6951336 -2.8513808 -3.24982 -1.7889884 -1.5311259 -1.3855944 -0.15021916 1.6605109 0.32145464 -0.47485128 -1.4171377 1.0220467 -1.627441 2.0350761 -1.0002677 1.2241096 0.8716268 -0.05497798 -0.36164206 -0.9560979 0.07923162 0.34301788 2.5840547 1.4535207 -1.0641515 -0.3144016 -1.2613355 1.3652468 -0.21112372 1.2444735 -1.2995605
-1.1188469 -1.2213212 -2.7374828 -2.14829 0.551997 0.42481843 -2.1591322 0.048968256 1.9029863 -1.3369977 -2.305968 -0.71768594 1.0436383 0.48477116 -0.8689592 2.5953352 0.2976821 -0.5107906 -2.820212 -0.4594133 -2.5535514 -1.6755571 -1.5807089 -0.9142963 0.17506541 -2.4340339 1.856231 -1.6751267 1.7938994 -0.99547315 -0.0947741 0.4354958 -0.3153775 -0.9269006 -2.1961536 -2.9206934 -1.1503747 -0.91700673 -1.3840488 -0.24618056 2.1740077 -0.374094 -0.48893481 -1.0821097 1.2903562 -1.5222477 1.9571837 -0.90230715 0.82274956 0.039045006 -0.6730752 -0.7018041 -1.1717045 0.53757346 0.9857917 3.1079998 1.1841087 -1.3111701 -0.15476893 -1.7680835 1.1216779 -0.9588958 1.7147841 -1.8612504
-1.1577685 -1.1240416 -1.9246455 -1.1139864 0.22450364 -0.06480595 -1.3501102 -0.10420795 1.1768435 -0.9568603 -1.4662075 -0.22732544 0.1653068 -0.023205897 -0.6843135 1.3638228 0.16456346 -0.4937864 -1.8081688 -0.022629172 -1.8290677 -0.843034 -1.3349668 -0.88982695 0.21618398 -1.5403984 1.7857726 -1.8823286 1.3260763 -1.0613334 -0.23160204 0.15170746 -0.22797057 -0.9245721 -2.5331886 -2.510001 -1.617627 -0.7496336 -1.02975 -0.119647734 1.3756678 0.021867758 -0.18067402 -1.2356687 0.8141923 -1.1004477 1.5437559 -0.8101059 0.9532559 0.25452846 -0.3401345 -0.4851405 -0.93853647 0.4709736 0.11035293 2.0596259 1.184183 -0.5844769 -0.16912572 -0.9274467 1.0212729 0.0035271405 1.2804697 -1.200994
-1.03923 -1.069278 -1.5532119 -1.0787369 0.27672276 0.057718646 -1.2861171 0.020481542 1.2303478 -1.0873519 -1.1823863 -0.11085063 0.60494024 0.0025702878 -0.83363074 0.7249178 0.3236093 -0.46901894 -1.0951297 -0.14913765 -0.17190365 -0.40440592 -1.2506796 -0.9021709 0.32386267 -1.9090822 -0.8277043 -2.5466847 -0.38292658 -1.1355015 -0.44167992 -0.24712355 0.19236009 0.4876364 -0.7038956 0.07865122 -0.35122535 0.2620496 -0.80498666 -0.766627 0.69677234 0.46887374 -0.19392079 -1.8574207 0.22113098 -1.4183036 0.61060786 -0.82588506 1.0838088 -0.21539466 -0.9407964 -1.1776845 -1.5145191 0.97100264 -0.1086942 1.2334899 1.065084 -0.62869596 -0.67126817 -0.92646873 0.87737685 0.35644364 1.0298276 -1.1799874
0.85883385 0.63551915 -0.24113767 -0.07186276 -0.57591397 -0.5292367 -0.064215034 -0.12120718 -1.1516186 0.14928693 -0.77492255 0.20257735 -0.3924052 -0.622043 0.09621055 -0.1360291 -1.926301 0.18965583 -1.5249617 0.123877384 -1.4948425 -0.25809005 -0.3191639 0.59372324 -1.9275566 -0.9943415 0.19561481 -1.0015565 1.7278947 -0.5915088 1.5668967 1.2522454 -2.2003713 -1.6308106 -2.3530896 -2.4065816 -2.5739613 -0.64584345 1.1188434 1.1465893 -1.1115338 -1.2577767 0.19314708 -0.18392748 -0.8215187 0.25382116 -0.56457967 0.54916954 -1.0849752 0.17804353 0.7814961 0.62903714 -0.1274521 -1.3264616 -0.29017815 -0.0014185536 -1.0495745 0.75666124 0.41558143 1.1498102 -0.9427035 0.08929308 0.09622528 -0.2426275
1.0890366 0.5472104 2.0370018 0.1087312 -0.87028974 -0.41168258 -0.005031031 -0.08493438 -1.4218105 -0.14344956 1.385457 -0.24489121 -0.8431522 -0.7658888 -0.16720976 -0.2716618 -0.2314988 0.14303342 1.6599483 0.024894882 2.1266248 0.001957155 -0.37343937 0.8933258 -0.40149137 0.67127573 -3.242455 -1.4279383 -2.23234 0.05822659 -0.3465796 -0.71515447 0.2444091 0.5264738 0.5181643 0.8121244 -0.8911195 0.54326653 0.81274116 -0.1677902 -1.5243938 -1.3582141 -1.2279048 0.16151732 -2.1207178 0.06931095 -1.9987205 0.917506 -1.0881054 -0.53426605 0.65179485 0.850502 0.18641092 -0.81475174 -0.43690878 -0.3810201 -1.2453628 0.94660294 -0.19267705 1.3221191 -1.3414979 0.09568316 -0.06923945 0.027075484
-0.18362118 0.018143272 -1.4221181 0.19901071 0.48795164 0.24430455 0.12377557 -0.11196324 0.025185939 -0.45875648 -1.9504907 -0.9011605 -0.29773358 0.22875191 -0.3008841 0.08849704 -1.4279876 -0.74613816 -2.6893876 -0.876354 -1.8246053 -0.71025246 -0.2320877 -0.29251066 -1.35602 -1.1558503 0.21917403 -1.8565512 0.745177 -0.6118547 1.391945 1.2856752 -1.2683457 -1.0034021 -1.709843 -3.4842422 -2.2702417 -1.2357054 0.091898076 0.6879019 0.6113805 -0.43982252 -0.7732482 -0.8124911 -0.88515955 -0.24342959 0.6322415 -0.27851555 -0.6948545 -0.6999093 0.46261466 0.22978039 -0.22539052 -0.9055457 0.43627033 0.4622798 -0.31442913 -0.49325445 -0.29226097 -0.11553025 0.046282116 -0.41946384 -0.1439838 0.08294749
-1.3043047 -1.268216 0.41075617 -1.504595 0.48665848 0.41273725 -1.4265703 0.09160863 1.5794257 -1.5095484 1.1428345 0.15365738 1.0293461 0.48280632 -0.66183114 1.5899496 2.5090668 -0.8356758 2.1463413 -0.25193292 1.5264462 -0.50413734 -1.6994226 -1.2564408 2.2001958 -1.6512747 -2.5770736 -4.2373934 -3.2689571 -1.3565483 -3.1481223 -2.735884 2.815176 1.2974823 0.9378212 0.9504758 0.6018459 -0.032442678 -2.1531992 -2.1918936 1.3938744 0.15299445 -1.7937226 -1.808263 -0.15306753 -2.0608163 0.1028341 -1.0507722 1.1494291 -0.44850373 -1.0474894 -0.6565015 -0.9050782 1.5368915 0.07811969 2.3155675 1.3363271 -1.104243 -0.8811647 -1.4644156 1.0660368 -0.25525305 1.4640338 -1.4126264
-1.6110631 -1.6346487 -0.044264127 -2.0318696 0.44320533 0.34904584 -2.0278525 -0.04654102 1.819243 -1.8016527 0.39360088 0.0063215336 0.9526814 0.53054714 -0.9432646 2.2161672 2.5987513 -0.9478311 1.9661796 -0.4287281 1.9163494 -1.1035435 -1.8310015 -1.2471441 2.6413882 -0.6095763 -2.7645354 -2.5761113 -3.301405 -0.29136315 -2.789449 -2.5549996 3.1966956 1.2263689 2.1492786 2.2542677 2.8265295 0.10804611 -2.309997 -2.2723112 1.1094896 0.16689001 -2.204787 -2.153192 -0.24293582 -2.2857747 0.4156602 -1.168683 1.6476333 -0.3306733 -0.9098868 -0.5289323 -0.26230744 1.9693371 0.49400517 2.6873996 1.6885481 -1.1936722 -0.8213263 -1.7426318 1.4734254 0.0036525903 1.6797587 -1.7638245
-1.1899794 -1.0616196 -2.1256268 -2.510121 0.38589945 0.24071561 -2.2636292 -0.10435839 1.6182809 -1.4904299 -2.151858 -0.5204384 0.46179074 0.1852415 -0.7483205 2.2204773 0.28375065 -0.94977933 -1.5666524 -0.4305521 -1.9145983 -0.8732916 -2.1897905 -1.0324012 -0.028305663 -3.0074167 0.071028076 -3.9172254 -0.6807962 -2.588652 -1.3375078 -0.4362806 0.22301035 -1.4616383 -0.53008366 -1.3138481 0.39379108 -1.3631703 -1.1184036 -0.44297913 1.6652323 -0.01714061 -0.58797383 -1.136159 1.3172265 -1.4863058 2.0288749 -0.9581398 1.1323457 0.7060122 -0.48057923 -0.60690427 -0.6042988 0.6840473 0.3727417 3.2792287 1.4442074 -0.98311293 -0.10179544 -1.3628983 1.2026052 -0.46566936 1.5276856 -1.6281874
-1.1352178 -1.1768322 0.16877334 -0.9965448 0.45695648 0.09137569 -1.1009309 -0.040967777 1.4400207 -1.3087204 0.6930121 -0.22034231 0.35879695 0.25686747 -0.49076375 1.370682 2.5622299 -0.60822314 0.77200544 -0.3949564 0.98715276 -0.85835236 -1.4171348 -0.71191806 2.3784976 -0.6139512 -3.4291344 -3.1389892 -2.9642775 -0.37119192 -2.8168113 -2.1873608 2.4884045 0.8555016 0.8506675 0.99869585 0.82871795 -0.19257294 -1.8876413 -1.9303933 0.8179599 0.13668619 -1.8918774 -1.917876 -0.4126268 -1.6621662 0.29323193 -0.60437846 1.0901111 0.06865656 -0.80950725 -0.5085982 -0.7653626 1.441131 0.36373907 2.3525708 1.1944643 -0.7066515 -0.4441073 -1.1737646 0.84837914 -0.14944512 1.2758462 -1.361107
0.93705547 0.8024814 -0.11453532 0.19764028 -0.5897859 -0.31809363 0.28265405 -0.04360774 -1.1982645 0.6211835 -0.34636268 -0.35671568 -0.6963511 -0.5405576 0.12112644 -0.30860662 -1.8780798 0.10541589 -1.4785019 0.18421839 -1.4607372 -0.2393163 -0.08634506 0.7973203 -1.9112804 -0.8424888 0.12264802 -0.33021635 0.60239273 -0.4255539 1.7363636 1.795214 -2.189871 -1.4865892 -2.5025609 -2.3771534 -2.7528071 -0.17971744 1.2692094 1.4399894 -1.1875037 -0.8925292 0.846438 0.3507585 -1.3237766 0.7676763 -0.7839849 0.929318 -0.7846027 -0.552895 -0.0019543434 -0.13649139 -0.65342253 -1.4354521 -0.39708605 -0.47192985 -0.73876673 0.47577152 -0.28286076 1.0672604 -1.1655512 -0.23028167 -0.072734766 0.0712481
0.9802389 0.75753707 2.0529044 -0.1680767 -0.96265703 -0.5177826 -0.18341741 -0.010606632 -1.275059 0.3599117 1.7008338 -0.10762503 -0.9373877 -0.82302356 -0.11642563 -0.12648772 0.09324763 0.2959538 2.3451176 0.0482862 1.92837 -0.28583288 -0.2698508 1.0990075 0.16949749 0.29181316 -3.6798396 -1.8802522 -3.1113834 -0.20549203 -0.3672573 -0.39829215 0.36136487 -0.36258572 0.09667529 0.32649365 0.26344308 0.5990805 0.6682305 0.14634775 -2.0178835 -0.7090331 -2.0451949 -0.17764288 -2.7779517 -0.10785025 -2.1461744 1.0459416 -1.1920449 -1.4518733 0.6575191 -0.087780096 -0.6843033 -0.8604968 -0.3418608 -0.3681023 -1.2274001 0.6482658 -0.47600436 1.3159065 -1.4459211 -0.25185522 -0.0249693 0.0034739505
-0.9092836 -1.2402387 0.4873737 -1.6360433 0.43508577 0.4717181 -1.5783608 -0.008352846 1.0515317 -1.5068719 0.41400248 -0.573435 0.20275536 0.4319841 -0.66358614 1.6681286 1.7853225 -1.0441277 1.8827149 -0.24444152 1.5969033 -0.7995058 -0.85501474 -0.40273538 1.8569167 -1.8476756 -2.030679 -0.79658437 -2.8594048 -0.07937984 -2.155261 -1.6485078 2.0329602 0.11649373 1.8773037 0.7618177 1.0760683 0.3245081 -0.93508613 -1.2600392 0.38814107 0.297875 -1.7586157 -0.7963398 -0.5840067 -0.7081959 -0.053848624 0.07221204 0.58282286 -0.47843933 -0.08716241 -0.29603794 -0.556832 0.35741124 0.3835971 1.8139089 0.77117616 -0.9235815 -1.0161456 -0.949346 0.2717643 -0.5154685 1.1245121 -1.221465
-0.75740427 -1.0630627 -1.0110729 -1.8597459 0.6990539 0.26120222 -2.0517032 -0.045656785 1.3090687 -1.6251527 -0.96213853 -0.47896218 0.79050624 0.3068129 -0.7844759 2.1875296 1.1972411 -0.8937041 -0.17928635 -0.08343174 0.2946823 -0.6805491 -1.3860419 -0.884295 1.3904029 -2.0507803 -1.8574388 -2.8644733 -1.7898574 -0.3813255 -1.0360423 -0.80248183 1.4348488 -0.043572795 -0.8150696 -0.24452522 0.31524014 -0.4894182 -0.8374079 -0.9350147 0.6710164 -0.42537057 -1.1137778 -1.8880093 -0.17047194 -1.1824709 0.7947824 -0.42151994 1.1384959 -0.16048004 -0.86955905 -0.978693 -0.7841134 0.5586039 0.879328 2.3155446 1.334739 -0.8198982 -0.73061603 -1.2599354 0.62060755 -0.5047993 1.4627752 -1.2982445
1.1531651 0.9586357 -0.47258148 -0.16335109 -0.91086745 -0.8094038 0.105882086 -0.11784758 -0.9824336 0.17670174 -0.8555096 0.12985109 -0.9369065 -1.1888553 -0.0038454377 -0.4561293 -1.8442104 0.07341072 -1.1823558 -0.116429575 -1.4857656 -0.20024486 -0.26955277 0.1738812 -1.7791511 -1.2156172 0.49202788 -0.8341126 1.8268718 -0.63460505 1.8075445 1.3812618 -2.1123714 -1.6964301 -2.7682693 -2.2921634 -2.4626944 -0.7410472 0.7605223 0.88158953 -0.7737549 -2.0577157 0.6609368 -0.46846685 -0.5158969 0.04451766 -0.24830072 0.34879202 -1.0840927 0.20103441 -0.24619724 -0.28549796 -0.9107597 -0.74573606 -0.4743065 -0.5208357 -0.86786795 0.8640559 0.80248404 0.8245928 -0.71800286 0.21797486 0.07101831 0.13308848
-0.8418994 -0.8800355 -2.4632664 -0.015544064 1.0153993 0.84479976 0.20400098 0.015670806 1.543846 -1.1056106 -2.3870158 -0.69022083 0.5511494 0.8333034 -0.5360208 0.17421946 0.29926524 -1.542824 -3.1534367 -1.0269141 -2.166856 -0.4795192 -0.08921264 -1.4511808 0.36685377 -2.246014 0.8528638 -2.9678586 2.108771 -1.5353554 -0.4381698 -0.27934384 -0.25066948 -1.8675436 -2.556317 -3.42235 -2.3549373 -1.4109265 -1.0007709 -0.44258025 1.5045323 -0.605038 -0.45974985 -2.2280657 1.5158826 -1.7247889 1.8179649 -1.5579383 0.98277 0.2874701 -0.9084788 -1.1252748 -0.80083364 0.6648952 0.40287918 0.55936486 1.2245594 -1.2230048 -0.110450484 -1.6583067 1.4890931 -0.124159865 -0.15708897 0.07368085
-1.4454246 -1.6365397 -0.078744374 -2.4491196 0.47332504 0.3798733 -2.3921378 0.009398237 1.5933344 -1.5668199 0.34796122 0.08543185 1.1024994 0.5998434 -0.8799564 3.0386214 2.500315 -0.5088352 0.36014655 0.036186233 1.3853111 -0.34917903 -2.76626 -1.2811004 2.2995656 -0.62804484 -2.0696135 -3.1958869 -3.1483166 -1.2947408 -2.7768805 -2.390243 2.7542834 0.83094406 0.9820923 0.71513546 1.7465007 -0.043274708 -2.4039714 -2.0250337 1.3466226 0.8367169 -2.1009097 -1.9139245 0.23385632 -2.2950847 0.47190568 -1.2321962 1.6608012 0.22533639 -0.8233176 -0.7779929 -0.8883123 1.5603741 0.054113492 3.6921203 1.7147652 -1.189881 -0.76154673 -1.7518768 1.0623996 0.047676846 1.7231274 -1.7748195
0.8610437 0.7174681 -0.56456566 -0.25031033 -0.6646026 -0.3645387 -0.11015874 -0.019000739 -1.4094684 0.27532408 -1.0998468 -0.3915113 -0.7059338 -0.72445136 0.30570012 -0.11243383 -2.1499162 -0.08452473 -0.8388709 -0.512593 -0.93334436 -0.39111695 -0.09100857 0.9119964 -2.3468876 -2.4564455 -2.2439225 -2.597693 0.010750314 -1.2505145 2.033715 1.9429054 -2.5678446 -1.9611065 -0.9832415 -0.8500846 -1.2125436 -0.53643334 1.4209614 1.5039154 -0.7474062 -1.5120643 0.6165694 0.57655126 -1.4235228 0.47159156 -0.55766976 0.71787244 -0.88881886 -0.41591167 0.7500892 0.58516765 -0.38545373 -1.491184 -0.05148466 -0.24277379 -0.89081466 0.6600675 0.06725805 1.2462217 -1.088235 0.1586362 0.14387915 -0.07377666
-1.3379205 -1.3120198 -3.2264533 -1.5456843 0.66613424 0.4820636 -1.704053 -0.004363671 1.7892292 -1.4796848 -2.9364681 -0.2431976 0.717492 0.16967547 -0.90251184 2.2903411 -0.106294945 -0.8198297 -3.5123742 -0.3117114 -2.9996905 -1.1816306 -1.3871717 -1.1381065 -0.17919953 -2.0431254 2.3796558 -2.9817743 2.5352058 -1.4980205 0.115029015 0.89924484 -0.030593019 -0.7410717 -3.4660869 -3.4295967 -1.7260313 -0.72744936 -1.0891593 0.06798022 1.9028969 -0.22985813 -0.18401794 -2.0286622 1.7986728 -1.5800005 2.0490618 -1.1820467 1.4311898 0.59345824 -0.54760206 -0.8549591 -1.2234168 0.45300642 0.63787013 2.839228 1.593383 -1.1290462 -0.14356405 -1.404421 1.2302657 -0.54285884 1.3051062 -1.4812917
-1.464544 -1.4082032 0.5182214 -2.7375689 0.7349946 0.3956048 -2.558241 -0.05191484 1.618243 -1.1981645 0.8420796 -0.27953538 0.8154208 0.44371814 -0.95370454 3.0665581 2.3554113 -0.78210914 1.6532956 -0.42578536 1.7847487 -0.6833848 -1.77467 -0.98936903 2.23193 -1.1027035 -2.1535485 -2.9074461 -2.677662 -0.46570098 -3.1754043 -2.8313396 2.5409527 0.51772684 1.1604106 0.16624078 1.151317 0.16713032 -2.4334667 -2.459957 0.69467634 0.252285 -2.376335 -1.833924 -0.14396013 -1.3163329 0.15236121 -0.73208827 1.0250958 -0.4819325 -0.56261104 -0.6397041 -0.42519566 1.7378781 1.0050869 2.9017484 1.1322232 -1.346615 -1.0852073 -1.2450129 1.0718782 -0.019734396 1.847607 -1.9595217
-1.6933823 -1.6248215 0.362296 -2.341591 0.9023395 0.5617138 -2.439802 -0.08511458 2.0802267 -1.8347595 0.68869144 -0.25885198 1.2477524 0.5245336 -1.2495196 2.2492342 2.4246426 -0.7528897 1.1120455 -0.45562008 1.7277707 -1.2659662 -2.282518 -1.287755 2.3694448 -1.3775306 -2.8944492 -3.99372 -2.767813 -0.83968234 -3.0015228 -2.7895806 2.5218065 1.369512 1.0390248 1.1948557 0.7646806 -0.47580558 -2.277692 -2.2421768 1.918032 -0.043824278 -2.3980627 -2.2447412 -0.11053665 -2.604855 0.055721715 -1.237793 1.4613736 -0.20804204 -1.0629393 -0.24020356 0.5210014 1.3704767 0.7315206 3.2178888 1.5975834 -1.2822096 -0.9492577 -1.7953227 1.3462464 -0.46510136 1.6020241 -1.4668615
-1.1790899 -1.1707857 0.22423454 -1.495736 0.6040848 0.47787827 -1.7136785 0.021746501 1.4099976 -1.1376613 0.9830137 -0.14819264 0.8394464 0.16851088 -0.70254564 1.9835826 2.172568 -0.47986773 1.2089947 -0.2747087 1.1184866 -0.75603616 -1.8829932 -0.87674844 2.134592 -0.76778835 -2.53838 -2.711696 -2.4567358 -0.24446741 -2.1920958 -1.7958213 2.2926624 0.69495153 0.86475295 0.19310085 1.2305528 -0.31885812 -1.7677661 -1.7689393 0.6376896 -0.23655389 -1.8083009 -1.7802594 0.10798 -1.2277981 0.24098645 -0.7165157 0.91894674 0.34493428 -0.4996828 -0.40465784 -0.5198014 1.0383167 0.6445603 2.968602 1.1523416 -0.94583064 -0.52024806 -1.2826144 1.0056571 -0.34061402 1.005623 -1.1993152
0.71943146 0.6923525 -0.07250109 -0.1682545 -0.84855723 -0.5508774 0.056952313 -0.051225916 -1.0243309 0.43145478 -0.11908391 0.10252394 -0.66658837 -0.6468175 0.05465001 -0.09001443 -1.7151929 0.10771365 -1.2639816 -0.10619716 -1.1114712 -0.22497946 -0.25681788 0.7697249 -1.9189293 -0.94174004 0.15639581 -0.8568208 1.1844124 -0.32726255 1.661525 1.3617737 -1.9619948 -1.5203587 -1.8499938 -2.1002812 -2.3126795 -0.2484346 1.147765 1.1470194 -0.73148865 -1.2357193 0.12976985 0.5818147 -0.76874566 0.2411116 -0.6929138 0.6317567 -1.1816002 0.018858932 0.6363932 0.71501917 -0.3518446 -1.2194678 -0.30955777 -0.24184962 -1.0988935 0.8293363 0.38729805 1.1386908 -0.89305985 0.13897555 0.028044775 -0.1227426
1.3519057 1.1666677 3.157544 0.20180576 -0.8457316 -0.8747613 0.24637459 -0.06421664 -1.6722014 0.7794737 2.1948717 -0.19155361 -0.9123798 -1.0605174 0.08980561 -0.37131646 0.9222956 0.23217732 2.8502715 -0.25253522 3.3904276 0.016836483 -0.3606825 1.2199699 0.7002299 0.9563863 -5.321328 -1.6273005 -3.6220438 0.7657029 -0.8947495 -1.553503 1.208749 0.18524104 -0.11376238 0.8903153 -0.9877726 1.4461076 0.6180496 -0.9626675 -2.7203584 -1.4459815 -1.9066286 0.31763017 -3.163508 0.5982266 -2.9232006 1.6734632 -1.4570618 -1.5873736 0.4796077 0.74017876 1.018823 -0.79813397 -0.60354966 -0.666438 -1.5283762 1.1992676 -0.7583177 1.6175085 -2.0192008 -0.14134105 -0.105347365 0.0002477616
1.2149925 0.7517764 0.07901917 0.06502098 -0.5814398 -0.6900484 -0.045674585 0.09465513 -1.3353951 0.32791784 -0.8258644 -0.20064703 -0.41115123 -0.92735994 0.21540336 -0.3099197 -2.2942557 0.27349877 -1.4176906 -0.28599966 -1.3663428 -0.22480907 -0.3734379 0.9426176 -2.3681788 -1.1741642 -0.3728382 -0.13718094 1.2031724 -0.34004 1.9938288 1.8890548 -2.6373816 -1.9772654 -2.3721592 -2.2629027 -2.2070644 -0.26641038 1.347203 1.5597795 -1.2269888 -1.6806182 0.2605068 0.5806197 -1.7147175 0.39513597 -0.72871715 0.96308994 -1.4327178 -0.072558224 1.0016694 0.85783046 0.36840698 -1.4713166 -0.032032594 -0.09862246 -1.3016227 1.0677146 0.5191402 1.1786715 -1.219237 -0.249556 -0.19454397 0.23253156
0.72926044 0.6967518 0.6436767 -0.05681685 -0.9453519 -0.68760026 0.23527715 0.051621646 0.13370882 0.6519546 0.72440845 -0.11513017 -1.0715066 -0.70542246 0.14141111 -0.309876 0.5086338 0.7714117 1.2176344 -0.086018786 0.52412826 -0.23909298 -0.31623653 -0.46707192 0.48671854 -0.07477677 -2.3411634 -3.1563 -1.5964507 -2.2599208 -0.7345134 -0.9303158 0.62211835 -1.2217689 -0.37534752 -0.22690123 0.15831451 -1.4477965 -0.43678024 -0.69823563 -0.90640056 -1.300661 -1.4296472 -1.7465881 -1.7237905 -1.2081199 -0.43741786 -0.2974929 -0.8566943 0.08439138 -0.594565 -0.7518511 -1.4485341 -0.20198125 -0.32141492 -0.4703686 -0.63655084 0.70843095 0.684737 -0.13739239 -0.036423936 0.1401667 -0.09400867 0.00960432
-0.20034635 -0.39783368 2.2419791 -2.8250372 -0.0017041648 0.4670509 -2.7416878 -0.047021836 -0.21421026 -0.9891515 1.9919981 -0.90677536 0.4375382 -0.024861138 -0.47599208 1.7623633 1.6995974 -0.63142276 1.6978359 -0.16120163 2.323128 -1.2606182 -0.71916056 1.5198408 1.3889587 -0.22219592 -3.864788 -2.4028256 -4.097382 0.51600844 -2.1710396 -1.468768 1.6489854 1.2338723 0.79764414 0.27023774 -0.8212752 1.6417013 -0.86571306 -0.39382064 -1.2122667 0.488448 -2.9209795 -0.16669355 -2.0553102 -0.6281549 -1.8982823 1.7256254 -0.027391385 -0.041326746 1.8453661 1.4648695 -0.65102744 -0.37242603 0.56179005 1.5626495 -0.07367814 -0.37500623 -1.5817956 0.4394884 -1.4692148 -0.81471556 2.3058598 -2.2673628
0.8776665 0.58930105 -0.333488 -0.75699526 -0.97199 -0.7821108 -1.2457743 0.035581604 -1.1576468 0.23801929 -0.62442863 0.13104986 -0.67561793 -1.1327637 -0.17990711 -0.32373217 -2.2068346 0.43544757 -0.99399424 0.16056295 -1.8268106 -0.028835138 -0.7703351 0.74846333 -2.2179582 -1.1186 0.0642988 -1.5124518 1.0034673 0.24362539 1.5965474 1.771073 -2.3804834 -1.3858045 -2.1890523 -1.7791308 -2.7331417 -0.31902447 0.6679447 0.99501365 -0.9760635 -1.5466528 0.36153737 0.20443499 -1.1714939 0.11975839 -0.79748094 0.75135857 -1.0437673 0.18606059 1.0811691 0.9893426 -0.030624319 -0.92893267 -0.50002897 0.04393255 -1.012722 1.0889039 0.8094558 1.5705181 -1.0392959 0.83088934 1.2655828 -4.637787
-1.3361079 -1.4028196 -2.8053458 -1.5749428 0.20793772 0.106277525 -1.5444043 0.09028518 1.7381331 -1.412131 -2.7526264 0.0015974452 0.47171262 0.27195966 -0.5413564 2.05396 -0.047673505 -0.6675864 -3.5190587 -0.25257626 -2.4302216 -1.0028825 -1.7255447 -1.0533948 0.041180816 -1.5269552 1.6018438 -2.42747 1.6442772 -2.2511823 -0.54969 0.1287289 0.19252436 -0.9733653 -3.1667485 -3.218488 -1.5255412 -1.6902442 -1.7296581 -0.18993674 1.8744724 0.36376017 -0.6995601 -1.466041 0.3812246 -1.5776665 2.048969 -1.1729195 1.3426751 0.33793285 -0.3827813 -0.8581928 -0.9819736 0.47590116 0.66514874 3.0915582 1.588633 -1.0863905 -0.41124204 -1.3107926 1.3040859 -0.71542406 1.088165 -1.039245
-1.4821341 -1.5485886 -2.398856 -2.9448051 0.59847665 0.026055323 -2.9603195 -0.1118035 2.0909102 -2.119577 -2.2209287 -0.34011325 0.75782967 0.43925357 -1.1564547 3.1237235 0.62655777 -1.2405058 -1.2013667 -0.2560556 -0.6338506 -1.0760076 -2.1876895 -1.8208349 0.04150746 -4.0420537 -0.3031656 -5.609223 -0.6556725 -4.0522776 -1.8410907 -1.1770768 0.8138517 -2.0589685 -0.993192 -0.39544424 0.37480512 -1.9760867 -1.8725022 -0.7895122 2.6273854 -0.6719316 -1.325132 -1.2159262 1.870143 -2.2079334 2.2907405 -1.8713437 1.8447855 -0.26336372 -0.65226924 -0.99988806 -1.1527586 0.94385374 0.37708995 3.5782309 2.0211535 -1.2651434 -0.09657796 -1.8196632 2.0388863 -0.5032543 2.3261044 -2.0972748
0.8597855 0.72598463 -0.42519063 -0.080799446 -0.64063436 -0.40035117 -0.060966875 -0.11092538 -0.57646185 -0.047218967 -1.0657785 -0.27477694 -0.6656858 -0.61885387 -0.065744355 -0.25567546 -1.2724228 -0.08688763 -0.91246235 -0.04840922 -0.4551431 -0.06995569 -0.25189662 0.13077588 -1.183314 -2.026666 -1.3529074 -2.546256 -0.18746968 -1.225227 0.81881386 0.5692961 -1.3483931 -1.3239304 -0.7499403 -1.2585213 -0.8998138 -1.1147152 0.7897275 0.8126995 -0.57873595 -1.1622548 -0.39995018 -0.19156459 -0.3017748 0.06001972 0.20948337 0.15704258 -0.9563024 -0.2008637 -0.20374301 -0.40704075 -0.6639002 -0.776394 -0.643706 -0.54535705 -0.90446395 0.68732864 0.56838053 0.5904841 -0.2140663 0.027460897 0.13710122 0.11073907
-1.9057 -2.6274455 -2.7330117 -2.0721912 1.0015467 0.88500756 -2.0189435 -0.044641867 2.2830338 -2.5954082 -2.5908244 -0.58624095 1.7428242 0.96035206 -0.63644445 2.77654 0.58917636 -1.5502841 -1.2479384 -0.619806 -1.3158019 -1.4202924 -2.2739122 -1.3518753 0.05619408 -4.21645 -0.8617868 -4.9868703 -0.7853896 -2.744609 -0.88804424 -0.15767859 0.78426445 -2.3171747 -1.0460981 -1.7339694 0.54241264 -0.10007875 -1.5986332 -0.35025057 1.3349196 -1.0548863 -1.7539904 -2.7554412 0.37930954 -2.309201 1.8292992 -1.3509645 1.5294486 0.39253232 -0.252296 -1.0859448 -1.456639 1.1146467 1.519229 4.0676866 1.7110599 -1.8868748 -1.1074048 -1.9702567 1.5319246 -0.67983663 1.7945505 -1.9259268
0.7315333 0.5786028 -0.04159445 -0.09603705 -0.7466813 -0.6790137 -0.08746956 0.06557183 -1.444063 0.1425576 -0.46871814 0.23881024 -0.86578184 -0.809983 -0.10425722 -0.35450643 -1.9424608 0.18882714 -1.7994008 0.07859911 -1.404832 -0.27535117 -0.42324904 0.8910205 -1.9879436 -0.8441301 -0.16290781 -0.8267165 1.6630486 0.10794716 2.2254808 1.7547001 -2.3055327 -1.2714117 -3.1912615 -2.5060327 -3.8233175 -0.21765204 1.867677 1.6137359 -1.2340996 -1.0999548 0.6099737 0.532935 -1.9184904 0.23475005 -1.0137807 1.1282891 -0.9248749 -0.57886124 0.32592848 0.18376058 -1.0596539 -1.9316994 -0.1649141 -0.23485728 -0.89206654 0.88241494 -0.22735198 1.151857 -1.4032772 -0.09328956 -0.10807832 -0.152606
0.99600565 0.99810225 3.1298206 -0.2660284 -1.0150138 -0.72665554 0.05238208 -0.119920984 -1.7094573 0.4975038 2.345266 0.09763363 -0.9799549 -0.95287454 0.37269416 -0.16240105 0.3115933 -0.00017405633 2.129171 -0.45914724 3.384772 -0.39105725 -0.10849358 1.3615056 0.06541155 1.2743713 -5.30421 -1.8821245 -3.0881498 0.2930337 -0.5404929 -1.1030706 1.0937848 0.03379628 1.3422092 1.3356942 0.092178464 0.5884317 0.6410704 -0.16344145 -2.3186626 -0.43541527 -2.1217992 -0.3467905 -3.3702083 -0.32604027 -2.8064559 1.4904358 -1.4089377 -1.0042057 1.0218368 0.61735195 -0.32744703 -0.86695063 -0.21880053 -0.29811728 -1.37742 0.7742156 -0.82141083 1.2864053 -1.8328266 -0.28154153 -0.12997115 -0.0222193
-0.8462148 -1.329936 1.4839941 -0.098973796 0.71229905 0.8702464 0.1515997 -0.037369832 0.9894427 -1.7737308 1.1868593 -0.50188774 0.5394541 0.88717663 -0.27366135 0.30793393 2.3930523 -1.7086545 1.502446 -0.7380317 2.637393 -0.664576 -0.028956017 -0.6773014 2.3489847 -0.5908708 -4.4077916 -3.651653 -4.036082 -0.3252796 -2.6756196 -2.531003 2.7657623 -0.32431787 1.3332747 -0.20501986 0.9685079 0.7331826 -1.6165239 -2.0841193 -0.13142943 -0.007186047 -2.3105667 -1.5310609 -1.2677276 -1.2290071 -0.66972476 -0.41158414 0.47326195 -1.0826197 -0.74904495 -0.40227494 0.47523105 1.2539297 0.4333923 0.9252867 0.7236517 -1.084423 -1.7015924 -1.0409719 0.38325906 -0.48852077 -0.22660396 0.04675419
-1.0477092 -1.0592889 0.5871224 -1.4533939 0.50824463 0.15724158 -1.5267859 -0.11580907 1.4285777 -1.2182913 0.5524081 -0.108894624 0.82994664 0.5822872 -0.78806925 1.3709102 2.6792057 -0.55447394 1.6932176 -0.4194122 2.0686326 -0.8407447 -1.5733985 -1.019529 2.6687543 -0.55558366 -3.0171256 -1.8437104 -3.8422158 -0.4342259 -2.8031106 -2.3934627 2.786901 1.0683703 2.2511876 2.359324 2.561163 -0.36296967 -2.239689 -2.3089924 0.9786329 0.04232927 -2.2672787 -1.6586525 -0.41734174 -2.308549 0.012363474 -0.8030932 1.1722261 -0.2935163 -0.52555454 -0.6031832 -0.6789857 1.5817031 0.8164518 2.1797304 1.361938 -0.99007785 -0.81624645 -1.2094387 0.8234803 -0.642794 0.70463437 -0.9213383
-1.1208787 -0.9622005 -0.03841131 -3.3344357 1.0419576 0.3971219 -3.0360758 0.004749149 1.8754717 -1.3692318 -0.3310416 -0.68633646 1.3845987 -0.031478755 -1.282989 2.6115577 2.721962 -0.6307617 0.6336034 -0.7520926 1.0877997 -1.1967281 -2.9287066 -1.1688468 2.62811 -1.0711089 -2.3657205 -3.8096786 -2.9987817 -1.0834055 -3.1252744 -2.6113443 3.0092168 1.0159773 0.9056809 0.06827047 1.340798 0.33957326 -2.3401577 -2.0999055 1.1721445 0.16120824 -2.2432559 -1.8090996 0.13714853 -1.6216279 0.78927404 -0.94229144 1.327782 0.7345261 -0.69699574 -0.40085375 0.039118357 1.9055399 0.80282485 4.1919 1.4869747 -0.7921091 -0.57515436 -1.5697196 1.2080463 -0.32369345 2.2675118 -2.279021
0.7652743 0.35361093 0.57774156 -0.2720763 -0.76863503 -0.381301 -0.077006795 0.10490556 -1.0332305 -0.19731267 0.17233214 -0.074480444 -0.5815053 -0.41073325 0.52499914 0.025917273 -0.7055028 -0.5591339 1.1754717 -0.5817052 0.6377291 -0.3486329 0.16536084 0.88961244 -0.7373195 -0.93634784 -2.2673347 -1.1427836 -1.5585728 -0.5018951 0.450428 0.39503762 -0.52022696 -0.18108946 -1.1141307 -0.063089885 -0.6735764 -0.48446238 0.26362085 0.0139291 -1.4112551 -1.655781 -0.3744225 -0.5843324 -2.1806881 -0.39972466 -1.2333143 0.8912118 -0.7539919 -1.3373371 -0.3002533 0.10916979 0.25116566 -0.7142228 -0.4316564 -0.4250603 -0.7270413 0.3946322 -0.5685459 0.88726157 -0.88104874 -0.037319977 0.011140096 -0.03477408
-1.5782596 -1.514376 1.1671684 -2.3294158 0.5245985 0.3753561 -2.3434694 -0.082616985 1.9691845 -1.8547459 1.8690854 0.02644012 1.2539471 0.41162103 -0.4472707 3.234749 3.5255938 -0.8944787 3.2645173 -0.4974469 2.242196 -1.1517408 -2.2493536 -1.2003472 3.2789197 -1.0762503 -3.6740777 -3.161596 -5.5250335 -0.8059576 -4.250641 -3.4488397 3.6146507 0.9533225 3.0401063 3.0971417 2.6324663 0.17558596 -2.839611 -3.1196058 1.0674303 0.86635935 -2.2994864 -2.749441 -0.6483896 -2.8496547 -0.42452452 -0.925219 1.6458908 0.13882548 -0.80230755 -0.87131965 -0.9221152 2.295406 0.6444019 3.785736 1.8591937 -1.0738251 -0.98454326 -1.7057357 1.1178803 -0.79076827 2.0691235 -2.0513039
1.3148428 1.159664 0.52885985 -0.111396745 -1.2854621 -0.82340604 0.056543708 -0.027699694 -2.1170895 0.707074 0.06063848 -0.44666138 -1.5218112 -1.2546628 0.1392859 -0.25991857 -2.50744 0.15620773 -1.7407186 -0.47388637 -1.6804018 -0.29826936 -0.19361089 1.7248639 -2.6484299 -0.61191225 -1.2397486 -0.91446024 1.5191376 0.51905316 2.9478824 2.6765819 -2.9695187 -1.7996911 -4.0797896 -3.5063975 -4.3365116 0.22154471 2.832051 2.212108 -1.8622125 -1.2544291 0.62539023 1.7481606 -2.126284 1.6627481 -1.9089334 2.0816536 -1.6572732 -1.296384 0.17314611 0.0867742 -1.5981023 -2.8716936 -0.4915477 -0.45577753 -1.6107529 1.0049934 -0.29144704 1.8755413 -2.4171984 -0.04723656 -0.23937228 0.16395503
1.2450858 0.8997941 0.07577325 -0.2184696 -1.1390178 -0.8433409 -0.26500097 -0.057972386 -1.7011569 -0.048208714 -0.59710425 -0.53945345 -1.278519 -1.3894218 -0.17233023 -0.090662256 -2.6671083 -0.26303685 -1.2013597 -0.20247391 -0.83842 -0.4432559 -0.25444654 1.0649084 -2.7659078 -2.7484584 -2.5025558 -2.9177186 -0.35435858 -1.4122144 1.9802525 2.0926914 -3.0789077 -2.427079 -1.6469791 -0.95483476 -1.6593866 -0.7092538 1.9893911 1.8582925 -1.2768074 -2.4805977 0.24663603 0.93147725 -1.5457036 0.8669951 -0.6535777 1.0674855 -1.2569321 -0.5918566 0.8070144 0.5566814 -0.20292586 -1.93336 -0.74274814 -0.3747685 -1.2592741 1.2302134 0.56491464 1.8669924 -1.2332227 0.47988337 0.3214466 -0.2794964
-1.6543148 -1.5907321 -2.9782906 -1.8971158 0.52020794 0.09883914 -1.9856845 -0.010798231 1.786048 -1.7319146 -2.64341 -0.11881532 1.0532702 0.80183804 -0.54351854 2.5155308 -0.08792228 -1.0700605 -3.8246212 -0.4308792 -3.3991246 -1.0434502 -1.7122775 -1.1288604 -0.20890099 -2.7472427 2.240022 -1.8535141 2.3591719 -1.5119765 0.28103298 0.8776659 -0.6020732 -2.067135 -3.4595878 -3.5896635 -1.6578289 -1.5908808 -1.5581405 -0.17954655 2.1304812 -0.09139551 0.3709921 -1.5211679 1.5857055 -1.566457 2.320357 -1.2521539 1.611336 0.21037787 -0.7223874 -0.90070873 -1.2112684 0.6501218 0.7073973 3.246843 1.798723 -1.1474323 -0.12542029 -1.7676135 1.4185494 -0.6728034 1.3817091 -1.4547702
0.37945285 0.32926556 -0.29081148 -0.5518257 -0.95146376 -0.6536251 -1.4303887 -0.041674137 0.21325493 -0.04658434 0.19740784 -0.26649112 -0.6818728 -1.022447 -0.009933989 0.6458089 0.15148847 0.44090012 -1.17666 0.052751012 -1.2420206 -0.8100046 -0.18166491 -0.035570722 0.19562933 -0.09831754 -0.067914285 -0.28527716 0.9375309 -0.20212421 -0.21702808 -0.09449559 -0.0065517914 -0.24637538 -2.2313032 -1.8149878 -1.8505255 -1.0378019 -0.71019334 -0.5356254 0.21881193 -0.63286895 -0.48653215 -0.518713 -1.1219527 -0.2569426 -0.23952088 0.19821174 0.073193066 0.4644468 -0.83209664 -1.0885087 -1.7729884 -0.43587044 0.046486992 0.2078098 0.01570038 0.5997724 0.856247 -0.17836495 -0.35011676 -0.5627793 0.97566044 -0.89687365
-1.4459211 -1.4288166 -2.7433648 -2.8059685 0.522617 0.3042224 -2.718429 0.010003209 1.5504508 -1.3707194 -2.4244409 -0.09410323 0.9669456 0.3200446 -0.91559815 3.3169105 0.081534505 -0.66189224 -3.1082711 -0.59361386 -2.891494 -1.4835107 -2.915145 -1.2103817 0.07813728 -2.3795912 2.2177083 -2.7227743 2.0298917 -1.421118 -0.1985813 0.37054175 -0.14031608 -1.3110924 -2.7944248 -2.740291 -1.5390477 -1.1639421 -1.3163912 -0.33083242 1.6546663 -0.08088936 -0.1276895 -1.7973719 1.3436532 -1.9148699 2.094519 -1.1212622 1.3461745 1.1153436 0.085065335 -0.15581754 -1.0926869 0.45482028 1.651691 4.2432885 1.587145 -1.0268161 0.2907335 -1.2720699 1.4547523 0.22304863 2.3427777 -2.1921217
-0.116906986 -0.38599974 0.74349207 -0.27275044 -0.824968 -0.3967394 -0.6167189 0.06147486 -0.35334137 -0.7199723 1.1436019 0.32245332 -0.6362746 -0.70647675 0.3162956 0.36820015 0.22205417 -0.3571269 0.9441398 -0.6595257 0.6533631 -0.65558654 0.017763432 0.6450574 -0.1478598 -0.7267482 -2.5158253 -2.4509706 -1.125573 -0.12102814 -0.39842728 0.043970324 0.27902508 -0.46012527 -0.81085753 0.20351541 -0.61844915 -0.018008078 0.42030916 0.2588097 -0.44770396 -1.2093803 -0.99153256 -0.08356244 -1.6676763 -0.42454168 -0.5899382 0.8258192 -0.08305356 -0.79509157 0.019083759 -0.03579969 -0.87257236 -0.99877584 0.29127383 0.16694339 -0.1306064 -0.1343499 -0.8755914 0.05542718 -0.9950713 -0.5655213 -0.22744103 0.3247517
0.7801126 0.5370077 1.3294185 0.19092838 -0.5438034 -0.2781869 0.21029016 0.016236573 -1.5389322 0.21348517 0.853972 -0.12160038 -0.83471715 -0.77635723 0.2666871 -0.12866579 -0.7056941 -0.42072278 1.3454787 -0.3645107 0.31691903 -0.15759242 -0.1354845 1.168471 -0.8363696 -1.5593017 -2.5788567 -2.1061194 -1.3638179 -0.1965502 0.5003296 0.35443625 -1.033318 -0.7785427 -0.9578236 -0.48477346 -1.8429482 0.63844174 1.2157376 0.8027955 -1.8544862 -1.2707738 -0.72962147 -0.7259434 -2.0616453 0.07888726 -1.7209057 1.572809 -1.342248 -0.816062 -0.22036892 -0.092476755 -0.7287608 -1.0662608 -0.63660735 -0.51547176 -1.2752967 0.5854867 -0.73938096 1.4497708 -1.636768 0.01679053 -0.19562648 0.11048634
-1.1127216 -1.1441197 0.06782371 -1.5922579 0.40780503 0.3792608 -1.5812656 0.11755335 1.3132911 -1.2316955 0.17634028 -0.09930296 0.56601197 0.34339374 -0.6553495 1.701437 1.6757007 -0.60630643 1.0529001 0.101753615 1.5429265 -0.3553293 -1.547472 -0.88341117 1.351989 -1.1717069 -2.2649412 -3.9587646 -2.4461954 -1.6781882 -2.3216195 -2.047457 2.2427764 0.17417161 0.41696784 1.1273571 0.04137839 -0.29927456 -1.7315826 -1.5362085 0.5145946 0.016464697 -1.8965139 -2.3719199 -0.015645368 -2.006916 0.047569305 -0.76316273 1.046765 0.083797455 -1.0450405 -0.69829077 -1.073925 0.89916784 0.22168505 2.3588922 1.2625715 -0.99892783 -0.8457944 -1.226896 0.6676988 -0.19631846 1.0030832 -1.3203342
0.75059086 0.56372553 -0.29227027 -0.22733614 -0.61764616 -0.5857467 -0.055229805 0.05591792 -1.0677919 0.36103573 -0.917558 -0.07265009 -0.5308108 -0.7736368 -0.019492196 -0.34055752 -1.7995812 0.109915785 -1.5726606 -0.054869026 -1.3685721 -0.20763828 -0.3196143 0.76269156 -1.7194263 -1.2016151 -0.08856965 -0.8780667 1.7806412 -0.42223024 1.7661725 1.6818697 -1.9892068 -1.7534064 -2.3275743 -2.3831174 -2.477081 -0.7948248 1.0725336 1.1307845 -1.0944664 -1.3599759 0.28290427 -0.13498935 -1.0565473 0.23116116 -0.4359333 0.6219925 -0.7872144 0.25304842 0.70986784 0.39654565 -0.08063695 -1.279579 -0.118661374 -0.22474496 -0.81464845 0.74870694 0.41815022 1.0923885 -0.8685708 0.18260129 0.043575637 0.1097941
-0.07698765 -0.14639069 2.3069065 -0.46490547 -0.10463188 -0.025752151 -0.91180867 -0.11437401 -0.5539248 -0.4919834 1.874927 -0.80037045 -0.19464958 -0.49510312 -1.2493222 -0.20070787 1.4164687 -0.8177302 2.120151 -0.20273592 2.4759812 -0.2649618 -1.3335446 0.1719676 1.0664079 -0.17369337 -4.310729 -2.379989 -4.0919323 0.8628803 -1.7545747 -1.9878147 1.7798218 0.8374242 1.4182456 -0.028508976 -0.5022071 1.2820652 -0.025485009 -1.372535 -1.3340828 0.39369482 -2.3005521 -0.31404164 -2.1745484 0.19029492 -2.026138 0.7596187 -0.26337454 -1.2476217 0.5533678 0.38912138 0.23547961 -0.48169103 0.08065759 0.46341565 -0.41388807 -0.38877305 -1.5426643 0.5098653 -1.0018885 -0.24720691 -0.087706044 0.49009106
# b1
128
3.4462032 5.961557 4.993065 4.8824277 8.865238 6.08309 5.4226713 5.4817686 4.3152757 3.1775248 4.5944138 4.5255885 4.686585 4.1876597 4.252359 3.7731664 6.72997 6.691715 5.7744064 4.95494 5.794712 5.3982224 5.118286 4.9018283 4.9353776 6.8811655 5.0318465 4.7544456 4.0733232 4.359242 3.2353501 4.9468684 3.4369245 5.1380653 5.7338934 3.4098234 4.9033957 3.3087945 6.8407855 5.0365357 5.645121 4.543244 4.892433 4.2208767 3.8100772 6.4273143 8.290592 7.622543 4.82922 5.073381 4.994644 4.517723 4.9668646 4.906083 3.2219894 6.109009 4.259797 5.881348 3.3253376 6.975745 7.2994776 6.024384 3.8022368 5.44086 5.8705297 4.6071386 4.926024 4.149499 4.7836328 5.674163 5.5715914 3.9721723 5.9184766 6.5615997 5.6014543 4.845383 5.2756596 6.2545447 4.225365 3.7490077 3.5076742 4.708166 3.1254 4.1895466 4.597458 6.32763 4.562534 5.4735217 5.973173 3.2325394 5.6410794 3.843886 5.440587 3.5529304 4.098896 5.750576 5.307065 4.984213 6.1282053 6.4335694 4.586665 3.0272117 6.758433 3.5330217 5.5530195 6.6405396 4.194112 4.869744 6.7862062 4.7145185 7.5020785 4.2712016 5.9201717 7.0581164 4.842138 5.922868 5.049807 5.895302 5.087614 6.067935 4.61038 3.623231 4.1171336 5.0487747 5.240346 5.8658066 3.0900512 6.196107
# W2
64 128
-1.4612848 -1.9431415 -1.6863397 -1.3155767 -2.8445709 -2.2350416 -1.122985 -1.9763694 -0.9115972 -0.70507914 -0.9061155 -0.6296004 -1.4592398 -1.3259511 -1.8891985 -1.4368197 -1.8815144 -1.0911164 -1.0973006 -2.1763358 -1.9231607 -0.8785393 -1.6757802 -0.9072387 -1.4908308 -1.8525801 -1.8651657 -1.6186184 -0.95754796 -1.2877694 -1.5293213 -1.1561059 -1.7949266 -2.613918 -0.6649055 -0.713632 -0.804915 -1.1575024 -2.3011675 -2.249263 -1.8678747 -1.8438171 -1.4898561 -1.1202425 -0.7670855 -1.0842578 -2.820389 -2.1988983 -1.624083 -0.8421605 -0.27200153 -1.1624478 -0.96688473 -2.014691 -0.50137824 -1.5052785 -0.38348326 -0.8535275 -1.2385553 -1.949095 -2.092302 -0.97355455 -1.8031483 -1.7263325 -1.1463724 -1.7429581 -1.1986383 -1.9216348 -1.7689646 -1.7924914 -1.6386453 -1.6368278 -1.7596531 -1.4989443 -0.9166377 -0.77098 -1.6784549 -1.3261843 -1.7319512 -1.6155972 -1.3727537 -1.1110393 -0.7782049 -1.1700097 -1.4967337 -2.0969589 -1.9200764 -1.2496378 -1.7589484 -1.0451663 -0.991832 -0.5311778 -1.0070276 -1.0929458 -1.9008988 -1.4050854 -1.1435415 -1.8663054 -1.6289401 -2.2372406 -1.6013818 -1.3046807 -1.5607828 -1.3007859 -1.3127855 -1.2850173 -0.8972716 -1.7285342 -2.2529173 -1.2774835 -1.4722975 -1.5723883 -1.6160276 -1.6236728 -1.6346705 -1.8914578 -1.527748 -2.5347328 -1.888473 -1.4740661 -1.9017928 -0.80464625 -1.6019255 -0.682974 -1.2859219 -1.8310251 -0.8089302 -1.5694684
-0.95947504 -1.8231543 -1.6346887 -0.8368163 -2.0821033 -1.4238901 -1.8420414 -0.9993969 -3.0203001 -1.1593628 -1.4064422 -1.0339088 -1.7418616 -0.54435337 -1.1922885 -1.5040655 -2.857795 -1.9182111 -1.8923641 -1.0969107 -1.4933935 -1.3191868 -1.8931646 -1.5371432 -1.0371127 -1.9068563 -1.8265563 -1.2626766 -0.96572566 -0.91468537 -1.1120509 -0.764522 -0.76207125 -2.3833556 -1.346769 -1.4606198 -1.3137599 -0.9755627 -2.6966088 -1.7714994 -1.824533 -1.538595 -1.4033707 -1.0765134 -2.0997124 -1.7763698 -2.5578718 -1.6279205 -0.9596468 -1.3587865 -0.71783656 -0.7864668 -3.564387 -1.2216487 -1.3334953 -0.7724616 -1.0457817 -1.3628501 -0.9694767 -1.5607629 -1.6334623 -2.0106115 -0.47765413 -1.4093542 -2.5508947 -1.3767483 -2.2570972 -1.7350453 -0.6861932 -1.3665615 -1.1685681 -0.8775479 -2.4790668 -2.3221848 -1.0853134 -1.4574946 -2.6951015 -2.159724 -1.2413172 -1.7650933 -0.77163 -0.8305301 -2.6571076 -1.2053319 -1.286556 -1.3764546 -1.683102 -1.275092 -0.7722524 -1.0600417 -1.3112416 -1.3254813 -0.8088315 -0.32364193 -1.1310005 -1.942282 -1.7417858 -0.99856263 -2.0477052 -1.4806798 -1.0340697 -1.744556 -1.5844872 -1.7176751 -1.2751981 -3.9791932 -2.6219296 -1.1660004 -1.5439379 -0.94063073 -1.6218698 -0.95563465 -1.6218532 -1.3558782 -0.8904055 -1.8576022 -0.60248274 -1.1708801 -1.4705225 -1.7726547 -1.0865371 -0.41571915 -1.4175723 -1.4984967 -1.4171685 -1.1648022 -2.1588335 -1.3823489
-1.3369966 -1.6097572 -1.312511 -1.8210853 -1.7763112 -1.7088059 -1.9115027 -1.9491659 -1.3903627 -0.7193648 -1.5457258 -1.2584949 -1.9983104 -0.7972762 -1.4046187 -0.57970256 -1.9762427 -2.1907427 -1.8206292 -1.5782729 -1.1438693 -2.1865153 -1.4339647 -1.105858 -2.0358021 -1.0795376 -1.9670568 -1.5903584 -1.6124798 -1.3914752 -1.5297841 -1.6118511 -1.0625316 -2.3223753 -1.3930644 -1.7394557 -2.0594387 -1.0313882 -2.2919579 -1.7104521 -1.6528939 -1.3645269 -0.6477699 -1.4284058 -1.0812005 -1.9551632 -2.069626 -2.4088016 -1.0836055 -1.6515172 -1.7317135 -0.97013134 -1.2565534 -1.5352209 -0.9304051 -0.777249 -0.6011799 -1.5780084 -1.1162411 -1.4489001 -2.056223 -2.0804384 -1.2417035 -1.27261 -1.6817479 -1.3585143 -2.0652564 -1.085979 -0.94026315 -1.6127532 -1.9306877 -1.4928418 -0.8710568 -2.7397482 -1.3616849 -1.0148007 -1.8843157 -1.7103457 -1.4357451 -1.3698553 -1.2920437 -0.6200773 -1.0700971 -0.5100117 -0.67046535 -2.104593 -1.2104738 -1.2141972 -1.3266026 -1.1268388 -2.079036 -1.3195605 -1.1608998 -1.1556982 -1.6855239 -0.98418033 -1.7072792 -1.4326907 -1.868471 -2.0781894 -1.5214391 -0.91215795 -1.8265274 -1.0988628 -1.9851115 -1.9139405 -1.3919668 -0.75363374 -1.6273947 -0.5997848 -1.6425366 -1.2732315 -1.1811296 -1.9716499 -1.0870723 -0.9109031 -1.2037457 -2.9148593 -1.9287457 -1.1938639 -1.9034312 -1.2160401 -1.352434 -0.9890502 -1.5085449 -1.1307503 -1.0221361 -1.5417643
-1.6153597 -1.5381962 -1.3416849 -2.0403168 -1.5808905 -1.5100874 -1.7360125 -1.8554118 -2.1908388 -1.1445807 -1.4809057 -1.2069004 -1.8902535 -1.3983715 -1.5569355 -0.56703997 -2.2677166 -1.3775526 -1.6188349 -1.9005941 -1.4580985 -1.3708814 -1.9244128 -0.817575 -0.9121688 -1.7838762 -1.4249603 -1.5031719 -1.6469606 -1.7176713 -0.7344118 -1.2394254 -1.2943599 -2.161083 -1.02006 -1.2836751 -1.7666395 -1.1660377 -1.9435602 -1.6248776 -1.3277066 -2.0126886 -0.8782173 -0.57567835 -1.3806312 -1.9255855 -2.645818 -2.110744 -1.4792787 -0.90775603 -0.6670258 -1.7157284 -2.1446474 -1.8047009 -1.2530302 -0.80797833 -1.0776905 -1.8953508 -0.95254606 -2.0355456 -1.4174387 -2.0557687 -1.4035326 -1.6183406 -2.6981094 -1.2720661 -1.6105853 -1.7414275 -1.8324584 -1.520681 -1.1153028 -1.067067 -1.6421112 -2.2618692 -1.5727782 -0.99881244 -1.9623169 -1.7368954 -0.8491543 -1.041805 -1.3210852 -1.386937 -1.4236273 -1.328439 -0.851336 -1.8598306 -1.882549 -1.6667274 -1.1723855 -1.2581077 -1.618574 -0.81646657 -0.8774753 -1.2156813 -1.8199253 -1.8453463 -1.0851312 -1.1117473 -1.8106767 -1.5872228 -0.8171151 -1.2704662 -1.8436065 -0.7216532 -1.5348288 -1.3981038 -1.2258877 -1.3589162 -2.2048385 -1.4370403 -1.0509874 -1.7222854 -1.2902737 -1.0874019 -1.5490934 -2.196981 -0.7628774 -2.095412 -0.9389099 -1.7000428 -1.0083463 -1.5618353 -1.638891 -1.3757646 -1.5705055 -0.8840143 -1.3469979 -2.0708518
-1.5871773 -2.0239701 -0.82460666 -1.7406862 -2.4637296 -0.8246576 -1.5615605 -0.8937841 -3.4602976 -1.4743423 -1.4386867 -1.2219471 -0.754886 -1.192097 -1.419553 -1.2041752 -3.2403152 -1.2296747 -1.9391205 -2.273301 -1.6190729 -1.4823095 -2.16475 -1.3875412 -1.148665 -1.3205144 -1.4401493 -1.613122 -1.2833774 -1.2384595 -1.3491106 -0.97954524 -1.1342442 -1.3249315 -0.7698931 -1.4819312 -1.5686758 -0.5074631 -2.3894036 -1.7076052 -1.4022112 -1.5102351 -0.9190187 -0.769187 -1.4820224 -1.2904507 -2.5245485 -2.014274 -0.94456315 -1.3845277 -1.4044998 -1.2288107 -2.0839217 -1.5964239 -1.1797527 -1.0133046 -1.1824499 -1.7286668 -0.9893639 -2.1394954 -2.0886664 -1.8519907 -1.075965 -1.3531363 -3.2154553 -1.6170568 -1.551149 -1.2782974 -1.1306875 -1.210441 -1.533148 -1.1052328 -1.4025387 -2.6513011 -1.1810001 -0.9716274 -2.386027 -2.2433379 -1.1315594 -1.4593033 -0.5338445 -0.62193716 -1.4588306 -1.3669016 -1.089025 -1.2362436 -1.3699917 -1.0276741 -0.8173432 -1.3520759 -1.797761 -0.55858797 -1.268939 -0.9392374 -1.8465631 -1.7719839 -1.4643534 -1.6645977 -1.7719101 -1.9941617 -1.6095114 -1.2063004 -1.8426151 -1.2127122 -0.72869307 -2.6080563 -1.8356562 -0.8754331 -1.7599324 -1.2333043 -1.6275864 -1.31957 -1.8809869 -1.3098327 -0.980214 -1.8723774 -0.76428986 -1.5201361 -1.7456303 -1.660448 -1.16995 -0.7314711 -1.7073447 -2.4387317 -1.2259632 -1.0115793 -1.2159472 -1.674089
-1.5674479 -1.8080292 -0.68279606 -0.87559086 -2.7340014 -1.3979684 -1.4618398 -1.2031425 -3.416983 -1.3717005 -1.5601712 -1.2679619 -1.9961439 -1.2478508 -1.459034 -1.2672651 -3.187867 -1.8981885 -2.0332398 -2.2130072 -1.7139069 -1.5202577 -2.1982255 -1.2555869 -1.0228245 -1.8675647 -1.3671747 -1.5458424 -1.3959961 -1.352441 -1.3140613 -1.2059225 -1.2083042 -1.4217578 -1.0187339 -1.3668264 -1.6618878 -0.79686373 -2.3377342 -1.6494324 -1.1433247 -2.215873 -0.7808656 -1.2734885 -1.2534062 -0.88132375 -2.3919568 -1.4818603 -1.2479645 -1.5175136 -1.486407 -2.0860512 -1.5784206 -1.3995471 -1.0926147 -1.8444529 -1.0885684 -1.4846586 -1.2273122 -2.0491657 -2.1829052 -1.1599238 -1.2751495 -1.5860147 -3.1910603 -1.7231543 -1.2366915 -1.8732591 -1.8110535 -1.2309142 -1.1443256 -1.5111943 -0.87634706 -2.6285162 -1.2903762 -0.85628724 -2.6740055 -1.9627231 -1.5582297 -1.424467 -0.82968277 -0.7558436 -1.2488718 -1.5112574 -0.7413179 -1.7196589 -1.0553949 -0.9934691 -0.9098448 -1.0900515 -1.7525283 -0.8660695 -0.77504075 -0.95338875 -1.3951546 -1.8040454 -1.5726876 -1.1039965 -1.108548 -1.4707038 -1.0537225 -1.1777258 -1.9584248 -1.1091439 -1.2564036 -2.0790787 -1.463888 -1.0608134 -1.5601236 -1.4829247 -1.9115092 -1.3034351 -1.9175997 -0.9631802 -1.0825936 -1.1877043 -1.4189527 -2.3608074 -1.42987 -1.105372 -1.2902925 -0.9888151 -1.6233456 -0.9558905 -1.4866894 -1.4747636 -1.2260083 -0.9185207
