# W1
128 64
-0.06439012 -0.11387978 0.08778462 -0.03275461 0.094166964 -0.080867805 -0.09026992 0.12758066 -1.0501302e-05 0.06835291 -0.096457005 -0.10929703 -0.028982993 -0.103592336 -0.09693345 0.005294628 0.103240885 0.09830679 0.0038656793 0.095389 0.09695535 0.033120316 0.100625634 -0.0172805 -0.079760484 0.10718891 -0.029261293 0.009815088 0.0679253 -0.101088814 0.088871114 -0.06076427 -0.0049619568 -0.00024835067 0.09163959 -0.05265994 -0.12303702 0.037262447 0.11407168 -0.046147298 -0.002963977 -0.0629252 0.0069937366 -0.049470447 -0.053711247 0.044613734 -0.06923409 -0.05490335 0.03770976 0.102153584 0.022436548 0.05181764 0.028695127 0.11019817 -0.05129821 -0.11315792 -0.013013896 0.049491078 0.00613124 -0.065138906 -0.008928861 0.06791573 0.052708887 -0.016080478
-0.024237117 -0.0699584 0.065230235 -0.025000092 -0.02924543 0.069873445 -0.091071285 0.06296679 -0.015522504 -0.000585716 -0.06589161 -0.015941571 -0.094191745 0.06575292 -0.02001043 -0.028431507 -0.00982738 -0.014166326 -0.1074703 0.09279909 0.064227276 0.034018666 -0.09211609 0.057656694 -0.0076480242 0.1054097 -0.10843507 -0.08805417 -0.008211091 0.07447902 -0.02412914 -0.1084926 -0.07267178 -0.07390966 0.010434654 0.03399644 0.007217532 -0.08537429 -0.070347086 0.0852407 -0.07766178 -0.079077534 0.054915864 0.046090566 0.102008045 0.017353911 0.10351976 -0.02948606 -0.060725454 -0.07348279 0.074003674 0.012339104 0.101004995 -0.11597887 0.003814629 0.04633494 0.043349423 -0.01874619 -0.006478169 -0.015485329 -0.040853035 -0.10339862 -0.07071693 0.04247592
0.018641144 -0.035257317 0.074892566 0.12907971 0.097246386 0.0899167 0.13491634 0.13428259 -0.097111024 0.07385785 0.10507347 -0.10652844 0.04921342 0.06897269 0.11399303 0.10844489 -0.012580598 -0.08354675 0.044650532 0.12799472 -0.116516344 -0.08311787 -0.01897815 0.06386496 -0.06350001 -0.029562982 0.122230284 0.019641697 0.03795087 0.10168326 -0.07165695 -0.0044459496 -0.07864757 0.09509905 -0.103411436 0.094963215 -0.006312137 0.061553422 0.076765865 0.09737504 -0.042924803 0.057957616 -0.108647086 0.049544886 -0.107240036 -0.10516311 -0.010956433 -0.05254067 0.10151428 -0.07388245 -0.039238334 0.089487165 0.08349575 0.12461162 -0.045146856 -0.11051928 -0.07476001 0.1003823 -0.13091391 -0.041194305 0.08373903 -0.094217695 -0.10220981 -0.007348183
0.041280717 -0.06109027 0.007711867 0.03754171 0.10266523 0.016410703 0.09456417 -0.06930393 -0.080998875 -0.086988434 -0.027465964 0.084688656 -0.015144048 -0.03169401 -0.11299323 -0.03116491 -0.11313369 0.04330733 -0.09165915 0.12501346 -0.06100479 -0.08707159 -0.08160426 -0.08528371 0.06387334 -0.0625736 -0.10627986 0.018259047 -0.06745785 -0.10440202 0.08698484 0.11226468 0.09420954 0.08160124 -0.06538159 0.1145881 0.108879134 -0.083186045 -0.09674669 -0.074899316 0.04567299 -0.07966619 -0.048798345 0.07586279 0.0075229937 -0.060977 0.043065913 -0.04062767 0.064664744 -0.1340586 -0.041581888 -0.07212085 -0.03699168 0.058407858 -0.034758005 -0.02265158 -0.023587773 -0.06755701 0.019099094 -0.064303 0.09744087 -0.11901237 -0.12866268 -0.093032435
0.058845393 -0.018461093 -0.09169296 -0.105383985 0.026978862 -0.06337508 0.09388996 0.0036214741 0.028083105 0.09657107 -0.06276736 0.10787809 0.09142546 -0.09074329 -0.086504616 0.03677396 -0.06614601 -0.08589959 -0.07819442 0.06069727 -0.058804717 0.049357016 0.09938586 -0.058481753 -0.07312178 0.07288241 -0.021778781 -0.12521854 0.041008897 0.062288407 0.08230531 -0.10245 -0.055747934 -0.029682064 0.114225104 0.13459721 0.013459784 0.08533291 -0.08236795 0.07040005 -0.012951086 0.06952235 -0.006324759 0.0019517966 0.07134403 -0.055346467 -0.0734878 0.038293965 -0.102924414 -0.06269198 0.0077178385 0.024145234 -0.016243853 0.011954595 -0.031464852 0.043013744 -0.11126434 -0.0007140041 -0.09729425 -0.10834352 0.056631573 -0.034910988 -0.039873052 -0.0522853
0.08716982 0.08412986 -0.007807713 0.060197853 0.021086534 -0.020779133 0.092511885 0.10716154 0.07477713 0.10357093 -0.057748403 0.050912995 -0.117727034 -0.06461394 0.1074606 -0.09479246 -0.072342336 -0.06914361 -0.044667386 0.0602313 0.100968294 0.06788749 -0.09649683 -0.023248592 -0.048391763 -0.064078055 -0.038103998 -0.06691973 0.047834147 -0.06888147 -0.031447165 0.07238219 0.007717695 0.06774327 0.040451277 -0.1261205 -0.11462899 0.10049312 -0.015090682 -0.10000016 0.027315967 0.12860353 -0.08218655 0.11476782 -0.10374477 0.10899473 -0.047999624 0.062239718 0.1199985 0.022144867 0.0023692502 0.025948867 -0.11389674 -0.07086576 0.11510315 0.055222496 0.120786965 0.0952769 0.008160148 -0.077223614 -0.07607543 -0.049529802 0.07874079 0.049494844
0.12556946 -0.023220658 -0.080419414 -0.060484603 -0.050640002 0.076559484 0.07597361 -0.058611203 -0.03003018 0.115382455 -0.062853135 -0.037025403 0.12930603 0.014417672 -0.07748331 0.030272748 -0.023327572 0.12075115 0.06612386 0.0856395 0.10035211 0.047266673 0.036173098 0.058227293 0.11349374 -0.022412077 0.08241158 0.05406811 -0.114016436 -0.02356785 -0.13393854 -0.030516958 -0.037753835 0.036040954 0.06488631 0.12520714 0.065126345 0.054976765 0.027687045 0.046086367 0.023317192 -0.117453136 -0.04334607 0.06263901 -0.019099275 -0.05741443 0.07984543 0.048308283 -0.033230755 0.069315374 0.07344123 0.054420326 -0.07633802 0.06813108 -0.06748743 0.09306239 0.090827726 0.12358113 -0.08537211 -0.029579857 0.06267722 0.11124967 -0.123908095 -0.099503115
0.10306306 0.058197614 0.010454521 0.10860579 0.064671904 -0.12423626 -0.016813468 0.13075931 0.02605815 -0.008117294 0.12397253 -0.06573937 -0.088759564 -0.05771014 -0.07418133 -0.057290558 0.052884903 -0.114167035 -0.02935176 -0.071137175 0.013967615 0.0068187574 0.059044458 0.067264184 -0.11161383 -0.12168427 -0.03704872 0.0010379404 0.099384755 0.0689356 -0.11822389 -0.13075434 0.056964193 -0.03364697 0.11451207 0.024825452 0.119471595 0.009421622 0.045625284 -0.01984003 0.02593676 0.05974096 -0.00941135 0.0848648 0.092466064 0.09730506 -0.12989968 -0.035017483 0.041260283 0.02318211 0.12794052 -0.044141207 0.099507965 -0.043128707 0.026045807 0.012823956 -0.045685094 0.07794706 -0.076606326 0.005571903 0.07008787 -0.104789235 0.11191637 0.10434667
0.11209645 0.0005390427 -0.06050884 -0.077438265 -0.114173666 -0.04163179 0.026623169 0.023948157 -0.0196166 -0.043486267 0.061837662 -0.0055525727 -0.036482595 -0.076237686 -0.10404377 -0.020013306 -0.082457505 -0.124585845 -0.12503834 0.038980946 -0.060642954 0.0917636 -0.0010716973 0.08267647 0.048819248 0.005667732 -0.091546044 0.012621402 0.022907149 0.06338711 -0.034482215 -0.08665456 -0.08296493 -0.08341607 -0.11224521 -0.05754616 -0.024159692 0.09721988 0.11654198 0.06602973 -0.115824424 -0.06925964 0.03160443 -0.07903224 0.045819584 0.115431115 0.009779095 0.027905276 0.11836445 -0.015507471 -0.12283448 -0.09549255 -0.07958924 0.03836532 0.030826792 -0.0029270027 0.11196727 -0.10254981 0.0072895465 0.036335133 0.09912092 0.13223235 0.051598065 0.045099445
-0.032745138 0.0947413 0.009779595 -0.03392385 0.058341555 -0.065675355 -0.0088145565 0.029234225 -0.0051167333 -0.08094444 0.09258144 0.050218415 0.04859271 -0.046463497 -0.11770583 -0.07478841 0.13348071 -0.040676694 -0.049295306 -0.008691733 0.06513202 -0.044174578 0.085601434 0.104652636 0.086436935 -0.06717347 -0.090255134 -0.046693206 -0.08899969 0.009347906 -0.022073714 -0.008695831 0.09301599 0.0265125 0.013590683 -0.10953935 -0.06179485 0.042873617 0.067230895 0.018342663 -0.039785676 0.13240501 -0.08301045 0.073308244 -0.04417597 -0.08230719 -0.10064042 0.029302964 -0.014668491 0.07309607 0.09346128 0.10317797 -0.121576875 0.051957197 0.03790152 -0.09824402 0.07323575 -0.01728017 0.01501409 -0.0625532 -0.026930936 -0.0428083 0.051730398 -0.10291929
0.06453824 -0.09098113 0.02742321 0.04462724 0.06338232 0.0047626668 0.06665475 -0.10609731 0.07315944 -0.0661649 0.05512653 0.010294638 0.04419184 -0.005584539 0.026488792 0.024815287 -0.06836693 -0.07213248 0.10291386 0.1142644 -0.09169593 0.049260084 -0.10948769 -0.052145127 -0.11313012 -0.08083341 0.114910915 -0.09705083 0.040228035 -0.13044225 0.061269242 0.10559601 0.06532724 -0.08457291 -0.030669 -0.0011443426 -0.010983796 -0.02477952 -0.063727856 0.048006147 0.019951338 -0.053881075 -0.048648287 -0.09625558 0.030058729 0.04467772 -0.10999405 -0.10485286 -0.053418986 0.09269564 -0.04866977 -0.09890073 0.09711634 -0.113134965 0.06513805 -0.046964884 0.10662403 -0.016213953 -0.07472726 0.019685535 -0.06946265 0.012291238 0.01601745 -0.11204322
-0.044378694 -0.114192255 0.10594487 -0.03793553 0.088032626 -0.13181153 0.017285258 -0.10330434 0.10192438 -0.12954919 -0.034213595 0.03750238 0.101126924 -0.06900223 0.022022517 0.04391243 0.013869807 -0.11917009 0.097872086 -0.04499487 -0.12650858 0.07807388 -0.021152347 0.13039377 -0.004828821 -0.073644765 0.018910706 -0.08962388 0.042015675 0.038240287 0.07471423 -0.12566982 0.08716022 0.099001884 0.055215262 0.116410986 -0.022142176 -0.024715435 -0.032212935 -0.103984155 0.098068364 0.05750959 -0.056319535 -0.040765934 -0.07064536 0.030636974 0.01589278 -0.037266344 0.026749982 0.043103892 0.004492473 -0.014109002 0.02909065 -0.0748287 -0.034721006 0.075660504 -0.055227082 0.020081565 0.111165136 0.043765575 0.046117205 0.13179694 -0.12184186 0.009960476
-0.0107813 -0.053154234 0.12658496 0.09329122 -0.101158574 0.09948239 0.022232179 -0.088475555 0.031607896 0.01633073 0.12195444 0.11795117 -0.026052041 -0.064327024 0.08882584 0.065155365 -0.058683455 -0.112853214 0.04531134 0.018947547 -0.036713365 -0.07486119 -0.0034357435 0.08683266 0.0293289 -0.026814492 0.03943134 -0.018283369 0.07723758 0.092606775 0.0314044 -0.07605878 -0.032821607 -0.09814765 -0.09001157 0.09526012 -0.01428029 -0.035891496 0.10988621 -0.033209573 0.091861986 -0.04276237 -0.059808332 0.009859355 0.045864288 0.051637594 -0.07800218 0.07660084 -0.07638324 -0.11628557 0.010427262 0.055592064 0.023727143 0.031672217 -0.032530803 0.0018428569 -0.06473757 -0.03780148 -0.0034982564 -0.015788715 -0.059482828 0.09358394 -0.022701124 0.02296168
-0.11282361 0.045550942 -0.033465903 0.06735205 0.030961623 0.1107987 -0.11440273 -0.04040486 -0.0012228772 0.09064011 -0.11164173 -0.06738495 0.030900683 0.016117217 0.06691853 -0.045715377 0.10541942 -0.113342606 -0.052893333 -0.11129257 -0.12686163 -0.07397829 -0.020399911 0.066277534 0.025628112 -0.008162807 -0.021545755 -0.039927136 -0.106919594 0.09520025 0.09357148 0.07422635 0.05846989 -0.04613786 0.10380235 0.013949162 -0.04759834 0.00031425338 0.07293119 0.058008756 0.018157694 0.06118539 0.109725416 -0.024151025 -0.036582176 -0.03732897 0.089899264 -0.035312578 0.062117975 -0.009615372 -0.06790344 -0.092598915 -0.07307582 -0.07668233 -0.052731067 0.02499815 -0.06660358 0.025957964 0.1014834 -0.0060122698 0.0062400945 -0.0771461 -0.0931992 -0.00082788506
0.002928858 -0.061722014 0.09074038 -0.08875711 0.09637321 -0.07516455 -0.036823608 0.08351621 -0.032104034 0.08504848 0.089138314 0.003275633 -0.06360473 0.000553994 0.0460454 -0.0976481 0.04285702 -0.06216145 0.06027825 0.13189138 -0.06570243 -0.086268485 -0.05306793 0.111427456 -0.011085336 0.08492634 0.108650595 0.057604045 0.010831695 -0.107317016 -0.026640004 -0.08071224 -0.014550941 0.09742317 0.060854692 -0.055804867 0.044423845 0.084248744 0.08033962 0.01983048 -0.017582837 -8.467736e-05 0.10209261 -0.025981812 0.081403814 -0.086353324 -0.10504094 -0.11580906 0.041202735 0.0025086424 -0.10788224 -0.09770986 0.027530715 0.025694765 -0.101288065 -0.05720486 -0.0010193591 0.12841567 -0.042436086 -0.0662332 0.05385391 0.01575945 -0.07917371 -0.059071966
0.08091308 0.10141105 0.07190745 -0.046824753 0.12558413 -0.033750936 -0.08906336 0.099186994 -0.104353786 -0.12585792 0.03189751 0.010323153 -0.061111975 0.0460913 -0.04302937 0.0357663 0.054092053 -0.06997672 0.0559806 0.12822467 0.11283985 -0.076451845 0.053739473 -0.12644301 -0.0999229 -0.067365654 0.022222506 0.12508231 0.017803576 -0.057305604 -0.003574735 0.027429812 0.09263519 -0.099782206 0.111502014 -0.047492843 -0.072673395 -0.121250495 0.056709725 0.04828479 -0.12003892 0.0037290566 0.109872356 -0.12538965 -0.0082610585 0.09166707 0.027826343 -0.07108707 0.021357352 0.099937096 -0.09043572 -0.04590435 0.098619305 0.051197413 -0.11059967 0.08988136 -0.07709509 0.017541995 -0.056355923 -0.10987673 -0.10866939 0.067834824 0.10818641 3.1158794e-05
-0.05989445 -0.10064559 -0.047603607 0.06390657 0.065589264 -0.09554568 -0.11132596 0.103482254 0.06351601 0.080187164 -0.014235878 -0.061464176 0.04276862 0.105283275 0.021954881 -0.050344758 0.04064388 -0.0030822381 -0.0197679 -0.113277875 -0.048386335 -0.057520505 0.045936197 -0.053956617 0.07021098 0.00047088542 -0.0742744 0.052667264 -0.1136185 0.03311052 -0.0045949123 -0.09490227 -0.048406415 0.10103483 -0.08191904 -0.07085613 0.042180542 0.0292706 -0.03854875 0.0072681056 -0.048680693 0.052488685 -0.03131065 0.015549838 0.0033033455 -0.046165723 -0.09499511 0.029205373 -0.07883053 0.08833217 0.032103598 0.04568671 0.08776073 -0.051343136 0.09514175 0.10982112 0.003670759 0.086700864 0.101230696 0.029806674 -0.09020503 -0.110595964 0.050585654 0.08283993
-0.068080164 -0.0031536124 -0.10764589 -0.04898554 0.06853103 0.07040085 0.032885343 0.064385116 0.085271776 0.053384412 -0.066799365 -0.084141076 0.010334538 -0.04807906 0.10641557 0.08810215 -0.03074295 -0.087392196 -0.1210517 -0.010798347 -0.01213765 -0.068500005 -0.09340985 0.013815343 0.019702747 -0.009965975 -0.1255972 0.09802726 -0.06799818 0.017616583 -0.06691632 0.109059684 0.12636575 -0.09061232 0.06860485 0.042539675 -0.07514881 -0.11418527 -0.07341902 0.057946835 -0.032015704 -0.015676735 -0.069777615 -0.06649107 0.051159497 -0.03468413 -0.111366704 -0.018841485 -0.06955854 -0.03900265 0.09941801 -0.10186647 0.06203609 -0.07429462 -0.13414282 0.061239 0.09334426 -0.09954834 -0.10473338 0.094510436 -0.110047325 -0.010242676 -0.054171655 0.021552159
0.071326256 -0.008959952 -0.10558456 0.03912225 0.100710735 0.11675842 -0.10878571 -0.06206062 -0.027898334 0.07630266 0.10543238 0.122988485 -0.11593722 0.07766863 0.02999181 -0.06928651 0.065564476 0.016221741 0.11512037 -0.10768012 -0.032471254 0.023361465 0.0577403 0.025740912 -0.08486736 0.026913872 -0.037211705 0.05171613 -0.0589483 -0.077663265 0.09352295 0.057458695 -0.106087156 0.07655015 0.08079747 -0.09210654 -0.11267931 -0.03529046 0.09222382 0.044820108 0.023285551 -0.08656033 -0.09046934 -0.09724696 0.087808795 0.043873727 -0.013616944 0.05092102 -0.021183446 0.12411729 -0.0013980616 0.12243209 0.0568954 -0.0064296685 -0.10075025 -0.08989627 -0.07372233 0.106908895 0.12975016 0.07809992 0.08109037 -0.0677057 0.080726385 0.07542723
0.038108356 -0.027661992 -0.023083989 0.04755604 0.024100678 0.10647037 0.10430486 0.10087952 -0.05283961 -0.0454557 -0.095805846 -0.029834718 0.12431326 -0.04119306 -0.041243657 -0.082063414 0.12183479 0.010408938 0.074161105 -0.12827438 -0.048826613 -0.08358873 -0.10613397 0.025544323 -0.007548904 0.07540294 0.029853983 -0.021271504 -0.12445397 -0.114545666 -0.05999592 0.004563784 0.029999323 -0.032966882 0.04093105 0.04682382 0.018083964 0.10464822 -0.06461346 0.1308985 -0.1335691 0.011694839 -0.10935758 -0.025357593 0.1025234 -0.077030525 0.054657508 0.119950585 -0.115032345 0.07837843 -0.13461095 0.09263732 -0.05965501 -0.03818122 0.0938359 0.11093811 0.08059819 -0.022863813 -0.07241203 -0.0720343 0.11014124 0.059104055 0.13165039 -0.040984582
-0.037090827 -0.11069958 0.10322887 0.10451194 -0.102835216 0.106895894 -0.049226422 0.02578716 0.10512957 -0.112682186 -0.07564369 -0.053197782 -0.058283597 0.09057616 0.06074125 0.0881118 -0.089301154 0.12606338 -0.116163746 0.11293166 0.08944043 -0.053882692 0.11154421 0.011926969 0.11126081 -0.012002088 -0.04776889 0.012847915 -0.031739917 -0.0137527 -0.026206216 -0.09556843 -0.058049288 -0.015974885 0.08867575 0.013836992 -0.053569727 0.003562185 -0.0841222 0.08822693 0.06621921 -0.066038266 -0.048832037 -0.021924604 0.13101502 0.12388346 -0.10215 -0.070365556 -0.04124465 0.09396245 -0.010886262 -0.008427072 -0.074446544 -0.07058882 0.101202086 -0.055180755 0.015444235 -0.04189047 0.119689606 0.008228347 0.06529295 -0.08761485 -0.06836482 -0.07412754
0.061777115 0.09155242 -0.05014374 0.08662764 -0.1079804 0.036104806 0.0866451 -0.06262968 0.06637872 -0.012885851 -0.1152727 0.07143252 0.08624003 -0.0335121 -0.050644603 0.028957363 0.00899641 0.09918862 0.047140468 0.06980199 0.019173084 -0.029668529 -0.109263204 0.015349844 0.08725753 0.010019024 -0.027216105 0.070745714 0.079068705 0.007351972 0.069880106 0.031517472 -0.052099798 0.1143263 0.016415289 -0.11081395 -0.032420773 0.0047898223 -0.02643239 -0.03693889 -0.10983788 0.06463748 -0.046206668 -0.01706836 -0.05874734 -0.11447951 -0.047194898 0.09153641 -0.035257258 0.057082407 0.1121822 -0.014166494 0.058982883 -0.02892172 -0.069421604 0.077188246 0.0066195033 -0.045621615 -0.10881175 -0.09114267 -0.06342913 0.084261745 -0.05349517 0.048142426
-0.076485336 0.07824733 0.06470412 -0.029879332 -0.105838165 -0.080958 0.06988742 0.03146603 -0.089191176 0.04609173 0.044237252 0.10933819 0.025971208 -0.08812479 0.066299796 -0.0029973718 0.011337667 0.098858535 -0.07020505 0.0338073 -0.011209496 -0.063682735 0.03901951 0.024744833 -0.036784258 0.08328045 -0.04910939 0.08043663 0.0024716607 -0.077112764 -0.063422106 0.02026548 -0.008601322 0.016354248 0.022402063 -0.008105384 -0.022097688 0.09472479 0.05417359 -0.07425133 0.0026046117 0.09065836 -0.054489285 -0.0732397 -0.022302486 0.09379775 -0.025495987 -0.008917907 0.025244486 -0.06110727 0.009334893 -0.07946234 -0.044978015 0.07164388 0.074374996 0.06934286 -0.037514925 -0.015259653 -0.07021725 -0.02535606 0.11696618 -0.022142513 -0.057602253 -0.04894526
-0.03771724 0.09720039 0.020709235 0.048145328 0.04466161 -0.10863944 -0.02298062 -0.109626494 0.04418794 0.085456714 0.047558606 0.10322869 -0.09428719 0.09833976 0.10943924 0.069820955 0.030037735 -0.055815306 -0.09161316 -0.0338249 0.054423243 0.063974194 0.005194471 -0.018974574 0.01986232 -0.03288786 0.102205515 -0.019408578 -0.031871136 0.07811707 0.051099095 -0.07826833 -0.03388995 0.029281598 0.1126191 -0.014429226 0.03239717 0.00493272 -0.047616605 0.07101723 0.059631247 -0.023349939 0.041383706 0.054750532 -0.06756006 0.023707842 0.040316183 -0.018566316 -0.08551976 -0.022308445 0.037776392 0.09678213 -0.10275263 0.034824207 0.08011808 -0.13243215 0.101309426 0.107981764 0.08918038 0.0829775 0.043774992 0.005546103 0.019050788 -0.045078874
0.12883481 -0.02121759 0.06271361 0.03288008 -0.07381425 -0.043492217 -0.053395934 0.09861533 -0.049783163 -0.064505816 0.06927011 0.06971872 0.08105039 -0.014591309 -0.023065187 -0.0013903053 0.080318294 -0.014770146 -0.06881955 0.10322232 0.038596965 0.052881107 0.066359706 -0.056579076 -0.057993002 0.10471234 0.058683213 -0.048800845 -0.07032473 0.11098742 0.05980808 -0.083693825 0.0019614182 -0.04846597 0.0033783796 0.056012027 -0.0036430948 0.052022707 0.10482881 0.059492826 0.02572123 0.020846315 0.12033161 0.029842021 0.007563992 0.025592312 -0.043576308 -0.032509185 -0.075562015 0.07382478 -0.0399883 -0.07649353 0.13434061 -0.03380317 0.075061694 -0.084157206 0.055916727 0.011886492 0.04474039 0.01948202 0.02300807 0.0014376907 0.027448544 0.10778647
0.08108337 -0.047068458 -0.08729218 0.07161682 0.046111807 0.07829075 -0.08875708 -0.020148022 -0.028299596 -0.070783295 0.081036694 0.05545199 0.067693636 -0.076019265 -0.109448776 0.12893169 -0.00501265 -0.029326972 -0.10120206 -0.09660163 0.014646911 0.013067134 -0.015157274 -0.06408987 -0.095815666 -0.06931741 -0.085483715 -0.012506949 -0.0038113333 -0.01413344 -0.01572396 0.094756424 -0.11123367 -0.06044998 -0.12761496 -0.037464656 -0.044688717 0.011042947 0.07216463 -0.08473497 -0.0012920562 -0.011523807 0.08648904 0.08501586 -0.08315014 -0.011284867 -0.087648764 0.0268175 -0.06889986 -0.04480882 -0.020338893 0.09581277 -0.096004516 -0.059834693 -0.06630843 0.015044116 -0.01395682 -0.10740546 0.055812202 0.0028028092 -0.045208078 -0.05366676 0.081314325 0.017861398
0.09584314 -0.09459584 0.08450114 -0.11832942 0.042478487 0.03181153 -0.036227647 -0.025092933 0.061337154 0.066796735 0.01152678 0.082119934 0.064514525 -0.10144359 0.0924462 0.12976156 0.07939421 -0.08751975 0.10625521 -0.114283435 -0.05299701 -0.12422861 0.004926612 -0.025227854 -0.015323462 -0.06852524 -0.12113417 0.06610301 0.11075753 0.070954524 -0.028751401 -0.010651203 -0.05929419 -0.0034169531 -0.08525861 -0.114624105 0.029455634 -0.10394674 0.032317527 0.07134685 0.04474637 -0.029517159 0.07167757 -0.03983092 0.089343265 0.0021843773 -0.0084181 0.07254008 -0.08737779 0.0330578 0.058592707 -0.016058972 0.01190384 0.03581731 -0.04584701 0.05809583 -0.06352504 -0.056134827 0.02859804 -0.01882229 -0.07794523 -0.11014546 -0.008422326 -0.07451584
0.066776365 0.02517681 0.025912572 0.013730575 -0.08975007 0.06324301 -0.08484276 0.05085475 0.05222319 -0.041800715 0.112630524 -0.10524838 0.060381528 0.078498155 -0.04823137 -0.1062547 -0.05959902 0.025238873 -0.084868364 0.011339707 -0.0406422 0.0071455818 0.109736204 0.035894144 0.056212753 0.0048183803 0.042688996 -0.11000863 0.106031366 -0.116785474 0.106892765 0.0020869407 0.054780424 -0.10779155 0.07440906 0.10525192 -0.015120058 -0.09286262 -0.063138366 -0.094563775 -0.006278595 -0.101271205 0.060043193 0.102070905 0.09474689 0.009373067 -0.100541435 0.08371343 0.079861894 -0.12987132 -0.011737673 -0.062357523 -0.03122422 -0.030477323 0.124837026 -0.11379344 -0.01773047 -0.047235295 0.05163964 -0.0016913209 -0.13201906 0.124849565 -0.06262594 0.052396193
-0.13027148 -0.08004726 0.10511851 0.13270795 -0.012194096 -0.049996473 -2.2719149e-05 -0.015251505 -0.045454238 0.05950067 -0.114129655 0.03556574 -0.08692235 -0.08560792 -0.11024452 0.12624802 0.08412981 -0.052624855 0.07905652 -0.105461255 0.051421877 -0.06945085 -0.113881186 -0.12397653 0.023186347 -0.008019115 -0.0016814447 0.029617509 -0.09214721 -0.03233728 0.059613705 -0.032705568 -0.0039703357 -0.07530395 -0.0666799 -0.06637644 0.106586434 -0.011590231 0.112476714 -0.0991278 0.08487244 -0.0107352985 0.052674167 0.008081806 -0.08732053 0.060428083 0.06839727 0.07852975 0.06633505 0.03310417 -0.10379392 -0.12556033 0.070852615 0.052399814 -0.058443986 0.021644916 -0.051912338 0.021667032 -0.03968737 0.017545786 0.01236641 0.08979665 -0.13150564 -0.012063533
-0.045061994 0.017850624 -0.101443194 -0.09146142 -0.013469005 -0.06229859 -0.02044505 0.10607784 -0.0059567806 0.10027825 -0.115882196 -0.018784419 0.09202234 -0.030326251 -0.07916953 0.04807798 -0.00031531183 -0.0025815926 -0.018417887 -0.036596287 -0.10396903 -0.019567776 -0.042791773 0.07191181 0.103961855 0.12592863 0.033614736 -0.0232031 -0.08371232 0.094983555 -0.006217297 -0.10645018 0.020697718 -0.06722146 -0.011708424 -0.067294456 -0.045395356 0.04850412 -0.015271962 -0.04156443 0.044316582 0.03967879 -0.0019527787 -0.13292179 0.0020562843 -0.0928363 -0.034227178 0.07034077 -0.08611976 -0.025809254 0.028247634 0.06499688 0.04074969 -0.1327093 -0.015378773 0.10873595 0.06366911 0.0686182 0.061480805 -0.010114057 -0.059304453 0.008424013 -0.010136043 -0.08303031
0.04339338 -0.069961034 0.07044499 -0.08442722 0.08436688 -0.039003123 0.02743029 0.026445882 0.06778608 -0.022540223 -0.09967624 -0.028207662 0.043233715 -0.028203202 0.015070892 0.037846252 -0.05804185 -0.106202416 0.052691147 -0.10131893 0.031116407 0.103589095 -0.0128552 0.0498688 0.09820618 0.06911753 0.05863544 -0.04309163 0.053016886 0.08382818 0.03516537 -0.03403203 0.007329208 0.032351293 0.04555529 0.011357447 0.0866166 -0.059923552 0.001973555 -0.05188536 0.100248925 0.08704865 -0.13020802 0.058973633 -0.029860927 -0.0965248 -0.10399067 -0.0114590535 0.04961927 -0.032195248 -0.032212675 0.017987896 -0.049506694 -0.029541261 -0.034305073 0.0423773 0.037244577 0.05146558 0.017890567 -0.110481985 -0.029276293 0.10990089 -0.013022915 0.022214008
0.096106075 -0.12723298 0.04878863 0.05886983 0.033405714 0.08628976 0.016056903 0.08079477 -0.013298244 -0.10706642 -0.028538423 -0.001279405 0.0960059 0.014911129 -0.0132832425 -0.05973183 -0.009742784 0.046252146 -0.043368082 0.0730945 -0.061222047 0.044108562 0.023312395 -0.010764025 -0.10982256 0.068169355 -0.07740502 -0.0033849305 -0.052649252 -0.046563827 -0.067457244 -0.10743981 -0.05735727 -0.028915187 -0.03968906 0.096955806 0.005954023 0.0008923097 -0.060858052 -0.050560534 -0.051904157 0.011604567 -0.009991642 -0.035235185 0.107312046 0.031252466 -0.06826131 0.060344335 -0.016474152 -0.027363867 0.065263756 -0.0578269 -0.050703038 -0.09375044 -0.0020283721 0.07285548 0.09905291 -0.031887073 -0.0059141293 -0.04590776 -0.07301994 -0.12354247 0.024567265 0.03287625
-0.082978494 0.102092125 -0.06728522 0.08033299 0.06759506 0.021114666 0.100009 0.0078443885 0.024392247 -0.06720158 0.082064144 0.13103175 -0.034299128 -0.05748874 0.113419205 -0.014943364 4.7726673e-05 0.08051845 -0.12786354 -0.003385441 -0.060851693 -0.00785762 0.048629034 -0.104008235 -0.056739796 0.04077679 0.06667303 -0.020608716 0.026600804 0.06615017 0.004358215 -0.040707484 -0.09897542 0.03229448 0.013217229 -0.060962833 0.09182752 0.11657807 0.08616186 -0.0062400163 0.058362186 -0.013862459 0.034418948 0.002748617 0.009263233 -0.034062576 -0.07983055 0.07541088 -0.08782156 -0.031018797 0.07719764 0.008961917 -0.04382876 -0.10925075 -0.1161634 -0.063770965 -0.09488069 0.09408475 0.07403651 0.10318157 -0.102221675 -0.09762492 0.029997576 0.08279654
0.009465171 0.053470295 0.02368281 0.07011405 0.07750259 0.008546377 0.12515329 0.0057365783 0.0498863 -0.1300223 -0.022888722 0.076875865 -0.018841058 -0.08120746 -0.05016388 0.024860036 0.10368409 0.046454724 -0.09698099 0.08167122 0.04930786 0.026459698 -0.06773186 0.045276977 0.033248764 0.01795388 -0.049333178 -0.080773644 0.065622255 0.11222684 0.004255822 -0.06675034 0.05899406 -0.13341227 -0.038814604 0.09724147 -0.011701206 -0.0783105 -0.094247475 0.081261806 0.015240285 -0.08271121 -0.1046221 -0.106996745 0.016390081 -0.112127334 -0.104248546 0.113969535 -0.06049309 -0.09520228 0.07599123 -0.08895003 0.13088219 -0.0518674 -0.024323333 0.019062186 -0.10323402 -0.08103398 -0.07656301 -0.044784985 0.11073412 -0.10960815 -0.027705148 -0.0061634053
0.09291018 0.11513436 -0.0026157228 0.07672667 -0.07270441 -0.06350989 -0.043301113 -0.022854527 0.076020345 0.11054359 0.11462493 -0.094629735 0.0013135744 -0.093328 -0.0025088359 -0.04484294 -0.10226772 0.13052844 -0.017417556 0.01638708 0.04311633 -0.1014801 -0.060614318 -0.06688048 0.10255511 0.115410134 -0.08527425 -0.027499907 0.08236013 0.0071387454 0.11373266 0.06377529 0.12338456 -0.09074664 0.08014016 0.12788247 -0.04425825 -0.03573819 -0.04093925 -0.030696403 -0.0016737417 -0.034524843 -0.10474898 -0.08390273 -0.07436147 -0.1261415 -0.11257768 -0.09501133 0.12883134 -0.0016912802 -0.037936244 0.012425734 -0.04811207 -0.13194028 -0.014367936 -0.019711953 -0.07612414 -0.08566136 -0.058906514 0.012014662 -0.0051345397 -0.1203787 -0.07104009 -0.016996639
0.0093927495 -0.09722146 0.09875064 -0.024588685 -0.11493195 -0.103226244 0.008752976 -0.11874702 -0.112874515 0.12676959 0.09891795 -0.00499782 -0.11446373 -0.023480061 0.045391828 0.11373308 0.119163245 0.062763385 -0.0894431 -0.023557628 -0.0770018 -0.07921599 -0.10990215 -0.022407928 -0.075341165 -0.04557357 -0.11242671 -0.10072509 0.10289732 0.12808277 0.084340565 0.014523468 0.0021844485 -0.08577671 0.09008931 0.09501274 -0.022507649 0.110220596 -0.07716248 0.096836396 -0.120543174 -0.00271619 -0.08257771 -0.108132586 -0.102325045 0.0037432122 0.10407618 -0.0645721 -0.072114326 0.10412333 0.09192403 -0.042272758 -0.11825708 -0.034199648 0.015868276 0.060928296 -0.08050226 0.066228084 -0.057779163 -0.002482857 -0.109159835 0.040085018 0.10892165 0.09483255
-0.030074429 0.106308274 0.054070413 0.0848021 -0.10885754 0.10134527 0.064831175 0.09175004 -0.0011466541 -0.113964126 -0.0054038055 -0.019445334 -0.08518933 -0.120496064 -0.1350182 -0.08528075 -0.09912155 -0.008199334 0.059686057 -0.061599612 -0.023643445 0.075739354 -0.07260618 0.07251188 -0.10629164 0.023740375 0.016401542 0.009413203 0.004171659 -0.04010482 0.06754728 -0.05974812 0.046174817 0.010873986 0.115504816 0.039854605 -0.07499096 0.035524063 0.00032717304 -0.013923954 -0.0731668 -0.108732946 0.11677396 -0.056214012 -0.05542838 0.09272222 0.068083845 -0.03077816 -0.10271844 0.032867312 0.058912706 -0.005059659 0.06817774 0.086822785 -0.08183432 0.12603348 0.12183334 -0.017835047 -0.07564969 -0.11440835 -0.01707593 -0.0037406897 0.05383245 0.044538006
-0.031629365 -0.07032678 -0.011880997 0.09569292 -0.06218442 0.06742882 0.0032044598 0.04450065 -0.1326319 0.0108706495 -0.077280454 0.123425566 0.0633194 0.12063362 0.08707509 0.067171395 -0.059592903 0.08336705 0.0014424996 0.07726285 0.039600886 -0.0060503907 -0.040791515 0.07978898 -0.0074743126 -0.05079483 0.09587516 -0.06646375 0.12240428 0.018955257 0.06080969 -0.044965994 0.050660204 -0.08206285 -0.09974908 0.05118874 0.015047054 0.03505505 0.011704819 0.056425434 0.026222605 0.05944681 0.038841322 -0.014677944 0.05701091 0.058513917 0.10892101 0.05410922 0.024446683 0.100505866 0.13272282 0.09057998 -0.12881537 -0.0037560528 -0.08239676 0.10223553 -0.014802119 -0.07966711 0.10081252 0.10085114 -0.05723759 0.06949876 -0.001785993 -0.1094203
0.09384421 -0.09626365 -0.06304604 0.13279657 0.013216318 0.054018628 0.09420903 0.014834509 -0.031952146 -0.023950078 -0.04415264 0.10444466 -0.11175045 -0.022216657 0.12678723 -0.107485175 0.073667526 0.04487236 0.12830487 0.018852916 0.034715466 0.011802574 0.09104552 0.036439788 -0.107645296 -0.093693145 0.0707749 0.097096905 -0.044341665 0.015833346 -0.06997449 0.050514173 -0.08048282 0.08942822 -0.07116614 -0.003622987 -0.018453708 -0.08632552 -0.110494286 -0.10832686 0.046128076 -0.11945429 -0.009148331 0.007025499 0.045594722 0.13489416 0.04016519 -0.08867441 0.089190386 0.025823703 -0.116410136 0.059664417 -0.09791227 -0.08694029 -0.044931304 0.08315163 0.11143983 0.06560154 -0.11251891 0.05504375 -0.1030785 -0.09326507 0.013197739 0.061856207
0.09279381 0.014022654 0.055336174 -0.08033854 0.08466784 0.108824685 -0.12591447 -0.08310654 -0.07754356 -0.04577846 0.043984514 -0.09459717 0.049982145 -0.07802141 0.082955144 -0.07243166 0.08795745 0.09293988 0.033323735 -0.061610315 0.083950505 -0.09588536 -0.09953577 -0.05412402 -0.08289227 0.02112863 -0.07831515 -0.020390332 0.054479823 -0.042349648 -0.07094428 0.03228448 -0.035212133 0.04890172 0.059685796 -0.09666704 -0.018996216 -0.05815925 0.030806266 -0.08513615 -0.040169433 -0.01930534 -0.00936457 0.09267846 -0.0705528 0.06118329 -0.09896996 0.0026241024 -0.0055272155 0.1344304 -0.0044123484 -0.038388588 -0.019278334 0.08948169 0.10408838 -0.10636033 0.061041664 -0.045184802 -0.039129782 0.08829066 -0.029251909 0.07026956 0.041287925 0.008382191
-0.081052035 0.0077014174 0.062047027 0.07391009 -0.05300873 0.09481897 -0.1157291 0.058651708 -0.036250368 -0.06668204 0.06599439 -0.10236975 0.016301986 0.009564082 -0.11224804 0.08819081 0.12783487 -0.09598109 0.018662456 -0.097100735 0.047297273 0.010932796 -0.046733014 0.060004458 -0.034733765 -0.042656124 0.040062137 0.09431034 0.04240325 0.0384558 0.106700756 0.021507313 -0.09043989 -0.002479903 0.08053899 0.120495126 -0.035593215 0.0974395 -0.02980285 0.09384084 -0.00386068 0.056417435 -0.0067012673 -0.07080439 0.10951553 -0.11553229 -0.055253167 -0.09518505 -0.065246046 -0.063468285 -0.018790035 0.110958196 0.08799764 0.08220015 0.08576272 0.10997618 -0.08489079 0.062314987 0.021396387 0.06762771 -0.102589354 0.04492651 -0.081366256 -0.063968934
-0.109046124 0.03143497 0.08538097 -0.07692956 -0.08964302 -0.09027146 0.098486595 0.036883317 -0.07850883 -0.122562654 0.10938735 -0.105256744 -0.12535706 0.011943015 0.08241086 0.113324285 0.10226769 0.10525708 -0.10399246 -0.08899679 -0.007748361 0.11130503 -0.02636308 -0.04865363 -0.07992986 0.026989302 -0.11021692 0.12948278 -0.07204955 -0.002169597 0.10264359 0.107903704 0.09739335 -0.057280924 0.02719104 -0.0024069084 0.0922263 0.10773676 0.007428158 -0.03778661 0.10167786 0.0041349884 0.12160426 0.12007983 -0.09592659 0.11278513 0.039472587 -0.029506218 -0.10988631 0.037187267 0.037620705 -0.027734365 -0.03102284 -0.072597146 0.08616717 -0.085511915 0.023121316 -0.11384103 0.030211672 -0.07709006 0.019513749 -0.054900344 0.060555715 0.10364
0.04287184 0.08979065 -0.07488065 0.027783861 0.089419946 -0.060884345 0.026877578 -0.083718695 -0.00571597 -0.056267805 -0.08313409 0.045944523 0.024099465 0.09631326 -0.080048665 -0.050241638 -0.012826764 0.05682681 0.09756302 0.1080062 -0.05343659 -0.09980181 -0.08863882 -0.034294963 -0.06461447 0.104631774 0.08881206 0.089434095 0.124201536 -0.08007676 -0.07917889 -0.04164794 -0.106963955 -0.07282762 0.026314782 0.08974926 0.111871935 0.10047057 0.013353515 0.10544235 -0.0906328 0.11439285 -0.009265196 0.0027748456 -0.103129804 -0.073672466 -0.0838428 -0.0027254182 0.11598738 -0.09077352 -0.06119522 -0.1329336 0.08303037 -0.028353153 -0.04918787 -0.05589603 -0.027037237 0.012843777 0.021929994 0.04645456 -0.09632475 -0.012452198 -0.0981986 0.041237716
0.014693292 -0.07301534 0.06268361 -0.022621635 -0.10308136 0.10911602 0.06784247 0.09574035 -0.03936235 -0.008281586 -0.055666473 -0.012100245 0.00040330528 0.097583674 -0.12167759 0.003988223 0.03627236 -0.0024539256 -0.010384246 -0.03401166 0.08968566 0.061384205 -0.0006102483 -0.033470534 0.10938723 -0.09951391 0.03523329 -0.013090102 -0.028567856 0.05611634 0.048517026 0.10789327 -0.10903728 0.028016996 0.10317314 0.031113287 -0.055152886 -0.028681878 -0.10436932 -0.051614154 0.024916358 0.11655594 0.11839323 -0.035179026 0.0074039963 -0.022136508 0.011529203 0.111671984 0.097449556 -0.040805157 -0.0003204542 0.12159047 -0.050007787 -0.0120890625 -0.119996004 0.1055808 -0.018325508 -0.069933556 0.027060386 -0.093901694 0.012246677 0.022824746 0.0028897165 -0.08585652
-0.10489502 0.09391992 0.04048134 0.093032114 0.09059913 0.07358897 0.097803876 -0.004906388 0.06974825 -0.007089317 -0.07285877 0.12406206 0.052162275 -0.032216728 -0.033653542 -0.081420235 -0.018756362 -0.019835722 -0.07058905 0.106199004 0.050680988 0.033937484 0.017497927 0.087240644 -0.021579139 0.10705742 -0.08615154 0.058987502 -0.10564055 -0.0645028 -0.039219126 -0.029607056 0.08869691 -0.033592705 0.037189875 -0.060356528 -0.038881022 -0.026161296 0.09490962 -0.019961847 0.02791778 -0.08072628 0.032405816 0.076128 -0.06596373 0.037762832 -0.10346247 -0.11954969 0.048355408 -0.017739404 -0.11509861 0.10596829 -0.061291277 0.068347305 -0.106231116 -0.1023639 -0.035710894 0.07714587 -0.10516129 -0.09658638 0.109652735 0.03701155 0.07124534 0.124752395
0.09317146 -0.09467343 0.10574545 0.066116534 -0.020866483 0.098463014 -0.061316136 -0.052292556 -0.113820806 -0.020024622 0.124073215 -0.05683677 0.06849377 0.09054857 -0.056885485 -0.084847376 0.09499942 0.0044810427 0.014818451 0.07207235 0.02741004 0.10934512 0.08536054 0.05008547 0.06932303 -0.07811821 0.10511993 -0.075963825 -0.06649678 -0.015235143 -0.02077124 -0.059228495 0.07503863 0.0519562 -0.06794795 0.06382235 -0.113551825 0.10238569 0.082139924 0.019825894 -0.11087893 -0.012316159 -0.06261375 -0.07574297 -0.019733539 0.021311576 -0.11011313 0.017167946 -0.04586056 -0.048207875 0.04722899 -0.080011226 0.060958676 0.09367723 0.033436306 -0.094796404 -0.11409913 -0.062104695 -0.01928927 -0.08989484 0.019002035 0.033399448 -0.10923635 -0.09709477
-0.08587523 -0.028185934 0.0016212001 -0.031088812 -0.059757493 -0.08962687 -0.08509886 0.04580591 -0.1125204 0.001787457 -0.038224623 0.0036573228 0.0912939 -0.049108617 0.053361777 0.012539896 -0.024685256 0.023553489 0.057915457 0.12587076 0.11073018 0.0019703424 -0.016802024 0.04928417 0.050502654 -0.073248915 -0.036725607 0.0068253437 0.047882024 0.053724278 -0.056229893 0.06813694 0.051256567 0.04287271 0.029669726 0.06502541 0.08471666 -0.02159712 0.083329126 -0.050226692 0.08411644 -0.089382365 0.025305642 -0.018587407 -0.020799572 -0.08970903 -0.03769847 -0.05522273 0.04309719 0.03458109 0.026272684 -0.0963424 -0.09678054 0.053613972 0.08683533 0.052761298 0.04152288 -0.04683452 0.11032379 0.13367517 -0.09143908 -0.09992095 -0.040599007 -0.038012676
0.0054026847 -0.049860194 -0.08606326 -0.00019833847 -0.09148314 0.07825166 0.087349504 -0.03586378 -0.0046711224 0.03873146 -0.023386084 0.04034002 0.078833 -0.027836181 0.050862473 -0.0805918 0.07672773 0.01572459 0.08695856 -0.00206634 0.06336563 -0.0973582 -0.015154167 0.060205806 -0.09540768 -0.027485909 0.06787463 -0.096989624 -0.067885265 0.09899805 0.019368837 -0.08178566 -0.039027367 0.1141105 -0.024724098 0.02993378 -0.045388006 0.11255718 -0.044106584 -0.047935348 -0.11361152 -0.020537574 -0.057513442 0.09220647 0.052107617 0.05560041 -0.02549185 -0.057338063 0.08568185 -0.06608954 -0.111667134 0.07983294 0.07539477 -0.011131576 -0.033747714 -0.056846056 -0.058611814 -0.032124627 -0.10545559 -0.07757384 0.12452776 0.007908428 -0.017531557 0.10643323
0.06279093 0.11129283 0.060926534 0.05539142 -0.020027768 -0.07950498 0.11086325 0.007948507 0.058818214 -0.026745358 -0.03990923 -0.08059625 -0.054913018 0.12327996 0.046232186 -0.10317591 0.04490228 0.02436632 0.11137405 0.10498847 -0.058784418 0.017233698 -0.007476977 0.036194902 -0.06810432 -0.03888884 0.038218174 -0.061689947 0.035908792 -0.09632278 0.08753973 0.049060594 -0.035360888 -0.002128803 0.050745577 -0.023513537 -0.13425632 0.09301922 -0.12520896 0.000190733 0.0820265 -0.061291132 0.046006363 -0.06745428 0.073865764 -0.0577641 0.000919602 -0.0023846768 0.028712833 0.107624345 -0.005815626 0.033196338 -0.12833485 0.06973424 0.11338494 -0.03463889 -0.08057763 -0.05255138 0.03919156 0.07874064 0.05779354 -0.10552252 -0.01117865 0.06140289
0.096707 0.052494094 0.03133741 -0.09327346 0.05582056 -0.100830086 0.06517164 0.12521937 0.0030867099 -0.09625018 -0.10603925 0.12096106 0.044363845 -0.116451725 -0.08050768 -0.12788466 0.032147873 0.113132305 0.10392078 0.12628567 0.003312164 0.12662315 0.001653113 0.014881187 0.040589068 -0.01908294 0.05601435 -0.017925581 0.09977595 0.11509804 -0.09160686 -0.029561566 -0.09392582 -0.023598671 -0.09279372 0.0044173724 -0.07482274 0.07043333 0.06830888 0.05688398 -0.015371623 -0.012827748 0.09493585 -0.09971686 0.024713807 0.09658784 0.016699776 0.106137656 0.022259898 0.12572399 0.058284953 -0.0031334206 -0.047796752 -0.06523065 -0.07652503 -0.0054963874 -0.051781967 -0.112100765 0.06891464 -0.0006789247 -0.12001523 0.100144126 -0.013610651 0.016305842
0.120122574 0.03319159 -0.060538862 0.030593704 0.023103919 0.03476567 0.13157812 0.0076785535 -0.11280823 0.03411632 -0.059992783 0.13424481 -0.042862102 0.11980174 -0.045334022 -0.049642343 -0.09596835 -0.051405616 -0.035066854 0.015510101 -0.08989959 0.025808847 0.13395497 0.022858337 0.090922646 0.0009821962 0.054247245 0.10880212 0.08967699 0.06673701 0.10946308 -0.0565839 0.0026503105 0.005729423 0.1291806 0.048708424 0.08794842 -0.09445402 0.07997707 0.10180783 -0.08060465 -0.043273374 0.10572735 -0.0130132 -0.07692316 0.019429965 -0.022661326 0.040412724 0.052173603 0.034189247 -0.0209277 -0.12797827 0.06679185 0.06866626 -0.038468115 0.031980816 0.04888695 -0.031938553 -0.09975255 0.04792435 0.0047789514 -0.021663608 -0.06035132 -0.043748755
0.072175615 0.11865938 -0.110654004 -0.07023195 -0.0064477613 -0.009373811 0.006884283 -0.010475476 0.031521168 -0.070675924 -0.04457502 -0.04163595 -0.12716888 0.04437635 0.040738467 -0.06822065 -0.04802488 0.018343661 0.0027431988 0.031594113 -0.090324365 0.00079465704 -0.007487465 0.009868003 -0.09464343 -0.02289476 0.013363315 0.05845933 0.102310464 0.039189808 0.05363127 -0.1138766 0.035878137 0.008187012 -0.095287226 0.11270055 0.059037942 0.06359226 0.10523059 -0.002178696 -0.08949938 -0.04990441 0.09231538 -0.004448523 -0.014661291 0.00028454466 0.021018246 -0.09294748 0.075583674 -0.019703502 0.029790588 -0.041925833 -0.038808495 0.052995123 -0.09985365 -0.03162576 -0.053663928 0.0031589186 -0.018082915 -0.018414816 0.09027655 -0.05580259 -0.0015496362 0.05064168
0.017119078 -0.0917631 -0.077995576 -0.03593794 0.08863493 0.06628447 -0.0100126695 0.042474587 -0.0007887308 0.08405127 0.08658013 0.0704902 -0.0089005465 -0.047395993 0.036005914 -0.0466135 0.052346863 -0.07283209 0.0521025 -0.10380501 -0.038785577 0.057053205 0.12250304 -0.041874964 0.0046485118 0.022637924 -0.006524765 0.004868282 -0.09444788 0.041736003 -0.09302141 0.07432823 -0.081550494 -0.08397629 -0.051095314 -0.061772503 0.0646596 -0.049821164 0.03709474 -0.066908605 0.03451136 -0.07681818 -0.06084017 -0.1157236 0.10018053 0.010221433 0.0603102 0.11002941 -0.026068006 -0.10341204 0.057559434 0.059486404 0.01193696 0.115397066 -0.018861234 0.09571799 0.09038088 0.07779421 0.10304466 0.035321776 -0.045567516 0.065393016 0.034675796 0.044046886
-0.11665334 0.07782719 0.023214974 0.03897135 -0.011731233 0.0117332535 -0.114022255 -0.12656295 0.08845312 0.09112963 0.0809307 0.07330379 -0.025036851 0.09548515 0.098870374 0.029997027 -0.083836004 -0.08355673 0.08434615 0.0281416 -0.08473709 0.017126095 -0.10334991 0.012310867 0.052465945 -0.08802035 -0.00886328 -0.10939778 -0.011439786 -0.089217745 0.067078516 -0.036511153 0.0716389 -0.047995355 -0.0025964775 -0.08124605 -0.02874417 0.08083014 -0.055581026 0.017468479 -0.13336512 -0.04558628 -0.12500703 -0.05943244 0.015759602 0.08355221 -0.07380786 -0.08569459 -0.071103565 0.08199939 0.01151209 0.025684081 0.104260154 0.026093557 0.11681268 -0.020086361 -0.093180284 -0.040352765 0.09803429 -0.031958416 -0.08507585 -0.0053067515 0.06470839 -0.09844557
0.12514125 0.11425454 0.027794782 0.06175033 -0.070602864 0.048204247 -0.024992451 0.12128019 0.059454832 -0.09738204 -0.025656909 -0.040066466 -0.13332386 -0.10262622 -0.098476976 -0.053931788 -0.105925776 -0.0023397184 -0.077472866 0.06421994 0.07775539 0.059620786 0.036972944 0.043052513 -0.008625866 0.12091321 0.053811003 -0.07286179 0.106944576 -0.011073203 -0.00837846 -0.021730108 -0.021454249 0.13157138 0.1095535 -0.09547633 0.10332725 0.0139335925 0.04004617 -0.09364435 -0.019698909 0.03793165 -0.024398414 0.10488208 -0.06875949 0.08440471 -0.1213671 -0.049251873 -0.055062383 -0.003046844 -0.0040917858 0.032497156 -0.022284886 -0.031558372 0.09744143 0.04003954 -0.051054213 -0.021053039 -0.014804644 0.08243109 -0.041428868 -0.11026642 -0.06478025 0.1075464
0.09728388 0.13106525 0.13008985 0.104375295 0.076336935 0.101547875 -0.11037705 -0.074336834 -0.10764998 0.13351347 0.08071509 -0.05797342 -0.06840597 -0.10259138 -0.023105185 -0.027361173 0.07967263 -0.07394757 -0.104837134 -0.053827368 0.030776547 0.12905557 -0.0051440345 -0.025850631 -0.0209118 0.07580727 0.061185185 0.023535687 -0.035662606 -0.032369956 0.102051355 0.113573685 -0.11139575 0.07740143 -0.013598795 -0.061217185 -0.00875103 0.009518748 -0.077555686 -0.027969923 -0.08340929 0.0058635194 -0.11708274 -0.03772618 -0.013131587 -0.018158538 0.040826406 -0.010364061 0.08480893 -0.037429467 0.098641336 -0.05101629 0.025817199 0.008645375 -0.05731363 0.124591626 -0.10562177 -0.09558393 0.022797188 -0.026485905 -0.02713961 0.04286828 -0.12125452 -0.03753829
0.09695447 -0.020564713 -0.07566027 0.107065685 -0.10617999 -0.0012069528 0.01969308 -0.07670757 0.07951019 -0.121893585 -0.007667561 -0.049201395 -0.010243064 -0.02180732 0.041956384 -0.00070302805 0.09625562 -0.056599583 0.0037124197 0.094911076 -0.09973606 0.06325257 -0.11934231 -0.032582372 0.0075401706 -0.10334421 0.06477925 0.11896385 -0.08894801 -0.029331112 -0.13455616 -0.01658601 -0.067913376 0.05585772 0.029663114 0.042235643 0.056971557 -0.028785335 0.033324197 0.092912614 0.0064003807 -0.061936457 -0.0654872 -0.0797063 0.08178842 0.0889946 0.11949528 -0.037666228 0.08640287 -0.10704218 0.11362362 0.08716589 -0.06496239 0.018414164 0.11902449 0.10839373 -0.081983805 0.03883145 -0.077926494 -0.0024248292 0.044768304 0.027324352 -0.09672926 0.113053285
0.11722935 -0.12251605 0.06444477 -0.101229236 0.061475344 -0.08336633 0.0712604 0.093601875 0.052203517 0.049144503 0.02068884 -0.11734679 -0.1144196 -0.12604164 0.10187674 0.092685774 -0.10022361 -0.03254993 -0.07006343 -0.07143905 0.04527782 0.10223157 -0.09195867 -0.087274395 -0.033772912 -0.052215267 -0.03446149 -0.12581904 0.057576664 -0.02157611 -0.13129719 -0.04828177 0.106812865 0.0947471 0.06067464 0.024678543 -0.09098586 -0.019192 -0.08702362 -0.019299902 -0.057091504 -0.038380995 0.12629268 -0.060531575 0.13185929 0.06256256 0.09179754 0.039879292 0.0636973 0.032338597 0.13069181 0.0037259166 -0.033223007 0.02225792 0.10589906 -0.041698653 -0.09761919 0.06607594 -0.06693532 -0.010792162 -0.023511978 -0.09648339 -0.0754566 0.090135135
-0.008904281 -0.081900164 -0.098306194 -0.07565978 0.044944562 -0.038985804 0.024401248 -0.105759494 0.024432467 -0.027298346 0.08662258 0.02113983 0.1133817 0.08171422 -0.027612714 -0.09340641 -0.051490724 -0.02955908 0.04096638 -0.00095440657 0.0010905749 -0.10314691 -0.07129589 -0.077091835 -0.059134357 0.110211015 -0.064312294 -0.029259598 0.08228956 -0.07099944 0.12668923 -0.08520627 -0.08505812 0.069715194 0.085340746 -0.047112565 -0.015737332 0.05679403 -0.057313792 0.061431456 -0.022450516 -0.02833716 -0.0591875 0.027056376 -0.023191413 -0.01709211 0.056110803 0.05352571 0.10862906 -0.07343557 0.0258446 -0.094518416 0.10148571 -0.09242658 -0.01628484 0.111370094 -0.12241645 0.104822576 -0.051262554 -0.10117641 0.019322613 0.06733271 0.13444558 -0.103621915
0.08963323 0.025725763 0.0050727525 -0.07797979 -0.11359941 0.0054524527 -0.112616986 0.12653714 0.030956453 0.04711362 -0.0648345 -0.107302696 0.08394085 0.030231478 0.00034544815 -0.029726008 0.021114675 -0.017831927 0.014491878 -0.005590121 -0.009321207 0.07682618 -0.09734216 0.04312352 0.044808343 0.046628036 0.01835189 -0.06234629 -0.08269423 0.030007709 0.03352231 0.027568813 -0.06758879 -0.07299466 -0.031045232 -0.11193548 0.012614539 0.03947545 0.09244383 0.07932449 -0.093290165 -0.11380919 -0.025186006 -0.11465644 -0.11815235 0.08571912 0.061907697 -0.13047764 -0.100248985 0.04608745 0.08959636 -0.123825125 0.05410576 0.046301458 -0.13486916 -0.060009733 0.087994 0.113666035 -0.046470016 -0.07518706 -0.0098744305 0.06568416 0.022820663 0.07211676
0.06513252 0.0018518216 -0.09781316 0.014840521 -0.1333889 0.100583114 0.02266623 -0.0004966733 -0.08802223 0.030545857 -0.10030318 -0.09612255 -0.062429246 -0.12795646 -0.08442707 -0.005808803 0.0152240675 0.100817285 -0.116707005 -0.05918399 0.010295429 0.0039394237 -0.056839023 -0.1150669 -0.013454916 -0.11398365 -0.112052605 -0.044602368 -0.08505468 0.063598506 0.0049246354 0.08190492 0.101183996 -0.053531982 0.06272406 -0.05762387 -0.110988006 -0.091213144 -0.08276235 -0.06209266 0.057001717 0.020890363 -0.03371546 -0.08621837 0.11960089 0.019296793 -0.0044333925 -0.009449329 -0.00689953 0.023568569 -0.12063226 0.11816089 0.00015840959 -0.007742335 0.108468935 -0.032202758 -0.094346695 0.02591276 0.11506727 -0.11150255 -0.09779738 0.088452585 -0.009686361 -0.1279799
-0.043585423 -0.0753455 -0.05250942 0.015292035 -0.046647992 -0.015507296 -0.05837865 0.09375025 0.119964525 -0.020030398 0.1080375 -0.022310814 -0.039790533 -0.09815532 0.02377787 -0.045535576 0.048395585 0.0895946 -0.011721038 -0.086056486 0.1328855 -0.038631428 -0.037860952 0.11189264 -0.034304056 0.09601376 0.03755828 0.075321235 -0.014672714 -0.11365301 0.08794307 0.006425282 0.04106424 -0.029735725 -0.062174413 -0.051342133 0.08446661 0.09276158 -0.09680249 -0.078846775 -0.025371484 -0.040650867 -0.036006212 -0.06842516 0.083756566 -0.07473075 0.015471486 -0.0774646 -0.040664844 0.061773475 -0.12801063 -0.11858989 0.06675787 -0.080910586 -0.09467784 -0.101616435 -0.08924841 0.031631142 -0.121803045 -0.053280924 -0.045758698 0.12561296 0.022274349 -0.04809385
0.05302871 -0.049688015 0.091081254 -0.019799484 0.017175503 0.057210945 -0.065793924 -0.06917387 -0.10568118 0.075606205 -0.03313321 -0.08451015 -0.005410624 0.05591481 -0.014437998 0.10389762 0.02915951 0.068002 0.061176945 0.058094416 -0.020567076 -0.11570937 -0.11522814 0.026467795 0.041001186 -0.06813023 -0.010811909 -0.06497176 -0.059340134 -0.0039731353 0.036405165 0.052965548 0.11425144 0.11209724 0.07955238 -0.12909946 0.07420801 -0.035750244 -0.09501664 0.05059474 0.027797578 -0.02137816 -0.054752793 0.08510531 0.1110224 -0.088038184 -0.06317036 -0.004962247 -0.032438826 -0.06826434 0.030999536 -0.047558147 -0.11988335 -0.034366656 0.12623003 0.08234924 0.0924116 -0.085493915 -0.09370082 -0.10395794 -0.07036667 -0.021758657 -0.0064901505 -0.041653894
-0.034953948 -0.03765615 -0.02224728 -0.0673826 0.062341902 0.044734087 -0.0989827 0.11424093 0.10326894 -0.08595483 0.012149001 -0.023468183 0.057444386 -0.028102774 -0.043008808 0.083722115 0.034102492 -0.016637823 0.05134951 -0.050065372 0.046385776 -0.07876996 0.05141774 -0.0734401 -0.03758412 0.0448071 -0.10370026 -0.07078479 0.09778648 -0.10389199 0.05023517 -0.050877634 0.0062917857 0.09262516 -0.01930525 0.105356835 -0.0018868699 0.045120716 -0.020116411 0.020458823 0.050987117 0.04751452 -0.010110823 -0.07585842 -0.092648976 0.07683396 -0.027850827 -0.010747648 0.058461487 -0.088054694 0.014674285 -0.012265403 -0.058830734 0.11273474 0.00023940741 0.011221455 -0.09948821 -0.01764549 0.06816572 -0.07317816 0.053417876 0.019011915 0.10952512 0.07128759
0.11018321 0.0406495 -0.09041467 -0.020893328 -0.027794678 0.001971043 0.10659986 0.09179449 -0.111475036 -0.09904038 -0.102199964 -0.1169618 0.09210456 0.05042559 -0.07166493 -0.11042068 -0.056006998 0.122573234 0.06345838 0.09755924 -0.0077421637 0.06920059 -0.023131745 -0.08864044 -0.03409904 -0.0041706446 0.028528623 0.048495267 0.083574295 -0.034499396 0.048581447 0.10624584 -0.042432062 0.12097515 0.0968399 0.10384144 -0.11633178 0.079651766 0.028983556 0.05763705 -0.074161656 0.09425489 0.08634235 0.11060393 0.010406711 -0.09892321 0.067201294 -0.06414783 -0.014191589 -0.10912411 -0.07217881 -0.08425915 -0.0811732 0.114732385 -0.087926686 0.07607468 0.023532066 0.059013873 -0.09617385 0.0034148449 -0.05890074 -0.0350139 0.029792052 0.08432512
-0.013444065 -0.018756876 0.051453672 0.06260148 -0.04724272 0.08073081 0.062332597 0.10293402 0.061196774 -0.09601217 -0.03656235 -0.031324685 0.050922472 0.10492065 -0.11379433 0.08841276 -0.057929244 -0.051846243 -0.097880624 -0.057025824 -0.09698363 -0.079253845 -0.08757287 -0.039306577 0.080643736 0.099473156 0.07022861 -0.08597025 -0.069983594 0.050751716 0.082584254 -0.07087395 -0.08843174 -0.06407851 -0.011422797 0.0064318813 0.03262762 0.095312975 -0.094694726 -0.1151677 0.09938354 -0.002956085 0.044381436 -0.022207286 -0.041027438 -0.08190797 0.010011025 -0.07856869 -0.04256366 0.13396339 0.102479465 -0.07214305 0.05395627 -0.028276838 -0.10076442 0.07620924 -0.12739876 -0.06863329 -0.029478153 -0.087938175 0.06704655 -0.03715525 -0.053937506 0.12688597
0.0918129 0.012570563 0.008484217 0.06570456 0.076041415 -0.04244916 0.122615084 -0.099381395 -0.02945734 0.086170994 -0.0650441 0.026641356 0.04824295 0.07787551 0.029834617 -0.11381279 0.09972613 0.06539763 0.078909375 -0.042207126 -0.013041229 -0.12112694 -0.044479072 -0.07256272 -0.08008787 -0.09256111 -0.11027838 -0.093672715 0.11990851 -0.0063347123 0.07397516 0.08726646 -0.13201803 0.026853317 0.012318714 0.087745085 0.059250746 -0.11109633 0.028184718 -0.036006257 -0.018243792 -0.11552346 0.054985516 -0.048665304 0.13102505 -0.084124364 0.068771645 0.072262675 -0.08146087 -0.042619936 -0.040382516 -0.019269314 -0.10683792 -0.032443546 -0.020689266 0.09208371 0.0718384 -0.00639375 0.091300674 -0.12045934 -0.06768132 0.0076309945 -0.036349535 -0.058290225
-0.12584111 -0.09073447 -0.046686165 0.088118866 0.08666066 -0.056983393 0.046914954 -0.016000599 0.0080792345 -0.07722749 0.011724931 -0.0093530845 0.06809088 0.048876263 0.12687449 0.0979171 0.047998097 -0.08691385 -0.10778828 0.109794445 0.1260175 0.10416215 0.11455503 -0.03929724 0.11009669 0.086226456 0.050352328 -0.033715654 -0.12032085 -0.08572311 -0.07999518 0.082804136 0.0384709 -0.11401632 0.06466833 0.064761 -0.055556852 -0.1223707 -0.11086967 0.040366348 0.10296356 -0.13253748 0.09732318 -0.0010951842 0.0118658515 -0.07265088 -0.039014563 -0.011645995 -0.007182834 -0.13265407 -0.12650655 0.037337914 -0.010070118 -0.01870516 0.1128957 0.05553009 -0.087172136 -0.023182008 -0.103752345 -0.030398186 0.008949615 0.08821632 0.017324448 0.09749257
-0.1236692 -0.016716978 0.031343702 0.11417949 -0.02663224 0.11371667 -0.10653391 0.032226082 0.007217153 -0.013710079 0.11372891 -0.085293695 0.11143626 -0.0072546084 -0.063952826 -0.11582705 -0.048543684 -0.0752837 -0.093808174 0.12526928 0.017532619 0.122300655 0.03920374 -0.07886542 -0.04711225 0.11435586 0.104403876 0.027383493 0.13279705 -0.10784856 -0.025818415 0.084317826 -0.08454821 0.07417107 0.0044137137 -0.013222066 0.05129022 -0.026448244 -0.113519855 -0.02807231 0.0128071355 -0.13352509 -0.068867005 0.100825764 0.09956914 0.10579229 0.09440905 0.04386049 -0.037028335 0.064395465 -0.07426675 0.028444845 0.05856641 -0.07971911 -0.072375484 -0.08020115 -0.06977768 0.084383 0.044838503 -0.09815159 -0.12511994 -0.09969092 -0.08936952 -0.12896879
-0.050556082 0.09315301 -0.10755573 0.04695005 -0.030405205 -0.08328264 -0.061718047 -0.098572895 -0.044977706 -0.04252185 -0.058905486 0.038281985 -0.11373879 -0.027916413 -0.097196706 0.012780572 0.044524323 0.0420447 0.10008553 -0.12086104 -0.08714615 -0.029980134 0.05564387 0.08650051 0.10124121 -0.0984456 0.012982394 0.019655883 -0.011841305 -0.062474933 -0.027741399 -0.02022763 -0.10186482 0.02966819 0.032483812 0.016072078 -0.050578672 -0.008028514 -0.11212974 -0.033915967 0.018064208 0.033655785 0.11350618 0.08903503 0.105725855 0.0785036 0.06581955 0.102488704 -0.0123673035 0.00045433338 -0.04499006 -0.075658955 -0.016764993 0.062302597 -0.035108622 -0.024688518 0.025847852 -0.093224935 -0.105647 -0.10574726 -0.055769816 -0.072040565 -0.11338389 -0.013337314
-0.003022284 -0.05816089 0.023848327 -0.03646178 -0.10281131 0.06538917 -0.08591514 -0.11482347 0.008046896 0.020983776 0.03943377 0.017733933 0.08057785 -0.058187447 -0.0016885073 -0.059216194 0.08731691 0.0501791 -0.022748224 0.02213898 -0.016354352 0.11954624 0.12231739 0.03700465 0.0500896 -0.0051190984 0.10321061 0.108388126 -0.03555003 0.024233539 0.042278122 0.08898588 0.0539731 0.093738735 0.025847726 0.07424825 0.07627348 0.038568072 -0.0032124587 -0.097150385 -0.102712885 0.030115131 -0.10072736 0.080338255 -0.11714279 -0.047705065 0.08530732 0.04506868 0.046245087 -0.051574197 -0.05359713 -0.082639925 0.046354633 -0.09536791 0.010439021 0.05010068 0.012595882 0.029680824 0.007074391 0.050357256 0.077709995 0.1084739 -0.05594521 -0.053490385
-0.030031333 0.037560057 0.052841872 -0.11459901 -0.00055265543 -0.024485217 -0.0463704 -0.019556267 0.009493928 0.01865448 -0.08836368 0.010651583 -0.03322476 0.12624969 0.09042341 0.079002656 0.07993449 -0.115204655 -0.07989881 -0.014516458 -0.05080812 -0.061356664 -0.071759745 0.13304046 -0.11552423 -0.042728484 -0.07216826 -0.054376386 0.0382447 -0.08768197 -0.11379775 0.106255285 -0.04664001 0.059266664 0.103356734 -0.08497241 0.007677404 0.06377996 0.07279419 0.0751586 -0.043618366 -0.029542152 -0.06307137 0.08608453 0.058588255 0.019611975 0.004284388 0.035556927 0.025689963 -0.029915394 0.0030174705 0.061325233 -0.022807106 -0.087313086 -0.04525115 -0.057138167 -0.11288445 -0.075725235 -0.032622915 0.121181 -0.06872495 0.02695805 -0.048096225 0.0802805
0.08048907 -0.033974048 -0.112421565 -0.08765119 -0.006638994 -0.0836512 0.08820736 -0.019568993 0.13461414 -0.028200153 0.08341893 -0.10456187 0.04128641 -0.07907354 0.03138277 0.11245068 0.059393555 -0.023897612 0.013355365 -0.12842175 0.03306588 0.040430956 0.08254174 -0.0415719 -0.06864263 0.055258982 0.042112593 -0.091494866 0.09692798 -0.11399791 -0.13096848 -0.009403443 0.11311052 0.04194483 -0.019606397 0.09720835 0.005741612 0.009695853 -0.023788966 -0.07346618 0.10459275 0.014182443 -0.11456818 -0.08708547 -0.1145204 -0.11068623 0.07228529 0.0948919 -0.034877937 0.076469176 0.12318314 -0.12998343 -0.12397407 0.06201522 0.09967188 -0.10839038 -0.11504674 0.0976181 -0.1324951 -0.0060820254 -0.120381385 0.041680705 0.071580924 0.11428495
-0.068236 -0.043882538 -0.10156045 0.08558193 0.02148472 -0.02749703 0.0073097753 -0.07267843 0.019445758 -0.04619762 -0.025822567 0.013107105 0.01923336 0.004662425 0.001767643 -0.072780654 0.033674788 -0.09806558 -0.024841549 0.04209142 0.06467753 0.09859591 -0.110689506 0.09510226 -0.08255406 0.087415494 0.02650903 -0.093030974 0.12610029 0.041394226 -0.0047002807 -0.016976662 -0.026138691 0.08605403 0.106801465 0.06586633 0.10349232 -0.08657151 -0.0117048975 -0.1178469 -0.026453676 0.07620664 -0.112863325 0.107076354 -0.04426766 -0.017077986 -0.0004286752 -0.07697067 0.1144298 -0.12495889 -0.073561646 -0.024508964 0.046204507 0.07362016 -0.08913346 -0.10146653 0.07073881 -0.011202948 -0.042671923 0.115008436 -0.0069348468 0.059159406 0.11101008 0.05274542
-0.023324057 0.02370075 -0.09554528 -0.01332356 -0.034399975 0.07370347 -0.108855374 0.10617377 0.030998763 0.0538551 -0.048532553 -0.10056923 0.11302096 0.11172768 0.045371532 -0.048843645 0.04411781 -0.068627864 0.058385 0.047465894 -0.077613264 0.087718464 0.050117344 0.070655994 -0.055180136 -0.053292844 0.042263918 -0.010158913 -0.044015147 0.09819736 0.08409408 0.05729897 0.071082115 0.11554023 0.01703807 -0.11223015 0.015910571 -0.10027242 0.051190007 -0.08327697 0.10498628 0.019907506 0.0046070768 -0.015771719 -0.06680073 -0.014844858 -0.054003973 -0.028304351 0.017790899 -0.100359224 -0.01205898 0.010010324 0.08356775 0.023187304 0.07418391 0.012456905 0.069190495 -0.086988546 -0.10259043 -0.017658923 0.10377235 0.0011074002 -0.008749326 -0.10913531
0.06528615 -0.075733945 -0.035367582 0.098185144 -0.090333804 0.03003414 0.04677011 -0.09936349 -0.1281592 -0.12783131 0.013159645 -0.05625074 -0.061841555 -0.13377328 -0.025754988 0.09851818 0.13244367 0.02031174 -0.01173615 0.11555687 0.13419072 0.04850283 0.07406095 0.100290306 0.10854761 -0.005909231 -0.03960077 -0.01910171 -0.10084958 0.13018538 -0.07162683 0.04802253 -0.10950546 -0.030204052 0.01994539 -0.033772588 0.09039445 -0.015231815 0.010279307 -0.05987529 0.12891403 0.10881931 0.0059580794 0.09185969 -0.10665156 -0.051320966 -0.0131268175 -0.03804229 -0.008396562 0.06429191 0.090807505 0.059445005 0.0952501 -0.0008689816 0.026276238 0.11193916 0.12319706 0.044077657 0.070158005 0.06455543 0.07854315 -0.08863102 -0.0070864605 0.023219742
0.11254758 -0.033830598 -0.08337172 0.075949006 -0.038892623 -0.13484947 0.120351076 0.0029243594 -0.03144061 -0.08654155 -0.07426898 0.028499955 -0.016535798 -0.021303352 0.13125984 -0.063090086 -0.10110005 -0.0777534 0.08434749 0.07085669 -0.11164702 0.06311917 -0.00091483386 0.10307821 -0.057432923 -0.08699356 0.052116685 -0.012998076 -0.062404618 -0.017004868 -0.06567924 -0.050919715 0.07272384 -0.00778656 -0.009784359 0.10888318 -0.059195627 -0.086928286 -0.08382203 -0.09627767 0.11627818 0.12313815 -0.010476592 -0.0017339559 0.06628086 0.00043372664 -0.075428344 0.07448761 -0.123502776 0.111709826 -0.08353319 -0.10221271 -0.028937692 0.079154365 0.10863405 -0.107166454 -0.058593486 0.04027351 0.056796838 -0.09838711 -0.091504075 0.10388043 -0.033045936 0.01094624
0.017828207 -0.093841635 -0.031655483 -0.03252323 -0.08671537 0.12716259 0.08503319 0.09595523 0.028374063 0.052346375 -0.030737672 -0.03554242 0.063559115 -0.10315034 0.041957855 -0.081711926 0.0434113 -0.07491654 0.004171936 0.07570846 0.10971695 0.027393255 -0.11456533 -0.005475708 -0.06535171 -0.06838069 -0.11527294 0.04978287 0.022641854 0.004827466 -0.12159565 -0.101703644 -0.0909259 -0.06350951 -0.008285346 -0.015953759 -0.06434345 -0.07404425 -0.08523658 -0.02388068 0.043968014 -0.000751324 -0.023864916 -0.010221168 -0.038124863 -0.1327231 -0.0091927685 -0.12545665 0.051670987 0.0065830294 0.041803915 -0.07878067 0.029687727 -0.1245738 -0.0040803114 0.13334182 0.048387185 -0.13074699 -0.10760403 0.11852747 -0.13371253 0.033219773 -0.07409693 -0.032892454
0.0045116553 -0.047653627 -0.041453537 -0.08269463 -0.115145534 -0.06658902 -0.06621897 0.027883474 0.014671095 -0.12124973 0.046978354 -0.049196135 -0.11854397 -0.015524805 0.016432649 -0.051927168 -0.054626666 -0.07582428 0.017842423 0.010083413 -0.0013597184 0.08582658 0.039255377 0.094094224 -0.017321749 0.028113443 0.04638576 -0.098245 -0.104628466 -0.10475515 -0.081095085 -0.08904646 -0.002810561 -0.025193077 -0.03998303 -0.06532155 0.11246122 0.11500193 0.10267511 -0.09142329 -0.13133258 -0.018246116 -0.09110902 0.107388735 0.11662124 -0.12863529 0.06507704 -0.08934295 -0.1024765 0.04603832 -0.108559735 0.1114502 -0.0010315767 0.10849501 0.10082947 -0.087120764 -0.074179046 -0.0014778483 0.016704842 -0.021823624 0.10839696 -0.114090085 0.070816435 -0.109959565
0.06982758 0.10240693 -0.112951845 0.051860943 0.07437325 -0.0683074 0.07287955 -0.059402883 0.048575412 -0.07200305 0.031989805 -0.015326016 0.12289026 0.07859088 -0.025433436 -0.056733776 -0.06607279 -0.03595934 -0.07051995 0.05367976 -0.111561865 -0.092976175 -0.06748687 0.017246416 -0.027697464 0.03712048 0.035410956 0.05174942 -0.02320878 -0.1315592 0.05825246 -0.106697485 0.022272456 0.13405983 -0.08871899 -0.1015171 0.029855719 0.0095279105 0.024644498 -0.06152797 0.061753325 0.11442481 0.059123106 -0.037530083 -0.088605314 -0.0921191 0.0559764 -0.07983221 0.069467865 0.059903212 -0.029362392 0.007207334 -0.054305866 0.033458497 -0.0651371 0.10232817 0.0410309 0.10557282 0.07788496 0.0327764 -0.015160563 -0.036256403 -0.07787416 0.095479354
0.015082731 -0.016394328 0.031398177 -0.075034276 -0.031126667 -0.094355606 -0.08028582 -0.05910543 0.12466932 0.094343476 0.03341501 -0.0052004023 0.06262507 0.010139448 -0.13183258 -0.114093855 -0.075823374 -0.033208665 -0.109822616 -0.024318617 -0.1123372 -0.011510203 -0.052442256 0.12520643 -0.07607348 -0.10755182 -0.0010111377 0.018412717 -0.106930934 0.037184108 -0.009535654 -0.07545435 -0.07673845 -0.041537676 -0.08868193 -0.020896574 -0.088026956 -0.040112354 -0.020576233 0.1090294 -0.0061770733 0.10397274 0.07747874 -0.0030328298 0.031760793 -0.092226826 0.09249764 -0.082809284 -0.024929218 -0.048828512 0.058406852 0.12645972 0.09510196 -0.004245723 0.10858575 0.04844057 0.0012211644 0.04507094 -0.013767446 -0.015021481 0.07597051 0.062449407 -0.013105224 0.10573842
-0.09396751 0.08673073 0.08345994 -0.11194003 0.011364285 -0.0933782 -0.0099386955 0.02957659 0.08046151 0.119697385 0.046228033 0.046649978 0.0015881894 0.09259869 0.078516565 0.12024419 0.039757833 -0.07670333 -0.12161732 0.09357409 -0.07435802 -0.011991276 0.10021414 -0.07787186 -0.03303791 -0.11545702 0.010672011 -0.055065345 0.035038047 0.066167064 0.038572308 0.07273622 -0.038247004 0.0791873 -0.0974759 0.07537318 -0.10944241 -0.120106064 0.013996203 -0.08936355 -0.051770326 -0.08256492 0.011168493 -0.077070355 0.057979323 -0.131058 0.11241549 -0.08413828 0.1120025 -0.08381458 -0.12053108 0.008938413 -0.12396959 -0.034470376 0.062980786 0.09602788 -0.11656029 0.10074002 0.103507906 0.12994084 -0.11769487 0.09074356 -0.028486542 -0.12184857
-0.09946592 -0.057380036 0.058653295 0.054239403 0.08035608 -0.09703677 0.029918643 -0.011102605 0.1338621 0.039174225 -0.04703884 0.08081728 -0.03005564 0.12195927 0.013292296 0.008139622 -0.11059839 0.03531148 -0.05313704 -0.008198372 0.11300385 0.003263235 -0.056927018 0.09525194 -0.083267815 0.045774296 -0.0043227472 0.10656193 -0.026510306 0.011876827 -0.09060986 0.0060938145 -0.07796465 -0.0706162 0.013737102 -0.05549974 -0.017355636 0.086790375 0.10761032 0.08529822 -0.06689559 -0.12829965 0.042424377 -0.08265407 -0.040996034 0.102118865 0.06665077 -0.029858703 0.10955933 -0.072415456 -0.07687677 -0.11412288 -0.08426109 -0.041185997 -0.06297903 -0.014848406 0.025103437 -0.078388706 0.0866067 0.11185728 -0.1138291 -0.049942933 -0.08445724 -0.0055776453
-0.051527992 0.037023906 0.10933711 0.0992604 -0.0489052 0.11687009 -0.0792663 0.105244115 -0.10649948 -0.08744661 -0.13312899 -0.036571488 0.10979537 -0.0007008845 -0.01950977 0.049674816 -0.0671152 0.10425046 -0.0058948016 -0.058405712 0.10564707 0.07182856 -0.112325706 0.07764948 -0.0046980646 0.033689983 0.08216067 0.030078972 -0.041631263 -0.047247455 0.0902223 0.01923767 0.08377078 -0.10522735 -0.076129936 0.03382552 -0.013606731 -0.10926436 0.12516661 0.09770108 0.044878956 -0.10088697 0.078512155 0.088854805 0.08870811 0.1085197 0.07728646 -0.093776874 0.006852049 -0.034875534 0.108295426 -0.06322541 -0.12857758 -0.0050737853 -0.049401917 -0.11692193 0.06779631 0.09780829 0.10535645 0.023489613 0.03234951 0.04945581 0.02404064 -0.10534041
0.05121474 -0.07694306 0.10886745 -0.110424995 0.032796003 0.09910863 0.064093776 -0.021168793 -0.10267725 -0.052677006 -0.06516783 -0.04906215 0.018869216 -2.9733987e-05 0.055492453 -0.10940501 0.11342886 -0.042136714 -0.046886783 -0.013205545 0.06278292 -0.07939127 -0.097263835 -0.04827723 -0.092795804 -0.07163545 -0.0045319833 0.047549106 -0.0005765697 0.084115155 -0.09890316 -0.09019427 0.06299724 -0.062532514 0.102128446 0.108767316 -0.0074881604 -0.069166064 -0.09096778 0.057888277 0.009220683 0.12680817 0.02848761 0.0017868965 0.10684 -0.017044377 0.052616455 0.07508988 -0.08632305 -0.09457974 0.06284126 0.08006075 -0.08569521 -0.012883423 0.03523747 0.066058554 0.071423255 -0.09236264 0.039759953 -0.09241173 0.05668093 0.077009976 -0.060797673 -0.05084183
0.07351968 0.031982947 0.07130133 0.032667913 0.0926751 -0.092908844 0.021102583 0.10774657 0.026065782 0.047931347 0.09130639 -0.11905939 0.018474007 -0.08255095 -0.022872189 -0.073903926 -0.041741163 0.023905108 0.023153214 0.058157977 -0.0098434165 -0.04746996 -0.020665005 -0.07560822 -0.031006612 -0.12992963 -0.05468209 0.07815061 -0.03262078 0.0781843 0.06772341 0.12646274 0.050923366 -0.04582421 -0.06458815 0.058382068 -0.053151194 -0.030786224 -0.0052269446 0.030785521 -0.061783746 -0.004079907 -0.05707523 -0.10738264 -0.009665309 -0.03618853 0.10285149 0.022591148 -0.016806189 0.09620556 -0.023652587 0.06489236 -0.03415709 0.03851961 -0.024243414 0.10738038 -0.035263512 0.06702222 -0.08915101 -0.086333826 0.069831505 -0.09178173 -0.010738768 0.10886324
0.008478043 0.08387498 -0.011309048 0.12508237 0.051884994 0.008312346 -0.038127866 0.0094751045 -0.07742215 -0.014657117 -0.01912787 0.11434288 0.07896719 0.06304436 0.007933927 -0.05104098 0.003420085 0.04897128 0.10326636 0.06795443 -0.01615655 0.00487144 0.11509374 -0.039898146 0.0016755769 -0.007868906 -0.081129715 -0.034077883 0.06433872 0.08723144 -0.10645377 0.084600635 0.09883411 0.13255168 0.048875228 0.032664564 -0.023289477 -0.09905841 -0.031215949 0.012174201 -0.07765978 -0.08773285 0.11219659 0.027846638 0.07822411 -0.10395651 -7.2546536e-06 0.11217159 0.10213608 0.0055239475 0.027424129 0.0438501 -0.07594893 -0.085158914 -0.015378276 -0.007713156 0.02488398 0.0669219 -0.022501277 -0.096145116 0.046554066 -0.077178195 0.07228169 0.05020595
-0.11076752 -0.00559967 -0.13013525 0.043746997 -0.11599307 0.1008659 0.0024750931 -0.111492045 -0.08003557 0.101740964 -0.10136877 0.100282386 -0.011962246 -0.09577484 0.0593912 -0.08096263 0.0671433 -0.120983414 -0.084344186 0.026680946 0.02541343 -0.00821455 -0.040053584 0.00909359 -0.118461065 0.009619051 0.0144432485 -0.1280081 -0.08583479 0.083561525 0.057684198 -0.08783953 -0.014365286 0.086538725 0.031430915 -0.052789036 0.06346334 0.0420127 0.04935001 0.05160438 0.038473975 -0.09818549 -0.053947266 0.10472258 -0.116834775 0.11370166 0.058911383 0.06465679 0.0119822305 0.0908967 -0.12599738 -0.017916664 -0.085116394 -0.11646095 -0.08569816 -0.028719483 0.06500167 0.033312213 -0.074954286 0.039682582 0.112006515 -0.08361533 -0.00018675544 -0.083988674
0.03186904 0.049757145 -0.045546975 0.08554131 -0.026849603 0.023078328 -0.05779137 0.008617896 -0.12067357 0.036440387 -0.0409159 0.04056539 -0.11199279 -0.041118246 0.099652 0.057714358 0.11171355 -0.06473933 -0.08332767 0.013297021 0.0069458894 -0.059182998 -0.03617806 0.06569919 -0.10601847 -0.097280234 0.112755924 0.02275999 -0.010630346 -0.09776196 0.035955254 -0.02355918 0.095330216 -0.1252632 0.120394975 0.10025093 0.110444136 -0.0677634 0.007168362 0.05844835 -0.0432269 -0.05641079 0.024732798 -0.02494155 -0.042931005 -0.0782117 -0.0024367229 -0.10301327 0.07135977 0.124030694 0.02532147 -0.056850217 -0.040320575 -0.059052676 0.009945837 -0.02644902 0.04863743 -0.06287017 -0.022711676 0.050570514 0.049249753 0.09589657 0.054149374 0.0432228
-0.05773822 -0.036553655 -0.118329555 -0.023043029 -0.07469606 0.11184043 -0.055243693 0.07604783 0.1296494 0.105376415 0.04503166 0.1068909 0.132909 -0.07083362 0.010453903 0.08678725 -0.03239619 -0.06916462 -0.029982982 0.017518776 -0.05817433 0.11908437 -0.053717956 -0.070793144 -0.0061166035 -0.09559509 -0.09728747 0.026698204 -0.071769655 -0.028946875 -0.00688303 0.101237826 0.056423806 -0.104773186 0.005385426 -0.06944857 0.09002616 0.012568807 -0.027535373 -0.11287287 -0.0637209 0.07725821 0.033524334 -0.0066334205 -0.03283739 -0.12356611 0.07076726 0.03002295 -0.03457793 0.068128526 -0.10994848 0.102259465 0.11691349 0.08268497 -0.10192531 0.082087755 -0.0482721 -0.030119337 0.1320498 0.042942785 0.01791205 -0.055751223 -0.09297911 0.033650115
0.04743459 0.12156572 0.12043265 -0.07780382 0.07736775 0.10607113 -0.044760413 -0.06088145 -0.05817142 0.077278905 -0.095368065 0.1077223 0.10445568 -0.11577975 -0.10739723 -0.11575901 0.060557224 -0.049304787 0.089353144 -0.01388138 0.07187997 -0.029943882 -0.13214609 -0.034060206 -0.111961775 -0.08506791 -0.0063306983 0.08463813 -0.09074384 -0.013572231 0.12083523 0.03327286 -0.11979539 0.022778671 0.017876862 -0.100578144 -0.010538193 0.07386625 0.108534 0.011466384 -0.05438841 0.044780806 0.11115452 0.039324533 -0.03334746 -0.09376768 0.06162636 -0.038583554 0.06202417 -0.10209127 0.12303107 -0.061164297 0.08057138 -0.10576483 -0.030499564 -0.05221243 0.06865682 0.0068689534 -0.0037488071 0.06282329 -0.10671339 0.025674079 -0.046345945 0.0562955
-0.06673749 -0.048915435 -0.0765463 -0.06989097 -0.06249584 0.038579606 0.05932791 0.042281903 -0.009968796 0.07078334 -0.06501779 0.107667245 -0.014415811 0.05701204 0.02204726 -0.0394982 -0.023823619 -0.097785085 -0.07723296 0.051843233 0.02754943 0.093124285 -0.052022785 0.08343635 -0.0706763 0.019158384 0.07546031 -0.06813519 0.051349167 0.092757985 -0.025258549 -0.082774945 0.014200039 -0.07727924 -0.048485696 0.12902726 -0.052960027 0.09648842 -0.099188074 0.0890241 0.008870975 0.056091934 0.011915788 0.04738742 -0.07792169 -0.021451391 0.017928012 0.0037990569 0.040661268 0.04118903 -0.077085935 -0.06295158 -0.11074374 -0.08468418 -0.0036180287 -0.04700515 -0.03205083 -0.085017584 0.05881454 0.022055805 -0.029222474 -0.0023116944 0.049441654 0.06538684
-0.114439614 -0.09906046 0.04262741 -0.091781646 -0.039888747 0.005268432 0.0035135536 0.04168894 0.052189555 -0.12806319 -0.02027757 -0.07278373 -0.026009133 0.09910761 0.042420566 -0.08407606 -0.063450806 -0.1191026 -0.021751126 -0.010859839 -0.00041328615 0.00064192 -0.006583459 -0.044926293 -0.082236245 -0.051475342 -0.023969386 0.100565575 0.13079166 -0.0688929 -0.0014559029 -0.052446757 0.12889832 0.057975806 0.07216981 -0.035532765 0.12485582 -0.038053807 -0.049744092 -0.029867576 0.12816876 -0.09676427 0.093348876 -0.078676894 -0.004927475 0.06841002 0.12425905 -0.06484325 0.12969188 0.10859429 0.075604975 -0.077239566 -0.012996511 -0.09769011 -0.09482205 -0.023492085 -0.0072439993 0.059910826 -0.034621358 0.13021767 -0.1131854 -0.08849267 -0.124684095 0.11544437
-0.011148464 -0.005895568 0.026396388 0.057494838 -0.10899282 0.11666638 -0.09043699 -0.10481695 0.06062632 0.003644952 -0.1228484 0.02705563 0.0486515 -0.09100453 -0.04324568 -0.112989016 -0.047703948 0.13496551 0.10173642 -0.05160771 0.036566645 0.024353692 -0.007366899 0.020926528 0.07954244 -0.0016228904 -0.05387772 0.010803616 -0.028143927 -0.022837183 -0.0066715274 -0.09701598 0.004584217 0.08650803 -0.03404963 0.07844761 -0.05958274 -0.029862957 0.00367236 -0.016598312 -0.0615453 0.07721086 -0.024676446 0.021897972 0.083525494 0.1029511 0.11294637 -0.0018311765 0.021363668 0.07482235 0.079422615 0.08164531 -0.04519423 0.10360758 -0.08349434 0.083719075 0.10052448 0.04394999 -0.10543776 -0.09950506 -0.11441826 -0.010236035 0.08471306 -0.053488433
-0.05272623 -0.04456576 0.035631314 -0.002709972 0.085026585 0.087125115 0.050435886 0.023997048 0.11832173 0.062128194 0.1160444 0.08671425 0.06546438 -0.050146535 -0.0316827 0.017976636 -0.08219991 0.0731431 -0.05224269 -0.067543216 0.06155473 -0.045569018 -0.07940617 0.050513554 -0.091816284 -0.040318 -0.056256067 -0.039796103 -0.009108493 -0.034997515 -0.026905078 -0.08075373 0.055440344 0.044656955 0.03975352 0.024044266 0.0060210745 -0.060683094 -0.11241416 0.011688768 -0.083969004 -0.007572624 0.112603895 -0.11211287 -0.045087416 -0.13466558 -0.12243176 0.062125087 -0.032549933 -0.09466831 -0.015639054 -0.024338486 -0.10390828 -0.08035936 -0.061515946 -0.08167972 0.020736417 0.114853494 0.030677464 0.034481887 -0.06006035 -0.09886654 -0.08038535 -0.0027425743
0.07302022 -0.06432354 -0.06272164 0.028715838 0.017350866 0.1030863 -0.08365866 -0.07804169 -0.1147082 0.01738298 0.08580167 -0.009029656 -0.009390474 0.0008264801 -0.007634263 0.09289422 0.010636874 0.019597827 -0.028454501 -0.090183586 0.104027614 0.045836203 0.06613185 -0.111640915 -0.0067139966 -0.056410126 -0.055671986 -0.05566543 -0.07505142 0.016970625 0.06525284 -0.04219151 0.01685748 0.036179088 -0.10072391 -0.10335043 0.122311756 -0.060466927 -0.066716425 -0.008866298 -0.10579676 -0.09632941 -0.07943213 -0.043036174 0.0059145372 -0.08041415 0.09444531 -0.013051656 0.05284787 -0.030126141 -0.029636921 -0.036543384 -0.0124877 0.091207944 0.12908398 0.08065512 0.051755715 0.071737245 0.043120563 0.031855196 0.027763497 -0.021606533 0.020386405 -0.05573863
-0.037842646 -0.07641625 -0.07334917 0.09961782 0.026178222 -0.09798525 -0.017830767 0.016718835 -0.1075528 0.112277016 0.12379276 0.07030826 0.1224512 -0.09909005 0.088082634 0.05853655 -0.028081745 -0.07597601 0.10194456 0.021123333 -0.01963047 0.08450625 -0.12655158 0.12001288 0.037686173 0.06280151 0.04164202 -0.04517661 0.1098539 0.04233594 0.022339253 0.06507068 0.08989045 0.10449714 -0.11513513 0.017295664 0.020651126 0.0034433822 -0.07107969 -0.1222975 -0.054356456 -0.04459249 0.041536257 -0.022992598 -0.07995061 -0.08002392 -0.048910666 -0.06777665 -0.00076806755 0.046425853 0.039267767 0.0482502 0.012495348 -0.06312069 0.13153155 -0.09373421 0.11282864 0.07918385 0.00077137654 -0.04391686 -0.060590822 -0.07579141 -0.1329585 -0.0870973
0.02103593 -0.027222257 -0.10560902 0.040229183 -0.06421577 -0.08821167 -0.035943374 -0.000624218 0.12567428 -0.08450846 -0.08147376 0.04096557 -0.09539979 -0.017542941 -0.05620089 0.12758969 0.002854857 -0.04725557 -0.033626035 0.09348566 -0.06859536 0.093133025 -0.027791098 -0.05576068 0.12100055 0.019268101 0.053860847 -0.03675761 -0.06800446 0.017061502 0.13394779 0.075901315 0.06444662 0.080213845 0.06183885 -0.093324184 -0.013981643 0.08429364 -0.040213406 0.07655671 0.086608395 0.04950105 -0.007359625 0.1052644 -0.06580343 -0.011877537 0.031189114 -0.12440011 -0.1285884 0.11383728 0.041962773 -0.12675941 0.093760274 0.08939189 -0.09625433 0.012318893 -0.062405158 -0.08783086 0.010699253 -0.102098 -0.06696466 -0.06800917 0.043090787 -0.024197595
-0.046010755 0.101127 -0.06570786 0.03216074 -0.11974376 0.10889711 0.09913757 0.00017029635 -0.039750263 -0.04316504 0.049641997 0.120648965 0.09218116 -0.00029933307 -0.051187646 -0.04804556 0.0869184 0.103719935 0.037196342 -0.054734033 0.045614243 -0.009909348 -0.019639827 0.11508754 0.07177302 -0.08351716 0.01180174 0.034769364 -0.09746158 0.07240435 0.07624618 0.10487744 -0.024795331 -0.016097821 0.01681107 0.04548408 -0.099105105 -0.08539687 -0.0014190719 0.07051959 0.061831735 -0.11571356 0.004490215 0.027750846 0.040826 -0.015832309 0.094440006 -0.11842045 0.023250995 0.078768075 0.0026846507 0.082376495 0.13192439 0.038567156 -0.007935319 0.047713164 0.034458242 -0.121526174 0.11077696 0.002012681 0.039343216 0.06859514 0.04479359 0.04897586
-0.082193844 0.08110414 -0.06454009 0.070865296 -0.060878165 0.095179364 0.09908152 0.10019164 -0.07527773 0.10896898 0.08362666 -0.13348389 0.09719259 -0.052724004 -0.052770417 -0.10172245 0.0701385 -0.008873597 0.070923984 -0.06961609 0.027955174 -0.07878685 0.1175748 0.00867856 -0.048240453 0.09878916 0.074715436 -0.1032682 -0.040301576 0.11660109 -0.11286383 0.113111734 0.059870627 0.09944548 -0.08473168 0.07253862 -0.043258652 -0.07572177 0.13204986 -0.06292812 0.06269654 0.059678413 0.08321563 0.02793594 0.10779658 -0.10995801 0.134479 -0.11510979 -0.09900862 -0.06480147 0.05022597 -0.058666926 -0.06473943 -0.0635512 0.012185548 0.051412597 0.10358703 0.031968575 0.06421602 -0.07866931 -0.002049878 -0.07269405 -0.035052538 -0.08391253
0.031099154 -0.06878156 -0.028929759 -0.09775374 -0.009701628 0.10427828 0.00579059 0.031048354 0.098012 -0.04580062 0.018979453 -0.052955184 0.075332575 -0.06383202 -0.002913448 -0.058321167 -0.12596956 0.023731722 0.0033121551 -0.07174549 0.08670587 -0.028833505 0.096685834 -0.05918827 -0.09067285 -0.12076401 -0.13251807 0.012059947 -0.068306826 0.025869556 0.097569905 -0.12289977 -0.03785436 -0.10663499 -0.093936145 -0.10453681 0.025732847 -0.011723441 -0.07846754 -0.040815454 0.03569145 -0.1103571 0.004736105 0.07996962 -0.039029133 0.026037207 -0.06298825 0.0023819963 -0.054622658 0.098551445 -0.07568046 0.010451086 -0.054703742 0.11211939 0.05011027 -0.005141578 0.032622315 0.035758536 -0.09507803 0.05824784 0.13157573 0.024792355 0.12008315 0.09301182
-0.06618654 -0.111092456 0.0052920594 0.009800494 0.1200036 -0.095657825 0.082167186 -0.043961205 -0.053030748 -0.048988145 -0.022887992 -0.11361537 -0.09918332 -0.10566152 -0.08954545 0.11385942 -0.02769316 -0.08831322 0.10584405 0.09831531 0.08501149 -0.10462867 -0.029606814 0.077767566 0.09074876 0.036155853 0.05360339 -0.05553562 0.015213389 0.086892955 0.025247483 -0.057682674 -0.03286636 -0.055962674 -0.027742488 0.08427278 -0.03630237 0.010922061 -0.011607357 -0.0291057 0.09088708 0.089044645 0.0067759687 -0.02631034 0.083947636 0.08340341 -0.10916115 -0.03482803 0.03800112 -0.055223342 0.0012964617 -0.07822646 0.11326582 -0.09169031 0.04463658 -0.030810332 -0.032362517 -0.0047313394 0.071196094 -0.011010662 0.0032294134 -0.02619064 0.07349497 0.0683522
-0.019458186 0.0706322 0.046019964 -0.07369648 0.10149968 -0.11981537 0.07244051 -0.13487 -0.0402738 -0.045975365 0.10898554 0.03401263 -0.13191204 -0.014178569 -0.021845719 -0.009875471 -0.11032096 -0.0056362217 -0.06067982 0.06299987 0.032831576 -0.052177936 -0.013274095 0.02745448 -0.000164002 0.032869935 -0.06454705 -0.03493975 0.048641466 0.006685603 0.071997985 0.11525085 0.034138847 -0.10065794 -0.052895796 0.0414356 0.068228416 -0.09578949 0.048351884 -0.051703293 -0.062988274 -0.025448237 -0.038978823 -0.018764893 0.07122427 -0.07972947 0.091231234 0.027121717 0.09262438 -0.06790844 -0.03731769 0.0068788007 -0.057322007 0.08490621 0.0565719 0.104416825 -0.05570639 -0.044315208 0.09795436 0.11367923 -0.10365262 0.11437821 -0.031323727 0.071498476
-0.044957586 -0.11216147 -0.12614931 0.05482421 -0.08872087 0.09589556 -0.05393126 0.019112386 -0.04290778 0.011110649 -0.08552268 -0.07099194 0.02538785 0.054144174 0.021501578 0.05961025 -0.08893187 0.05264974 -0.07899962 -0.08219028 -0.06762001 -0.013073965 -0.0714424 0.06512264 0.0019538212 0.10560383 -0.08467535 0.09992987 -0.06603572 0.053697806 -0.047084987 -0.016373334 0.03036187 -0.086095855 0.048072573 0.10131534 0.09190479 0.104457244 -0.13405025 -0.10834424 -0.02337242 0.049169976 -0.006523568 0.10238389 0.07926635 0.054456003 -0.09265017 0.05790611 -0.06063679 -0.12449397 -0.09686605 -0.028138619 -0.12590548 -0.060497623 0.054472394 -0.027074585 0.09615402 0.11121357 -0.037849963 -0.044191528 -0.02707689 0.049150743 0.06737697 0.051435165
-0.010731567 0.09453573 -0.011005772 -0.10947589 -0.09658605 -0.09507515 0.114971906 -0.066976786 0.083453156 0.12241261 -0.09004282 -0.10284481 -0.022543395 -0.0030044098 0.092545025 0.06800465 -0.05651101 -0.04105682 0.04204564 0.051879067 -0.07409968 0.06593745 -0.033649478 -0.039339162 0.07907205 0.021735793 -0.02535513 0.040309932 0.11115508 0.06836882 -0.084668376 0.10053627 0.09103253 0.033012383 -0.017949823 0.04531573 -0.08128637 0.06773496 -0.11731379 -0.116228275 0.08860062 -0.08423637 0.021904299 -0.09034313 0.10429913 0.018922545 0.0022662776 0.07532593 -0.04898103 -0.09470041 0.020894952 0.019903503 -0.08858202 0.056600712 0.02284458 -0.10850077 0.08706808 -0.007992404 -0.03735814 0.027821437 -0.0019143436 0.03652238 0.045107152 0.010464333
-0.115493886 -0.0582279 -0.048576884 -0.10712302 -0.027625583 -0.11034689 0.004721574 0.122403964 0.05504761 -0.015859343 0.09465524 -0.076514706 -0.09633392 -0.06763198 0.060157146 0.08801555 -0.08834301 -0.027309356 -0.053388137 -0.11283243 -0.049855307 0.1290368 -0.07987942 0.00014196767 -0.11230854 0.011931637 0.018010654 0.07160731 -0.10558587 0.10461402 0.039688937 0.052626465 0.008246642 -0.03764257 0.07980943 0.06994418 0.084130235 0.110564634 0.06140507 -0.07387316 -0.10718743 0.04762882 -0.042415105 0.10766704 -0.06034992 0.05286523 -0.112025514 0.014501141 0.047292445 -0.07501069 -0.04415805 -0.07449614 -0.085501015 -0.096970335 0.111603156 0.006409368 -0.08048528 -0.025329936 0.05988107 -0.03391462 0.039379895 0.03639907 0.03911523 0.08239653
0.008312019 -0.082264915 -0.048270237 0.10621719 0.034888376 0.10350378 -0.09911999 0.10674425 0.10130896 0.11306033 -0.033462327 -0.030041987 -0.003345706 -0.015787764 0.09978975 0.12426502 0.09973795 -0.021489816 -0.07222228 -0.020072596 -0.050434425 -0.040631168 0.03743283 0.12617996 0.046292815 -0.007755651 -0.029966073 -0.018406734 0.10647895 0.070455134 0.023749169 -0.03296383 -0.08798986 -0.1139179 -0.09268004 0.10622457 0.011068965 0.047278892 -0.079681836 -0.022359088 -0.082184695 0.044695754 0.07559889 0.027078899 0.0029253846 0.07435357 0.085123904 0.062890865 0.071192175 -0.060977314 0.006666633 0.025150692 -0.0797094 -0.08620191 -0.050256558 0.030710999 0.02298851 -0.1120311 0.07435055 -0.06787539 -0.08823071 0.105320126 0.09983876 -0.095874995
0.08783923 -0.07563961 -0.058610737 0.019434676 0.08552611 0.08947421 0.03468817 -0.10970763 -0.04530112 -0.10803821 -0.1179817 0.026870806 0.067215286 0.049889296 -0.11119839 -0.069263175 -0.13482496 0.106113695 -0.007439383 0.12183566 0.007368558 -0.12604061 -0.060665227 -0.021282928 0.104721956 -0.068644814 0.00963955 -0.0050950404 0.08982272 -0.0050036395 -0.073814556 -0.093263514 -0.12521642 0.099316195 -0.1213987 0.044611245 0.055566072 -0.023401028 -0.09253078 0.013723424 0.11307723 -0.033675212 0.024029827 -0.088450685 -0.037035584 0.10498032 -0.061297122 0.12022309 0.07777039 0.012303723 -0.105309635 -0.052542973 0.106478326 0.13332021 -0.072630696 -0.095769234 0.09043901 -0.11159987 0.076046385 0.058602016 -0.070230156 0.096984625 -0.049156632 0.08733955
0.040266655 0.04137244 -0.04487473 -0.02363835 0.13275352 0.1336481 0.016925456 0.07191183 0.0041546235 0.10383082 0.01293661 0.13352357 -0.024178283 0.05817853 0.12107231 0.11768366 0.08768036 -0.09249462 0.091918185 -0.109846815 0.13333896 -0.0018519701 0.114858106 0.038080532 0.042711448 -0.062348038 -0.025030516 0.058846466 -0.030154511 0.02354905 0.06327471 -0.01867324 -0.08848952 0.03670914 0.02191992 -0.035669092 -0.096233726 0.028896436 -0.12109731 -0.0692197 -0.06206649 -0.120038964 0.081884645 -0.081181675 -0.11188655 -0.0030127098 0.05250692 0.10969812 0.082015656 -0.108285606 0.10505123 -0.11239393 -0.033235393 0.09591896 -0.041294258 0.11068192 0.07234871 -0.056272827 -0.02551229 0.07782249 -0.10323876 -0.08404267 -0.02304112 0.020022998
-0.07061157 -0.06633418 -0.088835746 0.043595947 -0.03798224 0.029785136 0.08536411 0.081248194 0.09293596 0.052503236 0.07284311 0.090436585 -0.0040457225 -0.0731952 -0.097833484 -0.088338345 0.023753937 0.018679507 0.04814143 -0.08990385 -0.08218662 -0.11523534 -0.07874679 0.04289183 -0.0595425 -0.0476316 0.06076258 -0.08547549 0.009404276 -0.07691628 -0.011669125 -0.08025732 0.012187945 0.06197355 0.08604318 0.06796865 0.08707097 -0.012610259 -0.0808137 0.013278578 -0.01601122 -0.025307525 0.040652215 -0.093786195 0.027684074 -0.01905711 0.06852336 -0.057183586 0.048818607 0.06504156 -0.1155645 -0.062387902 0.11515173 -0.10375225 0.13294724 0.088587254 0.0029359953 0.09574727 -0.03840868 0.0068778004 -0.046070725 0.04781751 0.0049147177 0.00049373147
0.08264215 0.097609125 -0.044720683 0.009454646 0.12751868 -0.03170516 0.12474005 0.031028477 -0.02144787 -0.11013692 -0.023459727 -0.11002663 0.0135953445 0.13202134 0.027876658 -0.022192769 0.0634314 -0.10634657 0.07514847 0.04650579 0.062884934 0.07703033 0.13506049 -0.017787661 -0.041909073 0.08806646 -0.078463115 -0.019122906 -0.0853154 0.028021233 -0.033946447 -0.059088245 -0.050690547 0.04006269 -0.067595236 -0.07778602 0.07496923 0.082113065 0.051254395 -0.0036957418 0.08834609 -0.11039694 0.027620614 -0.00922818 0.086951844 -0.035227627 0.04682375 -0.051860053 0.102031626 -0.019401839 -0.064916745 -0.03514708 -0.05632841 -0.12002325 -0.09409305 -0.09800923 -0.08774917 -0.10634144 -0.08659924 0.09319038 -0.10703035 0.034934472 0.056250002 -0.06391479
0.08942235 -0.08705121 -0.04498909 -0.09759753 -0.061826877 -0.0135137895 -0.09465456 0.059646104 -0.026668845 -0.052701224 0.030632567 0.03321794 -0.06365516 0.08232066 -0.0071431277 0.051141787 -0.02170995 0.033677686 -0.07718811 0.10756439 0.114370696 -0.052053496 -0.0933418 -0.05437366 0.079106405 0.11745134 -0.05248962 -0.08637673 0.07615162 -0.07311393 -0.08220982 -0.04159935 -0.024013607 -0.059640456 -0.03563072 0.08457297 0.10913185 0.06886925 0.00069300446 0.020001255 0.107601345 0.042037718 -0.013102263 0.031613577 -0.024708346 -0.03643043 0.055201124 -0.118501216 0.089141384 0.06346756 -0.024439856 0.004936342 0.10592892 -0.08969136 0.10893057 0.0037413388 -0.030483296 0.09529623 0.049264185 -0.09876248 0.03465615 0.031773616 0.10096046 0.054120284
0.031175327 0.019420456 0.13156527 -0.03666087 0.07710532 -0.08235403 -0.120241575 0.12259387 0.059724838 -0.05584561 0.00867194 -0.07133052 0.082628466 -0.037440367 -0.008705336 0.10177097 0.103907935 0.080557585 -0.08442883 0.0042358832 -0.10080566 0.009418241 -0.099491864 0.037681546 0.07138487 -0.13382033 -0.12751153 -0.11064441 0.020247642 0.12103329 -0.058294978 0.030026607 -0.08404098 -0.028314527 -0.08044222 -0.016539041 0.08987028 -0.099439815 -0.12475603 -0.08071991 -0.011049056 0.13035154 0.06562063 0.1281269 -0.06863199 0.09965248 0.10057694 0.0097090835 -0.03095701 -0.05950193 0.0880859 0.01640098 -0.013647363 0.001965995 0.0817077 -0.13119692 -0.12266772 -0.036290478 -0.07671271 0.09860859 0.02026084 -0.10371892 0.0101036 0.074907705
-0.0035497802 -0.09088557 0.00941718 -0.013926242 0.0009343092 -0.028786229 -0.10639998 -0.0045727193 0.06370135 0.106802486 0.04550853 -0.05429849 0.016305001 0.10157232 -0.12635514 0.025632648 0.07588085 0.03729228 0.065823436 -0.13074988 0.1076823 -0.12806585 0.07981058 -0.040228188 0.054860163 -0.11999458 -0.0319548 -0.13218936 0.017704092 0.014643724 -0.05899749 0.08177183 -0.066233926 -0.06909068 0.021915363 -0.023993881 -0.10432952 -0.046358943 0.09153086 0.014992482 0.09119565 0.09242438 0.11422466 0.032115888 0.041380443 0.019508641 -0.08300771 -0.015951136 -0.067481466 0.056648586 0.10908404 0.04912697 0.00095585233 0.031364717 0.05058015 -0.072463736 0.11327112 -0.01694945 0.09986877 -0.0068359426 0.012593196 0.112292595 0.11389707 0.091655
0.061119378 -0.009527543 0.09214536 0.13010155 0.123612255 0.011850933 0.0911035 0.03489832 0.098264754 -0.082473 -0.024544686 0.01769766 -0.054209873 -0.082392976 -0.10977998 -0.04816696 -0.1227522 0.0692122 0.010973159 0.086813994 0.015508722 0.11220132 0.015924007 -0.098769315 0.083726324 0.042883683 -0.049203355 0.017284516 0.10574138 0.03497164 0.026606347 -0.009834418 0.080799356 0.035775468 0.060450856 0.042227644 -0.08656295 0.051577672 -0.08873802 -0.08849363 -0.09083905 0.095674194 -0.08430605 -0.08615647 0.08343556 0.09592669 0.09302556 -0.01941654 0.03868444 0.107309274 -0.0560764 0.105109476 -0.092764236 -0.09843007 0.009050155 0.016165722 -0.018213836 -0.07289647 -0.11239419 -0.040241238 0.016698148 0.012140262 0.104470216 -0.072937846
-0.12105588 0.050266907 -0.012829735 -0.056590784 0.026236428 -0.09411328 0.037725817 -0.08504333 -0.0982846 0.088345245 -0.039968386 -0.0969305 -0.0542849 0.0883145 -0.11779883 0.104846336 0.01025771 0.01904923 -0.08840816 0.080821425 0.01966226 -0.06167093 0.07522629 -0.040200308 -0.0863084 -0.031607885 0.10864648 0.042307734 0.09176905 -0.1008856 -0.026978182 -0.102572635 0.027223643 0.11038567 0.051177103 0.04955414 -0.060697503 -0.05162951 -0.09755051 -0.087090574 0.115262434 0.05595389 -0.026089994 0.07307182 -0.03009596 0.11380615 0.03384559 -0.08350874 0.08448288 0.033121735 -0.031780656 0.12691648 -0.09342568 -0.12750712 0.04170811 0.09313106 0.123676375 -0.04868917 0.07583192 -0.09341108 0.06621581 0.13119908 -0.049304415 0.07141681
0.012164498 0.057194244 0.07157951 -0.083207 0.045525666 0.02193513 0.123871595 -0.04659899 -0.077756554 -0.08881536 0.0688956 0.02906477 0.05169342 -0.0152753 0.1068672 0.0697736 0.001225603 0.09934168 -0.032591473 -0.0940434 0.07604283 0.092792615 -0.100168794 -0.10810682 0.030865548 -0.13064331 0.08889439 -0.037765887 0.0544179 -0.065071166 -0.04501544 -0.017143842 0.09056503 0.014441781 0.10951617 0.03875742 0.111187465 0.111515656 -0.110431775 0.11359895 -0.09887851 -0.10281876 0.07196198 0.019921 0.046432115 -0.08322312 -0.08147602 0.102543205 -0.04948377 0.012804289 0.02837764 -0.026720565 -0.028923025 0.018501518 -0.07323767 -0.11526849 0.08350755 0.03043735 -0.08586952 0.12937544 0.079185456 0.059754167 -0.123510115 0.018509481
-0.116288595 0.071650214 0.039842475 -0.119832546 0.024977567 -0.121637106 0.057210635 -0.04427021 0.13122404 -0.03236684 0.057662103 0.04511938 0.10004526 -0.027394198 -0.08935884 -0.1095888 -0.058330476 -0.01220788 0.0062464755 0.11431215 0.07234809 -0.008664912 0.07391022 0.017449457 0.07788241 0.060360037 0.022332491 0.056505308 0.018454297 -0.06808102 -0.040690254 0.11314095 0.06466629 0.05588685 -0.072730415 0.070474446 -0.09168004 0.036102843 0.062018514 -0.11215447 -0.007264184 -0.09935884 -0.08232241 -0.0013732391 -0.04108371 -0.04541136 0.11719734 -0.021539481 0.08180449 0.0040725796 -0.0900813 -0.06997786 0.096704036 0.12985705 0.028708763 0.014423844 0.05689103 0.113875344 -0.11042898 -0.015777577 -0.027044214 -0.036606997 -0.10491371 0.044905543
0.022795599 -0.07298639 0.058746982 -0.109683156 -0.028718177 0.06697966 -0.1149686 -0.076077186 -0.09867499 -0.06469786 -0.041486487 0.03260227 -0.10500658 0.028920313 0.032573536 -0.04986247 0.015095072 -0.04435067 0.011904619 -0.058215473 0.039809287 -0.0023691407 0.08634701 -0.11642444 0.0562221 0.100507155 -0.0719159 0.09639342 0.04654477 0.036506124 0.10759282 -0.08631194 -0.10956357 -0.099815175 0.061366107 0.10512388 0.11561736 0.04113696 0.08060315 -0.06590015 -0.08219696 0.020353533 -0.07834094 0.00061731954 -0.08545823 0.050641872 0.111196935 -0.109947264 -0.115186244 0.08107034 0.08252535 0.05362359 -0.11240018 0.06616074 0.048214007 0.06631724 0.031359557 -0.020137908 0.060748056 0.077691995 0.035462223 0.08090122 -0.04893647 0.1261569
-0.067509025 -0.005600072 0.10534244 0.031027103 0.07582752 0.027083652 0.012274823 0.09594658 -0.09726956 0.106115974 -0.08444297 0.002939045 0.056839168 -0.09314379 0.103682175 -0.010304278 -0.028547086 0.03198032 0.01697101 0.04591026 0.065626465 -0.106235206 0.09817662 -0.04955965 -0.08465508 -0.09653444 0.04083437 -0.014249404 -0.008555627 0.103551544 -0.033239957 -0.039007314 0.05899179 0.046132527 -0.048549198 -0.05476315 0.05156535 -0.08006607 0.065717906 -0.059677858 -0.051577292 -0.05923348 0.034862634 0.055350818 0.024158375 -0.04991865 0.0032322705 0.08068597 0.05968018 -0.038535476 0.0140348915 -0.111523785 0.10793425 -0.100879215 -0.08374679 -0.025962207 0.0010129788 -0.11399261 -0.009000937 0.02877265 0.026067756 -0.03148688 0.005581516 0.06385721
0.10718948 0.05414887 0.07721991 -0.08637016 0.089647815 0.038479086 0.030126113 -0.0047829496 0.0318104 -0.04365673 -0.10773681 -0.110452875 -0.06686708 -0.101436354 0.07540432 0.055832878 -0.027403656 0.12875101 -0.0048965337 0.011126204 0.05875479 0.0059980154 0.115779825 -0.039274752 0.059284545 0.074064896 -0.058589965 -0.0969972 0.12201973 0.111952394 -0.009805733 0.102119505 0.097689226 0.065482445 0.08037998 -0.109952085 0.0138741005 -0.07260229 -0.1060758 0.033263013 -0.07358387 -0.030345103 0.11742609 -0.05209868 0.030013422 -0.07913837 -0.07295689 0.071987584 0.07223662 0.0031100756 -0.11061616 0.014219147 0.07524048 0.025961725 0.04560833 0.030029666 -0.03747692 -0.09858261 0.03342648 -0.010193689 -0.05566018 0.0756955 -0.046318173 -0.068561904
0.07375779 -0.12641123 -0.032639585 0.0023494281 -0.11776955 -0.03767985 0.089489356 0.0204648 -0.062074002 0.10216191 -0.017770642 0.07898229 -0.09431419 0.038853288 0.0485493 0.021552706 0.004761141 0.06393755 -0.041803166 0.061089534 -0.026379488 0.057921924 -0.018370233 0.058316164 0.13343088 -0.053504463 -0.07593231 -0.018309718 -0.1120163 -0.0041483613 -0.006614011 -0.027207568 -0.00077862875 0.11068839 0.00470352 0.024720302 0.1292565 -0.020907028 -0.051698122 -0.041369814 -0.09108163 0.025239205 -0.072366975 -0.04043927 0.07156593 0.12883575 0.071861446 0.062654346 -0.08215562 0.059349038 0.116813645 -0.10495123 0.117853284 0.05412017 -0.039048515 0.11303871 -0.0014650357 -0.105274886 0.104538955 0.009092376 -0.028253434 -0.09065925 0.13176955 0.0010357895
-0.03601642 -0.008311107 -0.022288365 0.04921845 0.01399845 -0.020872692 -0.06420841 0.11570129 0.05344221 0.1331454 -0.08439783 -0.059711985 0.09906487 0.082312234 0.13400924 0.0008065414 0.08147199 -0.11373937 -0.09811815 0.044884168 -0.056167316 -0.09531834 0.0039463653 -0.0038140507 0.11484204 -0.061141632 0.010803455 0.0010766566 -0.0044817454 0.034059238 -0.053942293 0.07019789 -0.08810227 -0.020003822 0.044914503 0.020139536 -0.10660627 -0.11594651 -0.054509547 -0.06681916 0.11580506 0.054981537 -0.027026592 -0.0776289 0.101370715 -0.067164466 0.09349283 0.10964718 -0.009680445 -0.029619604 -0.11125028 -0.04251983 -0.013286619 -0.012321035 0.049045816 -0.10184891 -0.09649197 0.110108264 0.078408904 -0.050325174 0.08618895 -0.04380986 -0.00574164 0.03300845
0.021847531 -0.1091673 0.019588735 -0.12586541 -0.054304663 0.1285515 0.11633965 0.021720506 -0.05104999 0.08129733 0.057294663 -0.06352099 0.06116015 -0.003703691 0.00059414725 -0.02490645 0.06472696 -0.0057331203 0.08049761 -0.105906114 -0.07135675 0.12220643 0.107274555 0.022163292 -0.055086944 -0.096607745 0.012233643 -0.09849301 0.03720297 -0.012495624 0.043978374 -0.09815642 0.112950824 0.10091979 -0.12366519 0.091440134 0.042391717 0.062248074 -0.07303795 -0.09516884 -0.041313995 -0.011970582 0.045722175 0.006825904 0.09973958 -0.01587803 -0.07835847 -0.07826866 -0.12362189 -0.053512555 -0.015520006 0.04926875 0.021437762 0.09052619 -0.0059229247 -0.03189976 -0.021938244 -0.06321305 -0.073521845 0.12614082 -0.120255455 0.04451858 -0.041389436 -0.0867076
0.010734065 -0.032797564 -0.12010724 -0.042976644 0.07638786 0.057699863 -0.09446132 -0.0019030882 -0.08821712 -0.061008506 -0.064370155 0.06912756 -0.05220811 0.05187556 0.12365354 -0.028798044 -0.023990562 -0.10989601 -0.01696809 0.09022494 0.03509725 -0.12964512 0.122374065 0.033134364 -0.026263278 -0.13166632 0.049146757 -0.118369214 0.043711443 0.007429219 -0.024223492 -0.089811936 -0.05985947 0.057579245 0.13492939 0.026580807 0.081488095 -0.0821067 -0.1101912 0.03467849 0.029175272 0.06298966 0.031245766 0.01391749 0.10044909 0.06594427 -0.046363827 0.034725755 -0.039036117 0.07587997 -0.05185264 0.1302374 -0.11806544 -0.10816546 0.009683977 0.10986484 0.017968135 0.03953597 -0.05609678 -0.1188968 0.11295956 -0.031671006 0.08189547 -0.103373766
0.09898455 0.09058419 0.06100539 -0.109682165 -0.10084974 -0.07186752 0.009238716 0.11094477 -0.083060205 0.06888931 0.095063925 0.03870154 0.07813544 0.04461795 0.071852855 0.10849481 0.072983615 -0.037344046 0.05746668 -0.12966383 -0.0019498118 0.11437647 0.031342216 0.014139826 0.058108665 0.09214403 -0.13404347 0.091267884 0.12009338 0.022813996 -0.066764645 -0.07011191 -0.09796565 0.09388755 -0.047544383 0.089926854 -0.04518251 0.11931152 0.07392448 0.11421163 -0.004238076 0.08531187 0.12957709 0.0004949156 -0.056262333 0.119384736 0.10359572 -0.065885425 0.12286013 0.07079891 -0.012706053 0.06605847 -0.00322932 0.055509854 0.09694431 -0.039226882 0.12365263 -0.01986612 -0.010150639 0.08745912 0.0052776784 -0.019969685 0.11301492 0.102757834
-0.09271337 -0.0040726974 -0.019177163 -0.063066386 -0.08428447 0.080761865 -0.10723557 -0.10139515 -0.08044508 -0.10083069 0.08296143 0.065718845 0.0954862 -0.046771012 0.0028500461 -0.048273746 -0.03172077 0.023579853 -0.054559354 -0.05132962 -0.099725865 0.12497714 -1.3553072e-05 -0.06695718 0.06312491 0.11509259 0.0623572 -0.022584185 0.10329883 -0.006380925 -0.03689015 0.057492565 0.047535192 -0.060077164 0.078189805 -0.058554612 -0.02270785 0.04539843 0.105137154 -0.04573132 -0.06836833 -0.042699955 -0.11371748 0.10159476 0.045048386 0.06864475 0.046539523 -0.053382844 0.041158766 -0.13122448 0.06473076 0.047599953 0.10652352 0.018436503 -0.044058334 -0.084804654 0.011651393 -0.0015889986 0.11520572 0.077998646 -0.031116448 -0.019208327 -0.07268123 -0.098728076
0.024563236 0.10190203 -0.08584749 0.08513201 0.09958118 0.108128 0.016134337 -0.07474115 0.01104464 -0.116053626 -0.005519906 0.013458755 -0.13375293 -0.065383725 -0.07455623 -0.06331096 -0.07954398 0.011281306 0.07381046 0.11080617 0.0209503 -0.07538145 0.06401428 0.0076754848 0.09282948 -0.013183739 0.03716174 0.03896366 0.025710767 -0.0622725 -0.0025261145 0.035600714 0.0157157 0.02446038 0.0692932 0.026603216 -0.10424798 0.004710473 0.06518202 0.014688056 -0.082616664 0.05908896 -0.027781669 0.032325033 0.04242852 -0.0084506245 0.10834795 -0.05790118 -0.004000632 0.10525436 -0.019147651 0.021699676 0.11240589 -0.07755601 -0.08440925 -0.01583548 0.0022129426 0.09269833 0.01835416 0.11907117 0.054846913 -0.07660722 0.11722623 -0.09299216
# b1
128
0.033109203 -0.08272836 -0.043185495 -0.074475706 -0.092938974 0.08235898 -0.11061846 0.08765634 -0.022916725 -0.08979704 -0.036696788 -0.0778549 -0.010192927 -0.037512317 0.08040115 0.0083439555 0.09518284 0.034465417 0.042271726 -0.085878685 0.043149255 0.067717664 -0.084469005 -0.0215302 0.08839348 0.07966988 0.0580825 0.09811229 -0.026247678 0.05725975 0.045811728 0.031476896 -0.088046215 0.019062184 0.072077446 0.005240335 -0.089373425 0.049949974 -0.05693125 -0.060830086 0.0006503895 -0.054277293 -0.010273579 0.09271743 0.13294357 0.074652866 0.004341076 -0.059939206 -0.100237235 -0.017867632 -0.05698906 -0.12523511 -0.09938036 -0.042149317 -0.019243414 -0.003487802 0.1344014 0.025607591 0.047928553 -0.12216795 0.10669189 -0.01845801 -0.12337387 0.07176402 -0.05834384 0.019223345 0.011028457 0.08716998 -0.009837569 -0.012877385 -0.01547617 0.06822468 0.04171481 -0.027825153 -0.034751356 -0.08652413 0.070200846 0.13287386 0.015613914 -0.10068938 -0.03153322 -0.00061980705 0.020628575 -0.021558812 -0.009565584 -0.020394053 -0.06581195 0.08039242 0.05195564 -0.045783665 0.11725259 0.005564806 -0.040787846 -0.11199157 -0.08473971 -0.07266695 0.07635987 0.032111593 -0.0748376 -0.079885125 -0.082579434 0.10201542 -0.018372906 0.015988098 0.0020278033 -0.035930566 -0.056786634 0.077822685 0.09665899 0.07104971 0.11449301 -0.08811871 0.00886822 -0.024669677 -0.028492237 0.046630196 0.12924558 -0.09271548 -0.0491526 -0.0139256865 0.087298945 -0.03141304 -0.007362779 0.106507055 -0.06291857 0.061899193 -0.0041589127 -0.093631074
# W2
64 128
