# common.0.weight
128 64
0.6151136755943298 0.327781081199646 -0.1955566704273224 0.2017543464899063 0.042762260884046555 0.0245634987950325 0.20954908430576324 -0.006991462782025337 0.14948786795139313 0.024260807782411575 0.020219605416059494 -0.017847605049610138 -0.04848112910985947 -0.016163313761353493 -0.055449750274419785 0.15647119283676147 -0.0935860127210617 -0.08541564643383026 -0.08151206374168396 -0.06298741698265076 -0.15473689138889313 -0.1430191695690155 -0.10142060369253159 0.2405172884464264 0.20899690687656403 0.03637756034731865 0.11469370871782303 0.08345963805913925 -0.07463379949331284 -0.09303818643093109 -0.06074124947190285 0.05515580624341965 0.4667588472366333 -0.09203147888183594 -0.17523467540740967 0.11584878712892532 -0.08032641559839249 -0.0476977601647377 -0.26236191391944885 0.2084358185529709 0.4716342091560364 0.12389812618494034 0.2020140439271927 -0.06052292138338089 -0.1521693468093872 -0.005533268675208092 0.1270274519920349 -0.18993067741394043 -0.03139462321996689 0.08401846885681152 0.04405364766716957 -0.25998300313949585 0.05934656411409378 -0.31725218892097473 0.31462135910987854 -0.048182759433984756 -0.25819849967956543 0.15718039870262146 -0.21302199363708496 -0.173127681016922 0.0011932633351534605 -0.3968712389469147 0.3562513291835785 0.13165155053138733
-0.08433133363723755 -0.35275936126708984 0.41305145621299744 -0.002784561598673463 -0.4837430715560913 -0.3024282157421112 0.16864769160747528 -0.3699324429035187 0.1686299592256546 -0.0306402575224638 -0.018556321039795876 -0.1444820761680603 0.060487471520900726 0.302629292011261 -0.14238573610782623 0.08644023537635803 0.2981336712837219 0.06939655542373657 0.08849342912435532 0.22535128891468048 0.08411844819784164 -0.00485745957121253 0.026231952011585236 0.14083217084407806 -0.02775282971560955 0.008276600390672684 0.18826423585414886 0.09982746839523315 0.156601682305336 0.0461101308465004 -0.08271327614784241 -0.030260169878602028 0.1800931990146637 0.06712455302476883 -0.09933172166347504 -0.06341381371021271 0.0225234217941761 -0.22747623920440674 0.2158811390399933 -0.24119876325130463 -0.04806944727897644 -0.036198247224092484 -0.04396381974220276 -0.03225487470626831 0.11041511595249176 -0.023417362943291664 -0.02360907569527626 0.0012854652013629675 0.010347618721425533 0.21343402564525604 -0.06426343321800232 0.09084120392799377 -0.058530569076538086 -0.1381732076406479 0.08376196026802063 -0.5452329516410828 -0.24717019498348236 -0.1467956006526947 -0.1716599315404892 0.030269362032413483 0.004212491679936647 -0.0013492018915712833 -0.2146490216255188 -0.08808993548154831
0.011509436182677746 -0.16744428873062134 0.2627394497394562 -0.09051831066608429 -0.24869069457054138 0.05122608691453934 -0.11951535940170288 0.17839565873146057 -0.2671540081501007 -0.23645690083503723 0.028525950387120247 0.1351027935743332 0.13749749958515167 -0.007460084743797779 -0.09357945621013641 -0.12274954468011856 0.19261178374290466 -0.17956940829753876 -0.30892446637153625 0.0518789142370224 -0.10571377724409103 0.04457169398665428 0.2124064862728119 -0.30744367837905884 0.012540656141936779 -0.21055477857589722 -0.411508709192276 0.08017060160636902 -0.17095299065113068 0.15137845277786255 0.23190425336360931 -0.26567521691322327 -0.3113294243812561 0.03533877432346344 -0.11007753759622574 0.05424841493368149 0.023193445056676865 -0.1907797008752823 -0.029643552377820015 0.0033513924572616816 -0.14483098685741425 0.16162577271461487 0.16260436177253723 -0.031278617680072784 0.20034001767635345 -0.14962272346019745 -0.38245704770088196 0.31196433305740356 0.30010801553726196 0.029757609590888023 -0.07644304633140564 0.08781149983406067 -0.23466052114963531 0.25266578793525696 0.1155683621764183 -0.16117151081562042 -0.08538418263196945 -0.026396140456199646 -0.09764257073402405 -0.09226316213607788 0.034177035093307495 0.1814052015542984 -0.12165074050426483 -0.005861193407326937
0.1359516829252243 0.07454391568899155 -0.16826429963111877 -0.07514826953411102 0.22955197095870972 0.08760249614715576 0.007320566102862358 0.10916010290384293 0.012084255926311016 -0.07188183069229126 0.15166936814785004 0.043357137590646744 -0.13224852085113525 0.08894208073616028 0.11043892800807953 0.012481838464736938 -0.3130110502243042 -0.28414782881736755 -0.23308789730072021 -0.07543572038412094 -0.06858201324939728 0.40377742052078247 -0.0063785226084291935 0.10017326474189758 0.061802830547094345 -0.18887382745742798 -0.40411001443862915 0.053514618426561356 -0.19242526590824127 0.19160756468772888 0.2736641466617584 -0.05025411397218704 0.16146628558635712 -0.42352572083473206 -0.18367600440979004 -0.3849237561225891 -0.043443482369184494 -0.004820166155695915 -0.058051835745573044 -0.0838879868388176 0.3377426266670227 0.17477349936962128 -0.21047478914260864 0.12520967423915863 -0.09217308461666107 0.18840670585632324 0.19076883792877197 0.08579494059085846 0.6442117094993591 0.013259250670671463 -0.08302178978919983 0.012053847312927246 0.15047211945056915 -0.051454026252031326 0.1034952700138092 -0.05410262197256088 -0.008098752237856388 -0.005813523195683956 0.16287393867969513 0.24586285650730133 -0.0037681974936276674 -0.2154664248228073 -0.5068902969360352 -0.24980996549129486
0.6398584246635437 0.21645250916481018 0.07738133519887924 -0.11237785220146179 0.09976900368928909 -0.011952914297580719 0.058628324419260025 0.3004671633243561 -0.41380995512008667 0.22172150015830994 0.11733138561248779 0.284729540348053 0.0584908165037632 0.0796915665268898 0.43531379103660583 0.009543049149215221 -0.4403332769870758 0.2139873206615448 -0.021462026983499527 -0.1408804953098297 0.18363362550735474 0.005266615655273199 0.13764867186546326 -0.21079695224761963 0.026593508198857307 0.02619560994207859 -0.06324378401041031 -0.06316160410642624 -0.3281864523887634 -0.037550218403339386 -0.21818768978118896 -0.042642660439014435 0.3354213237762451 0.13521815836429596 0.03846918046474457 0.25159960985183716 0.015483852475881577 0.21500644087791443 0.15705855190753937 0.08162400871515274 0.3436809182167053 -0.09375263005495071 -0.06997957825660706 0.14589223265647888 0.16468170285224915 0.03334902971982956 0.1598414182662964 0.11059379577636719 0.016075555235147476 0.01117289625108242 0.10544395446777344 -0.03410505875945091 -0.21452921628952026 0.2687593102455139 -0.1602751612663269 0.0750679224729538 0.22471873462200165 -0.33093932271003723 0.2863112986087799 -0.22884021699428558 -0.1792105734348297 -0.14359338581562042 0.27965885400772095 0.228912353515625
0.04749983921647072 0.018325861543416977 -0.00613105483353138 -0.16252800822257996 -0.08369480818510056 0.12263484299182892 -0.03438149765133858 0.15350209176540375 0.026364672929048538 -0.22503022849559784 -0.012984388507902622 -0.20718786120414734 0.17010262608528137 -0.10738573968410492 0.14596407115459442 0.31300148367881775 -0.33751142024993896 -0.24262195825576782 -0.12125027179718018 0.13732768595218658 -0.22583942115306854 0.2779710590839386 -0.1286093145608902 0.57121342420578 -0.06477914750576019 -0.03034164197742939 -0.41394466161727905 0.10319992154836655 -0.03176013380289078 0.18428045511245728 0.10976587980985641 -0.04674419388175011 0.22390298545360565 -0.053207796066999435 -0.26611489057540894 -0.17100338637828827 -0.03977692872285843 -0.22041596472263336 -0.15198583900928497 -0.24350382387638092 0.06871923059225082 0.11230741441249847 -0.11530447751283646 0.030789416283369064 0.03503831848502159 0.14782552421092987 0.2780505120754242 -0.23720760643482208 0.20609718561172485 0.05798359215259552 0.04121242091059685 -0.050919849425554276 0.06773611903190613 -0.01124640554189682 -0.17998169362545013 -0.14487604796886444 0.1390986144542694 0.1847124844789505 0.17400147020816803 -0.08531490713357925 -0.014718150720000267 0.010264967568218708 -0.20149853825569153 0.10974330455064774
0.636257529258728 0.41612860560417175 -0.02726639248430729 0.10990722477436066 0.09262268990278244 -0.08763043582439423 0.2069370299577713 0.41028663516044617 0.23484109342098236 0.53910231590271 -0.044498611241579056 -0.010288545861840248 -0.02122938260436058 -0.007446900941431522 0.2755337357521057 0.22648057341575623 0.059663645923137665 -0.005470822099596262 -0.07856422662734985 -0.0004682159051299095 0.05116956681013107 -0.06418795138597488 -0.015297049656510353 0.011058954522013664 0.06452825665473938 0.006454911082983017 0.07156635075807571 0.008001296781003475 0.115794837474823 0.0036064297892153263 -0.09181798994541168 -0.054386138916015625 -0.014005634933710098 0.05936002358794212 -0.044105228036642075 -0.0027561751194298267 0.059886205941438675 0.010103676468133926 -0.05739106610417366 -0.023709919303655624 0.10507470369338989 0.08184628188610077 0.016325972974300385 0.06506362557411194 0.01114412397146225 0.027844926342368126 0.06415881216526031 0.036139823496341705 0.18714872002601624 0.3991083800792694 -0.031164996325969696 -0.1485685557126999 0.0543375127017498 -0.01954617165029049 0.3085878789424896 0.18432031571865082 0.5144732594490051 0.08161869645118713 0.028306417167186737 -0.02275051921606064 -0.04072234779596329 0.02795466221868992 0.24380403757095337 0.48816078901290894
0.0484650582075119 0.279961496591568 -0.27110931277275085 -0.1266472488641739 -0.06134949252009392 0.06384380906820297 0.17211125791072845 0.34200921654701233 0.35197916626930237 -0.034698545932769775 0.16035598516464233 0.29010698199272156 -0.17086416482925415 -0.07209274917840958 0.03226672485470772 -0.2349802404642105 0.25200527906417847 -0.16503067314624786 0.10330896079540253 0.2825967073440552 -0.19067111611366272 0.10254804790019989 -0.07394541800022125 -0.15313789248466492 0.09283662587404251 -0.16022589802742004 -0.13903595507144928 -0.12403499335050583 0.04995790868997574 0.004512455780059099 0.12750296294689178 0.1354464888572693 0.014701728709042072 0.1973770409822464 -0.0929732695221901 0.064458467066288 0.22948172688484192 -0.04127531126141548 -0.010893215425312519 0.014435863122344017 -0.21949391067028046 0.31937700510025024 -0.09162428975105286 0.06850216537714005 0.09965384006500244 -0.11048038303852081 0.07000061124563217 -0.047363344579935074 0.053870297968387604 0.10600163042545319 -0.07515570521354675 0.22404611110687256 -0.16384807229042053 0.25681814551353455 0.16190466284751892 0.06215335428714752 0.16883273422718048 -0.24672742187976837 -0.01897011697292328 -0.16553717851638794 -0.08532969653606415 0.08727484196424484 -0.10345200449228287 0.0517219677567482
0.11183193325996399 -0.4968561828136444 -0.27788594365119934 -0.19506427645683289 0.012302380986511707 0.3350318670272827 -0.003923528362065554 0.41586312651634216 0.01708153635263443 0.1934698522090912 -0.002683004131540656 -0.04316827654838562 -0.05837029963731766 -0.1829681545495987 0.23730406165122986 -0.10147177428007126 -0.3910815715789795 -0.14242921769618988 -0.11319578438997269 0.0026287578511983156 -0.05598960444331169 -0.2603466808795929 0.35914021730422974 0.028600065037608147 -0.1705515831708908 0.12392006069421768 -0.24930952489376068 -0.007031712681055069 -0.10749315470457077 -0.09434302896261215 -0.06872153282165527 -0.002207995392382145 0.012614291161298752 0.18134522438049316 -0.006951416842639446 -0.32817909121513367 -0.10297488421201706 0.2078697383403778 -0.14126138389110565 -0.11468224227428436 0.5194332003593445 0.14894290268421173 -0.5422090888023376 -0.01402999460697174 0.12967954576015472 0.030661428347229958 -0.04163295775651932 0.17209553718566895 0.009981133975088596 0.17361752688884735 -0.1823088526725769 -0.24665486812591553 0.09549520909786224 -0.00046318795648403466 -0.13908064365386963 -0.0010378430597484112 0.409516304731369 0.4520120620727539 0.3180626928806305 -0.2953835427761078 0.16945090889930725 -0.29719987511634827 -0.16036729514598846 0.3183881640434265
-0.30244290828704834 -0.38515791296958923 0.0027501177974045277 0.05187118798494339 -0.020187227055430412 0.014719954691827297 -0.014337196946144104 -0.14604239165782928 0.38941690325737 -0.3879986107349396 0.34935224056243896 0.2933098375797272 0.13451263308525085 0.1155216172337532 0.4714379608631134 -0.1572084277868271 0.2876126170158386 -0.05899732559919357 -0.15381263196468353 0.03819805011153221 0.07913364470005035 -0.21471905708312988 -0.1399991810321808 0.07695265859365463 -0.010971417650580406 -0.09913046658039093 -0.2780044674873352 0.09427960216999054 0.1838657557964325 0.14383763074874878 -0.04807340353727341 -0.14182917773723602 0.11986936628818512 0.13360242545604706 0.21560196578502655 0.011211940087378025 -0.07315802574157715 0.1921689212322235 0.189839705824852 -0.07773496955633163 0.035150159150362015 0.037933316081762314 -0.08799499273300171 0.0019837452564388514 0.13488587737083435 -0.13879847526550293 -0.09151413291692734 -0.10594216734170914 0.3103448450565338 0.31929469108581543 -0.09128475189208984 0.11076080799102783 -0.17793485522270203 0.0022637182846665382 -0.31557542085647583 0.1385008841753006 0.34973520040512085 0.5414902567863464 -0.04012701287865639 0.08453548699617386 -0.1794460415840149 0.32933369278907776 0.16219283640384674 -0.128832146525383
-0.06402958929538727 -0.21564769744873047 -0.1839996874332428 -0.09898314625024796 -0.08246443420648575 -0.14007742702960968 -0.07833434641361237 0.05069567635655403 0.054951056838035583 -0.051182448863983154 -0.12308124452829361 0.21190060675144196 0.02499052695930004 -0.02700018510222435 0.13007843494415283 0.023942237719893456 0.26328787207603455 -0.1252388060092926 0.138791024684906 -0.055881597101688385 -0.036153070628643036 0.21623249351978302 -0.10972858965396881 -0.04879724979400635 0.2215520739555359 0.004157026764005423 -0.13460536301136017 -0.09259284287691116 -0.00335920718498528 -0.14133600890636444 0.08085314929485321 0.06237533688545227 -0.0173635296523571 -0.04043177515268326 0.06793351471424103 0.14986833930015564 0.012127507477998734 -0.06573234498500824 0.04195026680827141 0.167979896068573 -0.16512112319469452 -0.10154992341995239 0.07405763864517212 0.008394316770136356 0.0868472158908844 -0.0582292415201664 0.01882297545671463 0.14147311449050903 -0.05798760801553726 0.13276371359825134 -0.04210842028260231 0.1313241422176361 -0.025746429339051247 0.2998298406600952 0.2513453960418701 -0.44145479798316956 0.6063210368156433 -0.5232750177383423 -0.13356731832027435 0.1312248557806015 0.12021547555923462 0.5662528872489929 0.06591110676527023 0.4201192855834961
-0.3824523985385895 0.27911025285720825 0.05243994668126106 0.21556851267814636 -0.02756645902991295 -0.18248611688613892 0.12953734397888184 -0.05665222927927971 -0.06935084611177444 0.5092313885688782 -0.07887700945138931 -0.1174589991569519 -0.1311873495578766 -0.02104823850095272 0.3113709092140198 0.09292512387037277 0.4598548114299774 0.03910592943429947 0.1803867518901825 0.13532300293445587 0.2720854878425598 -0.16733808815479279 -0.26707008481025696 -0.08933582901954651 -0.007776633836328983 -0.14667214453220367 0.08409537374973297 -0.0031504190992563963 0.05465008318424225 -0.05596538260579109 -0.2632620334625244 0.06237708777189255 -0.19255763292312622 0.12266244739294052 -0.18561702966690063 0.34436115622520447 -0.053277891129255295 -0.0222859438508749 0.0019004420610144734 -0.12139791250228882 -0.2161204069852829 0.22084687650203705 0.17108626663684845 0.20500074326992035 0.1581304967403412 0.0042624943889677525 -0.5201926231384277 -0.11626388877630234 -0.09051377326250076 0.11522113531827927 -0.002308631781488657 0.016294745728373528 0.06237783655524254 -0.17916396260261536 0.26203903555870056 -0.1566675454378128 -0.13441102206707 -0.01229590643197298 -0.2452448308467865 -0.0327458530664444 0.050025373697280884 -0.07597889751195908 0.37639206647872925 0.06733553856611252
0.26789310574531555 0.0341344028711319 -0.038486726582050323 -0.22295409440994263 -0.19388145208358765 -0.05493330582976341 -0.1011999100446701 0.22156652808189392 0.25547975301742554 0.07870526611804962 0.0534849651157856 0.11459727585315704 0.05954759940505028 0.03194092959165573 0.009354442358016968 0.01795870251953602 0.5624257922172546 0.06085842847824097 -0.19629628956317902 -0.09071118384599686 0.35926181077957153 -0.31222817301750183 -0.0894230306148529 0.17546217143535614 0.150904580950737 0.10806068778038025 -0.14741986989974976 -0.09771987795829773 -0.003082442097365856 0.05977694317698479 0.1054782047867775 -0.15112166106700897 -0.15914824604988098 0.024419205263257027 -0.05085425078868866 0.019033437594771385 -0.12885965406894684 -0.024541400372982025 0.02059546858072281 -0.0944352075457573 -0.07667040824890137 -0.010530112311244011 0.0839403048157692 -0.19687701761722565 0.19708405435085297 -0.14165015518665314 0.03827513009309769 -0.038803860545158386 -0.03607594221830368 -0.035459596663713455 0.09780130535364151 0.17449665069580078 0.027875592932105064 -0.009148037061095238 0.0693909227848053 0.17009180784225464 0.28715750575065613 0.12331334501504898 0.10090655088424683 0.0028175930492579937 0.14470542967319489 -0.13519972562789917 -0.02633240632712841 0.26318061351776123
-0.06067795678973198 -0.3135673403739929 0.12697145342826843 0.09706369787454605 -0.18160143494606018 0.21348893642425537 0.05916433781385422 0.6694763898849487 -0.07724826037883759 -0.05548348277807236 -0.12628328800201416 0.13924622535705566 0.009729603305459023 -0.21220771968364716 -0.011876651085913181 -0.1473497599363327 0.12798234820365906 -0.2445845752954483 0.021516872569918633 0.03530304506421089 -0.177373468875885 -0.002507272642105818 0.010503072291612625 -0.24518941342830658 -0.0325477309525013 -0.21607933938503265 0.1562216877937317 0.0453379787504673 0.1528712511062622 -0.12337182462215424 0.062039218842983246 -0.18833938241004944 -0.3139181435108185 -0.004287374671548605 -0.07274095714092255 0.15190242230892181 -0.011840708553791046 -0.03332136198878288 0.3117285370826721 -0.05605383217334747 -0.37938451766967773 0.33409667015075684 -0.021836355328559875 0.16479536890983582 -0.18399815261363983 -0.07976541668176651 -0.0524282343685627 0.2795671224594116 -0.022377438843250275 0.14716346561908722 0.1604444831609726 0.00916908960789442 -0.06312239915132523 -0.0522066168487072 0.02394447848200798 -0.05735363811254501 0.2905519902706146 0.07595013827085495 0.013770537450909615 0.07228600978851318 -0.014721737243235111 -0.07823450863361359 -0.5955089926719666 0.008835065178573132
0.42998674511909485 0.1561145782470703 0.027595598250627518 -0.068470299243927 0.10102652758359909 -0.11073777824640274 -0.291810005903244 0.44889533519744873 0.05291174724698067 0.42956817150115967 0.14119119942188263 0.10676665604114532 0.22041098773479462 0.024242587387561798 -0.1118028312921524 -0.17580685019493103 -0.31521329283714294 0.07239381968975067 0.05417986586689949 -0.02578495815396309 0.047744493931531906 -0.008197798393666744 -0.0532783679664135 -0.02849501743912697 -0.13325205445289612 0.08574755489826202 -0.05029504373669624 0.04454753175377846 -0.04838646948337555 0.1914263367652893 -0.1536228060722351 0.1914970576763153 -0.05338525399565697 0.11694606393575668 0.08837702870368958 -0.11928191035985947 0.116399385035038 0.18736599385738373 -0.03555925562977791 0.19435274600982666 0.14762134850025177 -0.08527591824531555 0.02576747164130211 -0.029053950682282448 0.08591235429048538 -0.047275155782699585 0.021242385730147362 0.12685254216194153 -0.1830424815416336 -0.356253981590271 -0.05008108168840408 -0.2538467049598694 -0.010347623378038406 0.19048427045345306 0.00683783832937479 0.24901323020458221 0.16836082935333252 -0.3249211311340332 0.33289623260498047 0.10127715021371841 0.0033877987880259752 -0.32874318957328796 -0.17299968004226685 0.49882885813713074
0.15355025231838226 -0.233713299036026 -0.15045467019081116 -0.2729177176952362 -0.1341686099767685 0.24460706114768982 0.2285928577184677 0.3243451416492462 0.030120454728603363 0.35276558995246887 0.04311991110444069 0.00709728104993701 0.06994224339723587 -0.3395821452140808 -0.034084051847457886 0.03610831871628761 0.4025886058807373 0.06794646382331848 0.07203502953052521 -0.26454615592956543 0.5284315347671509 -0.13501974940299988 -0.1353050172328949 -0.25097987055778503 0.019045263528823853 -0.04251668602228165 -0.22900991141796112 0.043446555733680725 0.04164500907063484 -0.10839924961328506 -0.10377492755651474 -0.1385648101568222 -0.133737251162529 -0.010544386692345142 0.10237293690443039 -0.02122877724468708 -0.05634620040655136 0.08565657585859299 0.06198543682694435 0.31483355164527893 -0.0420646034181118 0.033448632806539536 -0.04766115918755531 -0.07469480484724045 -0.11355434358119965 -0.2960470914840698 -0.21451479196548462 -0.14440150558948517 0.27758726477622986 0.35146400332450867 -0.030167823657393456 -0.05432787165045738 0.047326985746622086 0.10800541192293167 0.2730763554573059 -0.10726162046194077 0.12335415929555893 -0.05368107929825783 -0.08402804285287857 0.16241438686847687 -0.23995865881443024 0.20467770099639893 0.11832018196582794 0.08215736597776413
-0.013284165412187576 0.12025322020053864 0.32235604524612427 0.22722360491752625 0.03459883853793144 -0.3403249680995941 -0.028641849756240845 0.29999542236328125 0.1783524453639984 -0.0470738522708416 0.18962153792381287 -0.022863227874040604 0.03836768493056297 0.10930254310369492 -0.3677864670753479 -0.1487712562084198 0.24154822528362274 0.12981073558330536 -0.29331114888191223 0.15621352195739746 0.041442301124334335 -0.039433229714632034 -0.053645431995391846 -0.04482850804924965 -0.16245979070663452 -0.22951433062553406 -0.09681221842765808 0.06271427869796753 0.16873736679553986 0.3734024465084076 -0.02545175515115261 -0.14365094900131226 -0.32757267355918884 0.017957597970962524 0.041005536913871765 -0.09975770860910416 0.20644018054008484 0.22380174696445465 0.06303040683269501 -0.13640330731868744 0.03614562004804611 0.14275702834129333 -0.02274198830127716 -0.031241480261087418 0.2553819417953491 -0.28551602363586426 0.15538601577281952 0.044099029153585434 0.26598820090293884 0.09364030510187149 -0.19500088691711426 -0.17059117555618286 0.09604686498641968 0.34164175391197205 0.45087745785713196 -0.13579773902893066 0.19475847482681274 0.2167811244726181 0.16503989696502686 0.020580723881721497 0.2856595516204834 0.1948787122964859 0.3713032901287079 0.1399022787809372
-0.08483542501926422 0.3234848082065582 -0.028307821601629257 0.4287382662296295 0.31338104605674744 -0.21639283001422882 0.3314029574394226 0.09464656561613083 0.1319061815738678 0.4727303087711334 0.1612735092639923 0.27383747696876526 0.17836451530456543 -0.08387062698602676 0.46579432487487793 0.5225078463554382 -0.2997031509876251 -0.15345250070095062 0.06657080352306366 0.03419351950287819 0.12126067280769348 0.09611119329929352 -0.10704274475574493 -0.012391731142997742 -0.30591103434562683 -0.09250716865062714 0.06340262293815613 -0.044914498925209045 0.08077501505613327 0.03508041054010391 0.03677010163664818 -0.17917682230472565 -0.1246958076953888 -0.005513947922736406 -0.04293765872716904 -0.03142562881112099 0.1703769564628601 -0.002487694611772895 -0.09797002375125885 -0.04234028607606888 0.17856058478355408 -0.1304929107427597 0.1358117014169693 0.11529138684272766 0.14241543412208557 0.15385673940181732 -0.16573123633861542 0.02185877598822117 0.19149193167686462 0.33445504307746887 -0.034721240401268005 -0.06214476004242897 -0.09373364597558975 -0.24419838190078735 0.3297559320926666 0.3282223343849182 -0.15816521644592285 0.2419615089893341 0.15735453367233276 0.08778776973485947 0.14234121143817902 -0.2245103269815445 0.04535459727048874 0.1941860318183899
-0.3986649215221405 -0.23443034291267395 0.4200996458530426 -0.202022522687912 0.05710941180586815 -0.08012525737285614 0.11035536229610443 0.21182215213775635 -0.103700652718544 -0.02881431393325329 0.033661697059869766 -0.07089916616678238 -0.3723963499069214 0.2007400244474411 0.1414012759923935 -0.2621697187423706 0.03743613883852959 0.06108059734106064 -0.16111598908901215 -0.1859283298254013 -0.08999428153038025 0.019935129210352898 -0.0005709487595595419 0.3525058925151825 0.3813747465610504 0.012448864057660103 -0.26646026968955994 0.08454613387584686 0.011024466715753078 -0.05229446291923523 -0.20888301730155945 -0.07323510944843292 0.09024475514888763 -0.20668871700763702 0.27561715245246887 0.1575300097465515 0.08958222717046738 -0.06471697986125946 0.06002498045563698 -0.14125192165374756 -0.009292783215641975 -0.014150859788060188 0.062459953129291534 -0.08503987640142441 -0.11723678559064865 0.1352551132440567 0.30620071291923523 -0.3075862526893616 -0.4894994795322418 0.1784382462501526 0.12331106513738632 -0.010836943052709103 0.08827099949121475 0.1060633733868599 -0.6179682016372681 -0.15899962186813354 -0.1700667142868042 -0.2973652780056 -0.13112987577915192 0.04909263551235199 -0.09728948771953583 0.16762229800224304 0.0992506891489029 -0.17189686000347137
-0.062355685979127884 0.12864024937152863 -0.22523486614227295 0.01892632246017456 0.020377669483423233 -0.1763046234846115 0.12791647017002106 -0.0014706356450915337 0.040438562631607056 0.2575226128101349 -0.00044151637121103704 -0.05323903635144234 0.03984609991312027 -0.06264198571443558 0.42149031162261963 0.3552846908569336 -0.28268271684646606 0.05492701008915901 -0.08222221583127975 0.1678173542022705 0.10564124584197998 0.16664062440395355 -0.013200356625020504 -0.3032393157482147 0.06882355362176895 -0.13428857922554016 0.10916545242071152 0.07837066054344177 -0.005706496071070433 0.12362895905971527 0.15449312329292297 0.10811346769332886 0.03705718368291855 0.1795855015516281 0.15401367843151093 -0.044738855212926865 -0.12532055377960205 -0.00877454038709402 -0.029622985050082207 0.11436305940151215 -0.031074408441781998 -0.0009698157082311809 0.05524958670139313 0.07071860134601593 -0.04216282069683075 0.009522031992673874 -0.0368279404938221 -0.002881097374483943 0.2511638402938843 0.3137471377849579 -0.1666342318058014 0.18187899887561798 0.24767285585403442 -0.10094253718852997 0.36782652139663696 0.37575459480285645 -0.23794737458229065 -0.021251153200864792 -0.05865078046917915 -0.12559020519256592 -0.06149899214506149 0.052288662642240524 0.10507361590862274 -0.2857922911643982
-9.693269385024905e-05 -0.3217339515686035 0.07570207118988037 0.07688681036233902 0.03857149928808212 0.13345864415168762 -0.13314823806285858 0.36943596601486206 0.13557660579681396 -0.1389026641845703 0.08098189532756805 0.16964806616306305 -0.22456428408622742 0.10008998215198517 0.02901761420071125 -0.32974058389663696 0.38307762145996094 0.08172044157981873 -0.36578646302223206 -0.03861791640520096 0.11696341633796692 0.09888893365859985 0.16218145191669464 -0.33358830213546753 0.0963868573307991 -0.055444952100515366 0.03478800877928734 -0.051694635301828384 -0.023159990087151527 -0.0635901466012001 0.017728542909026146 -0.13243643939495087 -0.23665058612823486 0.128064826130867 0.13537685573101044 0.26930829882621765 -0.13157589733600616 0.07806379348039627 -0.04260002076625824 0.02360895276069641 -0.19631536304950714 0.13644036650657654 -0.0683232992887497 -0.11387062072753906 0.10866084694862366 -0.0967850610613823 -0.2291359156370163 0.4580652117729187 -0.04648161679506302 -0.06537061929702759 -0.006731623318046331 -0.15297257900238037 0.09466121345758438 0.2799109220504761 0.10444357246160507 -0.13616013526916504 -0.07137202471494675 -0.4799484312534332 0.08251067250967026 -0.0816323384642601 0.034487247467041016 0.27182257175445557 -0.22729580104351044 0.23224878311157227
-0.1603223830461502 -0.2077074944972992 -0.05947534367442131 -0.08582428097724915 -0.1533583253622055 -0.10669947415590286 0.40937936305999756 -0.19660347700119019 0.2112889289855957 0.1392633318901062 0.0991097241640091 0.05420009419322014 0.1180465817451477 0.002297635655850172 -0.007020804565399885 0.3261638879776001 -0.1366984248161316 -0.010231596417725086 -0.12605126202106476 0.026545440778136253 0.22400665283203125 -0.04202667623758316 -0.1180468425154686 -0.0021375843789428473 0.026796206831932068 -0.05961223319172859 -0.0667961910367012 0.05101552605628967 -0.036380521953105927 0.07281441986560822 0.15496814250946045 -0.10047300904989243 -0.07477087527513504 0.04801224172115326 0.07517281919717789 -0.06812597066164017 -0.031157618388533592 0.0037703905254602432 0.04096933454275131 0.06507088989019394 0.026001816615462303 -0.17510080337524414 -0.1394861340522766 0.20812661945819855 0.10704631358385086 -0.04741695150732994 -0.09616383910179138 -0.005767580587416887 0.3995923399925232 0.1144525483250618 -0.016296742483973503 -0.008724094368517399 0.22787202894687653 0.2094791978597641 0.3394157886505127 0.3895973265171051 -0.16306571662425995 0.19673758745193481 -0.07169260829687119 0.07729461789131165 0.1581898182630539 0.09775034338235855 0.17120236158370972 -0.12069599330425262
-0.28795668482780457 -0.3841184079647064 0.14866721630096436 0.02497459016740322 -0.11629818379878998 -0.4338112473487854 0.11761219054460526 0.3279484212398529 -0.003595197107642889 0.3172159790992737 -0.09073806554079056 0.2919709086418152 -0.17193719744682312 0.20136217772960663 -0.04033958539366722 0.09447763115167618 0.2739788889884949 -0.03162924572825432 0.09995270520448685 -0.19321002066135406 0.2131182700395584 0.04687034711241722 -0.01073802076280117 0.3579780161380768 0.16595908999443054 0.10593300312757492 0.021093029528856277 -0.21257373690605164 0.05516069382429123 -0.09183704107999802 0.18261651694774628 0.12177293002605438 -0.2653367519378662 0.06881774216890335 -0.02505350299179554 -0.09993240237236023 0.040089406073093414 -0.10117750614881516 0.08557718992233276 -0.09919452667236328 -0.25196605920791626 0.06170343607664108 -0.04617946222424507 -0.06780681014060974 0.057315893471241 0.06040932610630989 -0.05534019693732262 -0.25754308700561523 -0.16892778873443604 -0.013348658569157124 -0.11971887201070786 -0.03502211719751358 0.14447622001171112 0.08717246353626251 -0.05955100804567337 -0.4170975685119629 0.29627618193626404 0.22613921761512756 -0.14216108620166779 0.14104212820529938 0.30530181527137756 -0.034090667963027954 0.317613810300827 0.17418020963668823
0.26322871446609497 0.28640231490135193 -0.27696993947029114 -0.017666393890976906 0.18716679513454437 -0.008481527678668499 0.1992197483778 -0.06381724029779434 0.1905653476715088 -0.010676426813006401 0.22065243124961853 -0.2908291220664978 -0.03089308924973011 0.2190089225769043 0.2919952869415283 0.05782679095864296 -0.15580199658870697 0.22563260793685913 -0.05439123138785362 -0.07571380585432053 0.04553111642599106 -0.08136250823736191 -0.08383585512638092 0.11561869829893112 0.02259744517505169 -0.09162746369838715 -0.1937263011932373 -0.04161183163523674 0.021866388618946075 0.14301088452339172 0.18674512207508087 0.09601146727800369 0.16419287025928497 -0.22009703516960144 -0.04965310916304588 0.1588653326034546 0.06919945031404495 -0.06871382892131805 0.07311554253101349 0.11571377515792847 0.1904212236404419 0.17858614027500153 0.04261834919452667 -0.030048048123717308 0.10657068341970444 0.05345612391829491 0.08917947113513947 -0.08281590789556503 0.029731055721640587 0.07619623094797134 -0.14377443492412567 0.1097351685166359 -0.06356064975261688 0.07072407752275467 0.12819421291351318 -0.05983618646860123 0.16494740545749664 -0.07521917670965195 -0.007391429506242275 0.2963380813598633 0.08199899643659592 0.134628027677536 0.019397417083382607 -0.3989489674568176
-0.3576832115650177 -0.2696245312690735 0.17632204294204712 -0.030364153906702995 -0.02166774682700634 -0.2687922418117523 -0.09699662029743195 0.35025927424430847 -0.15586499869823456 -0.05054139718413353 -0.05654850974678993 -0.07062628120183945 0.1665240228176117 0.05716606602072716 -0.23931457102298737 -0.007661564275622368 0.3682803511619568 0.18631099164485931 0.1040584146976471 0.058636412024497986 -0.17244789004325867 -0.1415475755929947 -0.22744297981262207 0.2957977056503296 0.04843937233090401 -0.11525166034698486 0.0955750122666359 -0.09841755777597427 -0.021641183644533157 0.23099733889102936 0.06660747528076172 0.014414902776479721 -0.04768176004290581 -0.015589375980198383 -0.2104337066411972 -0.040557365864515305 -0.1600825935602188 -0.17537829279899597 -0.012583578005433083 -0.14852562546730042 -0.23027640581130981 0.14192484319210052 -0.10227508842945099 -0.1862439215183258 0.1191522479057312 -0.16627314686775208 -0.10300182551145554 0.17655378580093384 -0.30174341797828674 -0.08727950602769852 -0.03765013813972473 0.09053166955709457 0.16488656401634216 -0.008173443377017975 0.01788186840713024 -0.3407652974128723 -0.16572462022304535 -0.16625161468982697 -0.15302738547325134 -0.1624414622783661 -0.009531432762742043 -0.1423623114824295 0.4897986650466919 0.39386487007141113
-0.1562288999557495 -0.11019450426101685 -0.05437787249684334 -0.15049593150615692 0.0036932106595486403 0.14673134684562683 -0.24382786452770233 -0.39493417739868164 0.08179657906293869 0.005570209585130215 0.3354681730270386 0.09616738557815552 0.14602260291576385 -0.3212949335575104 0.15616051852703094 0.23967304825782776 0.1511412113904953 -0.1309211105108261 0.11781735718250275 -0.08429984748363495 -0.10598307847976685 -0.12161979079246521 -0.003059979062527418 -0.30129650235176086 -0.13112540543079376 0.3601541817188263 -0.07345433533191681 -0.20853102207183838 0.07787097245454788 -0.49932748079299927 -0.10365115851163864 -0.08486019819974899 0.019238216802477837 -0.06449854373931885 0.12422927469015121 0.002211530925706029 -0.12573091685771942 0.0837021917104721 0.07571765035390854 0.30947449803352356 -0.07006865739822388 0.1319112330675125 0.010297962464392185 0.0657421126961708 0.039953768253326416 -0.08444508165121078 -0.02956520766019821 0.18069013953208923 -0.3197477161884308 0.2504364252090454 0.0025271172635257244 -0.00010833324631676078 -0.10332141071557999 -0.14541813731193542 0.1467563360929489 0.17700308561325073 0.12190541625022888 0.03226825222373009 0.09726064652204514 -0.029250934720039368 -0.08168769627809525 0.14509254693984985 0.1436983197927475 -0.27478277683258057
-0.10569228231906891 0.0762941986322403 -0.055997084826231 -0.029479799792170525 0.36890825629234314 0.2876601219177246 0.05027933791279793 -0.3811504542827606 0.20139339566230774 -0.3155139982700348 -0.1865370273590088 0.31496381759643555 0.00955551490187645 -0.0012690876610577106 -0.0668272003531456 -0.13356631994247437 0.26595962047576904 -0.015395821072161198 0.31595876812934875 -0.0302116796374321 0.01255657710134983 0.1787237524986267 0.15007072687149048 -0.06781989336013794 0.016928235068917274 -0.028229743242263794 -0.10718531161546707 0.02306242473423481 0.32235002517700195 0.09544309973716736 -0.03481201454997063 0.1329464316368103 0.08856750279664993 0.008551317267119884 -0.10054948180913925 -0.24388183653354645 -0.12283661216497421 0.15071935951709747 0.2119579017162323 -0.01607331819832325 -0.2196822315454483 -0.10195519775152206 0.15231147408485413 0.1075335443019867 0.23928458988666534 0.07684635370969772 -0.11580146104097366 0.15378418564796448 0.05346312373876572 0.010922783054411411 0.02112879417836666 0.11710823327302933 -0.06920293718576431 -0.19684559106826782 -0.002509042387828231 -0.021158486604690552 0.15161658823490143 0.20336972177028656 0.019912997260689735 -0.13684895634651184 -0.1954226940870285 0.04871213436126709 0.13126534223556519 -0.23443904519081116
-0.29862019419670105 0.02990725450217724 -0.033071119338274 -0.0501585491001606 0.33259299397468567 -0.0762212947010994 0.07415229827165604 -0.023554237559437752 0.17519927024841309 -0.1310206949710846 -0.1874116212129593 -0.27366387844085693 -0.17792388796806335 0.1233413890004158 0.0553399994969368 0.24250926077365875 -0.2759575843811035 0.0480632521212101 -0.019624266773462296 -0.09440722316503525 -0.16777674853801727 0.22306473553180695 -0.07432398200035095 0.10438370704650879 -0.000280523207038641 0.09839727729558945 -0.0157675389200449 -0.14663206040859222 0.17987385392189026 0.14216263592243195 0.10557462275028229 0.1730867177248001 0.0736023560166359 -0.08928932994604111 0.06749080121517181 -0.13278250396251678 -0.04921512305736542 -0.2657093405723572 0.026688391342759132 -0.1442590206861496 -0.09587680548429489 0.0781688466668129 -0.34791839122772217 0.13535168766975403 0.08536430448293686 -0.0384647473692894 -0.04785405471920967 0.020969068631529808 0.5241370797157288 0.3045136630535126 -0.14917796850204468 -0.12095385044813156 0.10751065611839294 0.188727468252182 0.4938839077949524 0.41533777117729187 -0.025579562410712242 0.5137839913368225 -0.00787319801747799 0.18557071685791016 0.19291117787361145 -0.38625743985176086 0.07725875824689865 -0.06709953397512436
0.4253200590610504 0.28838807344436646 0.01562222559005022 0.10564755648374557 0.01864207535982132 -0.02258370630443096 -0.14160260558128357 -0.07618805021047592 0.08165392279624939 -0.0698188915848732 -0.23940730094909668 -0.17220081388950348 -0.24487817287445068 -0.17392536997795105 0.06890538334846497 0.03598414734005928 -0.5940015316009521 0.046257901936769485 -0.17751672863960266 -0.05595853552222252 0.06590159237384796 -0.0028262892737984657 -0.22898541390895844 0.29774048924446106 0.028814924880862236 0.05866801738739014 0.08949124068021774 0.031947098672389984 -0.09363502264022827 -0.16604045033454895 0.16618216037750244 0.049109362065792084 0.15724557638168335 -0.07812914252281189 -0.09739048033952713 -0.1477470099925995 0.17867034673690796 -0.01059760432690382 -0.09096657484769821 -0.16820454597473145 0.5594292879104614 -0.0988515093922615 0.035021714866161346 0.12309657782316208 0.046527113765478134 0.1832353174686432 -0.06874551624059677 -0.3552037477493286 0.370911568403244 -0.007768925745040178 -0.05890484154224396 -0.1046314537525177 -0.012304461561143398 0.056211918592453 0.5183802247047424 0.15133988857269287 -0.2098463773727417 0.18538948893547058 -0.013410254381597042 0.1289442628622055 0.11849421262741089 -0.26910296082496643 -0.16928672790527344 -0.2207731306552887
0.36549368500709534 0.04722750186920166 0.18356315791606903 -0.1722312867641449 -0.3393431305885315 -0.051175907254219055 -0.18112018704414368 0.5127472281455994 -0.2988639771938324 -0.17517828941345215 0.20909622311592102 -0.018555879592895508 0.13391044735908508 0.08200544118881226 -0.01095762848854065 0.11680212616920471 -0.2519262433052063 0.2133646011352539 -0.06633657962083817 -0.004088494926691055 0.2033555507659912 -0.052223145961761475 -0.15244685113430023 -0.07930001616477966 -0.03975178673863411 -0.02709094062447548 -0.19771422445774078 -0.03798766806721687 0.11386945843696594 0.10670703649520874 -0.12418944388628006 0.00937452632933855 0.08124776184558868 0.01749970018863678 0.004117279779165983 0.09292302280664444 0.12118252366781235 -0.061802759766578674 0.055394675582647324 0.18960393965244293 0.21067024767398834 -0.16314125061035156 0.04918825626373291 -0.12150567024946213 0.057975344359874725 0.021717920899391174 0.010429696179926395 -0.08729565143585205 0.36080610752105713 0.6991236209869385 0.11272913962602615 -0.12250704318284988 -0.1464022845029831 0.30207398533821106 -0.5578217506408691 -0.42464837431907654 0.28020650148391724 -0.5241113901138306 0.09081245958805084 -0.07018690556287766 -0.08200298249721527 0.49448636174201965 -0.1190175786614418 -0.06688646972179413
-0.03787105157971382 0.38069820404052734 -0.10343942791223526 -0.13902492821216583 0.04661615937948227 -0.024325834587216377 -0.18442374467849731 -0.5428180694580078 0.11697894334793091 0.4069000780582428 -0.05234980583190918 -0.2879525423049927 -0.09564121067523956 0.2355349361896515 -0.13697463274002075 0.2251800298690796 -0.19945913553237915 -0.4490784704685211 -0.19475629925727844 -0.2639607787132263 -0.05224476009607315 0.03744593635201454 -0.004458941053599119 -0.049776721745729446 -0.2137344628572464 -0.2451362907886505 -0.06899765133857727 -0.11025894433259964 0.3545109033584595 0.06794863939285278 -0.16278773546218872 0.15435691177845 0.05709059536457062 0.1599101424217224 0.017069898545742035 -0.08521351963281631 0.24965406954288483 0.06891706585884094 -0.08631312847137451 -0.1969410628080368 -0.07461384683847427 0.06781119108200073 0.17708972096443176 0.13848145306110382 0.13052816689014435 0.23484593629837036 -0.12479705363512039 -0.07919881492853165 0.04276466742157936 0.14319968223571777 0.14685583114624023 0.15183328092098236 0.08908414095640182 0.08012024313211441 0.3968888819217682 0.22556546330451965 -0.1719389706850052 0.2165578305721283 0.07798469066619873 0.07600168883800507 -0.0987805500626564 -0.22160880267620087 0.18289248645305634 0.025078803300857544
-0.20472513139247894 -0.12801526486873627 0.13194836676120758 -0.14511750638484955 -0.07089297473430634 -0.1562073826789856 0.09774207323789597 -0.082451231777668 0.09187816083431244 0.14519664645195007 0.2959718704223633 0.09254398941993713 -0.17617182433605194 0.12294493615627289 0.14721481502056122 -0.14351043105125427 -0.2667335271835327 0.3431551456451416 0.08407217264175415 -0.03327711299061775 -0.03819577768445015 0.017274629324674606 -0.14937534928321838 -0.12757396697998047 0.057049430906772614 0.10868362337350845 0.1572667956352234 -0.045674845576286316 0.13467292487621307 -0.2641914188861847 -0.12815630435943604 -0.06846261769533157 0.06743748486042023 -0.08712508529424667 0.2476089745759964 0.17456106841564178 0.07143063843250275 0.012435626238584518 0.06869325786828995 0.1088918149471283 -0.16834427416324615 0.20021457970142365 -0.09715928137302399 0.209455668926239 0.15232215821743011 -0.10850134491920471 0.10055628418922424 0.3081415593624115 -0.18833447992801666 0.18762679398059845 0.1089320108294487 0.1412566900253296 0.21418829262256622 0.012561903335154057 0.14151762425899506 0.21926680207252502 -0.5004854798316956 -0.32301074266433716 -0.18728697299957275 -0.1787904053926468 -0.06865838915109634 0.2357509285211563 0.3988916575908661 0.14954601228237152
-0.0005056012887507677 -0.2053893804550171 -0.07804998010396957 -0.03356194496154785 -0.05190529674291611 0.18309251964092255 0.004153285641223192 0.07672069221735 0.11603310704231262 -0.08898141980171204 0.06627757847309113 0.06352998316287994 0.07158791273832321 0.17066524922847748 -0.07826420664787292 -0.11598585546016693 0.04816273972392082 0.09729299694299698 -0.17505741119384766 -0.073419950902462 0.05529056489467621 0.003952371887862682 0.1725209504365921 -0.011535568162798882 -0.01262910570949316 -0.13790524005889893 0.04365261271595955 -0.06547533720731735 -0.021324625238776207 0.18066349625587463 0.06082148104906082 -0.061275552958250046 0.004090480040758848 -0.0307740718126297 -0.11051391810178757 0.034070178866386414 -0.025902122259140015 0.02502565085887909 0.2948049008846283 0.14237885177135468 -0.02560364454984665 0.01355037372559309 0.037279676645994186 -0.15095587074756622 -0.13826152682304382 -0.029582178220152855 0.14774177968502045 0.03561261668801308 -0.10279738157987595 0.22210831940174103 -0.025494661182165146 0.1483665555715561 0.0031410655938088894 0.19087561964988708 -0.2653191089630127 0.17673690617084503 0.16840852797031403 -0.024933692067861557 -0.09675581753253937 0.025389444082975388 0.0034302680287510157 0.2411692589521408 0.29580408334732056 -0.029792247340083122
-0.0435049943625927 0.041962724179029465 -0.12124505639076233 -0.24709632992744446 -0.24696332216262817 0.1377645879983902 -0.29972201585769653 0.32322362065315247 -0.06450911611318588 0.16735297441482544 0.13132736086845398 0.07939714938402176 0.11553675681352615 -0.28088298439979553 0.027610603719949722 -0.041314274072647095 0.312549889087677 -0.05125800520181656 0.26471441984176636 -0.004761659540235996 -0.011487512849271297 -0.09786054491996765 -0.24425753951072693 -0.0004103268147446215 0.20428058505058289 0.08738130331039429 0.06288042664527893 -0.01163773238658905 0.07900223135948181 -0.30644911527633667 -0.20788154006004333 -0.07982951402664185 -0.08580415695905685 -0.14213703572750092 -0.06099076196551323 0.2954989969730377 -0.1302596926689148 -0.1419316977262497 0.17529897391796112 -0.1602318435907364 -0.11440633982419968 0.04099949821829796 0.050017647445201874 0.1532439887523651 -0.2214135378599167 -0.3008582293987274 -0.10424788296222687 -0.048885393887758255 -0.30456462502479553 0.48296406865119934 -0.03688056021928787 -0.1127810850739479 -0.05414034053683281 -0.09990003705024719 0.35228389501571655 -0.2420474737882614 0.11314497888088226 -0.18115422129631042 -0.15267331898212433 -0.18330024182796478 -0.08395056426525116 0.09691260010004044 0.25766560435295105 0.2102998048067093
-0.46670734882354736 0.3936789035797119 -0.018429258838295937 0.21456649899482727 0.1452096402645111 0.04121150076389313 0.03762541338801384 -0.5571815967559814 0.01836012490093708 0.37132132053375244 0.15754848718643188 0.08610466122627258 0.002408890286460519 -0.0368640199303627 0.2649382948875427 -0.08904659003019333 -0.37652653455734253 0.2209453284740448 0.029020313173532486 0.18134064972400665 -0.2563876807689667 -0.005948932375758886 0.01844431273639202 -0.027218464761972427 -0.06515239179134369 -0.22901780903339386 -0.05086630582809448 -0.030665617436170578 0.04456069692969322 -0.18069462478160858 0.05010000243782997 0.11669129133224487 -0.01963745430111885 -0.006699298042804003 -0.22455735504627228 0.027610110118985176 0.05581514537334442 -0.017808716744184494 0.06647583097219467 0.11019987612962723 0.09717369824647903 -0.025936925783753395 0.10319232940673828 -0.25014492869377136 -0.0197150781750679 0.035209253430366516 0.017584633082151413 -0.21447794139385223 -0.16658692061901093 0.005408734083175659 0.15849818289279938 0.03143483027815819 0.29914945363998413 -0.04495414346456528 0.24849119782447815 0.1734740138053894 -0.28651726245880127 0.2568674385547638 0.07763253897428513 0.12229763716459274 0.1583491414785385 -0.02179122343659401 0.2991599142551422 -0.20684517920017242
-0.4770739674568176 -0.3053583800792694 -0.23045295476913452 -0.07662711292505264 -0.16167914867401123 -0.3236836791038513 0.11133803427219391 -0.04387631267309189 -0.4246084690093994 0.06975967437028885 -0.43009433150291443 0.09372603893280029 -0.22581447660923004 0.01158923376351595 0.456776887178421 -0.05167793855071068 0.2786542773246765 0.045925725251436234 -0.017136985436081886 0.012763128615915775 0.05627261474728584 0.3697299659252167 -0.06441216915845871 0.1837526112794876 -0.14776009321212769 0.02875276282429695 0.04167050123214722 -0.1686423271894455 0.2085418999195099 -0.0331878624856472 0.09369876980781555 -0.19613952934741974 -0.19997981190681458 0.1437397003173828 0.052624475210905075 0.062010981142520905 0.37134063243865967 0.058504775166511536 -0.016528232023119926 0.03709319606423378 -0.14766207337379456 0.07877609133720398 0.14008821547031403 -0.20723950862884521 -0.06356968730688095 -0.1926007717847824 0.1540902554988861 0.29241088032722473 -0.40696612000465393 -0.2180505245923996 0.36609360575675964 -0.04569711536169052 0.20287662744522095 -0.06850871443748474 -0.25150132179260254 -0.29944100975990295 -0.1160958781838417 -0.0212230384349823 -0.04213777929544449 0.10558252781629562 0.03358426317572594 -0.19700166583061218 0.129059836268425 0.36990708112716675
-0.44176602363586426 0.10003084689378738 0.4024674892425537 -0.0923575907945633 0.10439744591712952 0.04078783094882965 -0.1413147747516632 0.3095363974571228 -0.04226146265864372 0.14860576391220093 -0.05441870540380478 0.005736689083278179 0.18251681327819824 0.3935966193675995 0.040016185492277145 -0.01235464308410883 -0.11276844143867493 -0.08788128197193146 0.009107566438615322 -0.21073591709136963 0.11361781507730484 0.010567747056484222 -0.13811486959457397 0.02547820471227169 -0.034321367740631104 -0.0030172085389494896 -0.18816997110843658 -0.21269971132278442 0.25783827900886536 0.05208124220371246 -0.10846725106239319 -0.2779654264450073 -0.1275894045829773 -0.21296925842761993 -0.039631281048059464 0.06153947860002518 0.44294387102127075 -0.08597603440284729 -0.13287730515003204 -0.15357741713523865 -0.2473684698343277 -0.27066051959991455 0.06110589951276779 -0.009415284730494022 0.2315579354763031 0.10367870330810547 -0.27647581696510315 -0.33485662937164307 -0.053454361855983734 -0.028051184490323067 -0.12813524901866913 -0.011139567010104656 -0.2412237972021103 0.062248293310403824 0.07892164587974548 0.1184714287519455 0.002778095891699195 0.3932604193687439 0.12000923603773117 0.31497207283973694 0.12185495346784592 -0.2940795123577118 -0.042129237204790115 0.34520629048347473
-0.19376449286937714 -0.08130037039518356 0.32001590728759766 0.11093990504741669 -0.2843882739543915 -0.15176576375961304 -0.2882919907569885 0.04815289005637169 0.10554495453834534 -0.2729678452014923 -0.007630569860339165 0.24754200875759125 0.020853204652667046 0.12670278549194336 0.27900734543800354 0.10792592167854309 -0.13377927243709564 -0.26845425367355347 -0.1789170503616333 0.12641124427318573 -0.018551863729953766 0.1746794730424881 0.0836939737200737 0.467817097902298 0.02550828643143177 -0.13460707664489746 -0.12585105001926422 -0.20681865513324738 -0.09492494910955429 0.031748611479997635 0.17877842485904694 0.06789148598909378 0.14810362458229065 -0.05576785281300545 -0.021206611767411232 -0.06037381663918495 0.06579981744289398 0.10157175362110138 0.2495145946741104 -0.21097849309444427 -0.025688089430332184 -0.02581106126308441 -0.015227719210088253 -0.15503323078155518 -0.28116264939308167 -0.12496711313724518 0.18647775053977966 -0.15300095081329346 0.08652820438146591 0.4375125467777252 0.07540886104106903 0.0967034250497818 -0.19411921501159668 -0.22127047181129456 -0.35454949736595154 -0.4851135015487671 0.03271038457751274 -0.20658986270427704 0.022098205983638763 -0.13524681329727173 0.0722791850566864 0.289831280708313 -0.10931167751550674 -0.3728216588497162
0.08085133880376816 0.054990753531455994 -0.1919201910495758 0.10491891205310822 0.04380182921886444 0.29819199442863464 0.1959756463766098 0.2623007893562317 -0.05612467601895332 0.05986574664711952 0.04858505353331566 -0.1037076786160469 0.0061466023325920105 -0.40266841650009155 -0.021796660497784615 0.31824347376823425 0.3549879491329193 -0.14521583914756775 0.17172017693519592 0.22498206794261932 -0.2470119148492813 -0.16182579100131989 -0.004134157206863165 0.07318870723247528 0.08076922595500946 -0.1504954993724823 0.062172409147024155 0.017544351518154144 0.10449007898569107 0.07293158024549484 0.06771975010633469 0.11905834823846817 0.1676715910434723 -0.004233642481267452 -0.032793741673231125 -0.08075951784849167 -0.09983496367931366 -0.05022939294576645 0.025627702474594116 -0.12345589697360992 0.01908601075410843 -0.04687419906258583 -0.1983749270439148 0.0019283484434708953 0.13568486273288727 0.11371568590402603 0.35554900765419006 0.050626739859580994 0.32362598180770874 0.19166207313537598 -0.06501185148954391 0.005669294856488705 0.09363379329442978 -0.5702164769172668 0.3716154098510742 0.26577460765838623 -0.19316715002059937 0.26293230056762695 0.034105874598026276 -0.17684343457221985 -0.04011136665940285 -0.2602269947528839 0.48080170154571533 -0.30047205090522766
0.20077374577522278 -0.1470620185136795 -0.08315277844667435 0.05036398768424988 0.05131521448493004 -0.31535133719444275 -0.18720875680446625 0.014161037281155586 0.22497013211250305 0.1401795744895935 -0.10087555646896362 -0.06777628511190414 0.1784287691116333 0.003932303749024868 -0.10010827332735062 -0.08138459920883179 0.01273463573306799 -0.17116078734397888 -0.16441784799098969 -0.01049968134611845 -0.08261770755052567 -0.16657528281211853 0.06123163551092148 -0.2921977639198303 -0.18554292619228363 -0.04430089518427849 -0.12233389168977737 0.03141740709543228 -0.12688080966472626 -0.10437958687543869 -0.14916816353797913 -0.0024459294509142637 -0.18538816273212433 0.08473678678274155 0.025063637644052505 -0.1840139478445053 0.24382755160331726 -0.12019025534391403 -0.029440803453326225 0.1693587452173233 -0.08705675601959229 -0.1667696237564087 -0.1331307291984558 0.0039761564694345 -0.013703386299312115 -0.028275851160287857 -0.14671771228313446 0.056366968899965286 -0.4591483473777771 -0.17110802233219147 -0.09550510346889496 -0.15580609440803528 -0.05960478633642197 -0.018399929627776146 0.4128403663635254 0.11909233778715134 0.027644293382763863 -0.12917226552963257 0.4854508340358734 0.2042255997657776 0.27142685651779175 -0.17825700342655182 -0.3410572409629822 0.8379954099655151
0.37828734517097473 0.03454050421714783 -0.26711344718933105 -0.22896398603916168 -0.15535010397434235 -0.1023370772600174 -0.06016138941049576 0.3318658173084259 0.05970415472984314 -0.23006753623485565 0.1834373027086258 -0.011015479452908039 -0.06141018867492676 -0.30023056268692017 0.08612152934074402 0.07001350075006485 0.04713065177202225 0.06795550137758255 -0.2667897641658783 -0.058757975697517395 -0.15432177484035492 -0.19198326766490936 -0.2619214653968811 0.13804616034030914 -0.18426613509655 0.058814290910959244 -0.014520896598696709 0.17148663103580475 -0.2365087866783142 -0.14701931178569794 0.011391988955438137 -0.006566363852471113 0.10128071904182434 0.19598446786403656 0.13594867289066315 0.021516604349017143 0.1930733323097229 0.03067713789641857 -0.024553919211030006 -0.046442531049251556 0.12402515858411789 -0.1464250534772873 -0.14979831874370575 0.23169726133346558 0.07849964499473572 0.2597944438457489 0.22537921369075775 -0.3546397387981415 -0.12206875532865524 -0.09620745480060577 -0.1776118278503418 -0.02945682592689991 0.27125024795532227 -0.1680317372083664 0.36267390847206116 -0.12142381072044373 0.460553914308548 0.1573050618171692 0.05068265646696091 -0.1312168836593628 -0.12343011051416397 -0.03529365733265877 -0.10513817518949509 0.1408081352710724
0.05230015888810158 0.20953021943569183 -0.0017481008544564247 0.15982770919799805 -0.037242092192173004 0.026148034259676933 0.042456600815057755 0.053292181342840195 -0.1743178516626358 0.3519788384437561 -0.06383863836526871 -0.12275932729244232 0.06840837746858597 0.20723123848438263 0.1984843909740448 0.1279679238796234 -0.08854728937149048 0.22713884711265564 0.12525075674057007 0.040171630680561066 0.1729784458875656 -0.008164725266397 0.04945259913802147 -0.03960135951638222 -0.10141569375991821 0.06936466693878174 0.1948203593492508 0.16097663342952728 -0.22098679840564728 -0.0016078648623079062 -0.11601117253303528 0.26611781120300293 0.14147940278053284 0.2212258130311966 -0.09595911204814911 0.23782113194465637 -0.2787293493747711 0.049640584737062454 -0.12203668057918549 0.260201632976532 0.18250373005867004 -0.10685286670923233 0.09274153411388397 -0.020403673872351646 -0.20793767273426056 -0.05329456925392151 0.13998949527740479 -0.14185582101345062 -0.3655136823654175 0.02609308436512947 -0.06494027376174927 0.05463702976703644 -0.041499510407447815 -0.24985846877098083 0.25330689549446106 -0.04372270777821541 -0.10905064642429352 -0.0718652755022049 0.05758119747042656 0.2649060785770416 0.021532313898205757 -0.14812088012695312 0.15962739288806915 0.21517083048820496
-0.5683364868164062 0.00023225949553307146 0.4125734269618988 0.016172224655747414 -0.2394697070121765 0.05085792392492294 -0.23418259620666504 -0.5011178255081177 -0.17908520996570587 0.30201244354248047 0.04921497777104378 -0.10416986793279648 0.17231406271457672 0.2638319432735443 0.25572970509529114 0.23318418860435486 0.10432039946317673 -0.036603499203920364 -0.14420945942401886 0.015747174620628357 -0.24320532381534576 -0.1060868427157402 0.014570590108633041 -0.016647135838866234 -0.024518879130482674 0.0418618842959404 0.09240813553333282 -0.07499358057975769 -0.026735316962003708 -0.13595622777938843 0.015545930713415146 -0.1893407106399536 0.04284963384270668 0.17595791816711426 -0.08670604228973389 0.01852533034980297 0.23063518106937408 0.07476704567670822 0.20952869951725006 0.06005909666419029 -0.017711276188492775 0.181479349732399 0.0005712348502129316 -0.3371911644935608 -0.08759596943855286 0.036591172218322754 0.10054577142000198 -0.10567150264978409 0.07968472689390182 0.029251646250486374 0.20434047281742096 0.015924131497740746 -0.06417124718427658 0.01974031701683998 -0.23337073624134064 -0.20026203989982605 -0.436476469039917 0.06530572474002838 -0.027356069535017014 0.06399023532867432 -0.10994912683963776 -0.23805256187915802 -0.055170200765132904 -0.3548690676689148
0.2338569313287735 -0.3598859906196594 -0.009123635478317738 -0.12890298664569855 0.16025619208812714 -0.0614796057343483 0.04216296598315239 0.2572818994522095 0.2594028115272522 -0.42017579078674316 -0.023717433214187622 -0.13587896525859833 0.10986644774675369 -0.07792879641056061 -0.05369119718670845 0.1559138298034668 0.3947279751300812 -0.025079455226659775 -0.05066010355949402 0.19417957961559296 0.011243789456784725 -0.09718961268663406 0.004681022372096777 -0.11090327799320221 0.1255008429288864 -0.008639982901513577 -0.16323213279247284 0.009589246474206448 0.02264484204351902 -0.11508519947528839 -0.15453894436359406 0.008777438662946224 -0.14275774359703064 0.06915897876024246 0.06670618057250977 0.016822384670376778 0.2590773105621338 0.07041136175394058 0.03029506281018257 -0.0008176804985851049 -0.12957988679409027 -0.04636247083544731 0.1710006445646286 0.03308682143688202 0.017000041902065277 -0.20621708035469055 0.09240154176950455 0.027902275323867798 0.04352635145187378 0.4483816623687744 -0.04400813952088356 0.03410159796476364 0.18777358531951904 0.4528163969516754 0.5328510999679565 0.25300613045692444 0.16750529408454895 -0.08588922023773193 0.02694213017821312 0.1757289320230484 0.037261880934238434 -0.4299599826335907 0.22800223529338837 0.2984021306037903
-0.40673962235450745 -0.13890981674194336 0.060681212693452835 -0.15630890429019928 -0.21538683772087097 0.3165804445743561 -0.17055882513523102 0.04806717112660408 -0.14812466502189636 -0.19868877530097961 0.28562113642692566 -0.10717764496803284 -0.1249345913529396 -0.1915753334760666 0.21175318956375122 0.037528201937675476 -0.05783851444721222 0.2514742612838745 0.015597265213727951 0.05068694055080414 0.012228284031152725 -0.03318055346608162 0.03647017851471901 0.10441610962152481 -0.16588619351387024 -0.008441523648798466 0.014344574883580208 -0.09737761318683624 0.12460290640592575 0.13886074721813202 -0.1106434240937233 -0.07733090966939926 0.102732352912426 0.025250514969229698 0.15340708196163177 0.15519312024116516 -0.07647817581892014 -0.13218645751476288 -0.11703439801931381 0.005105749238282442 0.11402859538793564 -0.06105273962020874 0.019075896590948105 -0.048318713903427124 0.11061861366033554 0.216844379901886 0.1530269831418991 0.05686217546463013 -0.11301235854625702 0.2510172724723816 -0.025214482098817825 -0.16159376502037048 -0.11054534465074539 0.11326191574335098 0.09345834702253342 0.033681295812129974 0.08684728294610977 0.19312860071659088 -0.036238402128219604 0.010579564608633518 -0.07566341012716293 0.05683246999979019 -0.07769399881362915 -0.06879992038011551
-0.13340239226818085 -0.4249110519886017 0.11071038246154785 -0.054634690284729004 -0.011467666365206242 -0.1488131284713745 -0.1557866334915161 0.03969288989901543 0.29892340302467346 0.1803860366344452 -0.21672217547893524 0.06498072296380997 -0.25352197885513306 0.26353228092193604 0.0765007808804512 0.10559599846601486 0.10522719472646713 -0.08366513252258301 0.13943135738372803 -0.06955121457576752 -0.17658385634422302 -0.1504058688879013 0.12752798199653625 0.03494659811258316 0.19951073825359344 -0.16539853811264038 -0.13482309877872467 -0.13573133945465088 0.25212833285331726 -0.08292287588119507 0.03512255847454071 -0.037534065544605255 -0.2018413096666336 0.08655191957950592 0.07552051544189453 0.06805097311735153 -0.014390106312930584 0.15008586645126343 0.21571266651153564 0.007717400789260864 -0.5144420862197876 0.04555854573845863 0.11218385398387909 0.06536318361759186 -0.12949548661708832 -0.257417231798172 -0.048936791718006134 0.169297456741333 -0.34470251202583313 -0.2321440875530243 0.18105188012123108 -0.12479519844055176 -0.14179806411266327 -0.038144178688526154 -0.10298624634742737 0.2168676108121872 -0.23631006479263306 0.007314744871109724 -0.05053487420082092 0.1315295249223709 -0.02995847724378109 -0.04605058953166008 -0.09596190601587296 0.4914933145046234
0.03233015164732933 -0.1576080322265625 0.1596335619688034 -0.014526612125337124 0.09453041851520538 0.05391267314553261 0.06563281267881393 0.19066421687602997 -0.14700870215892792 0.4393461346626282 0.014987500384449959 0.21256738901138306 0.07148353010416031 0.17581027746200562 0.18408872187137604 0.385501503944397 -0.0029520983807742596 0.2678222954273224 0.3479599356651306 0.023321647197008133 0.11338773369789124 -0.1140492707490921 -0.12280628085136414 -0.02344048023223877 -0.04297737032175064 -0.2837933301925659 -0.20859508216381073 -0.06786014884710312 0.02676175720989704 -0.06016909331083298 -0.13619497418403625 0.03336916118860245 0.10271765291690826 0.10955013334751129 -0.08306884765625 0.03622442111372948 -0.40377798676490784 -0.04450985789299011 0.12765266001224518 0.08572591096162796 -0.0033035383094102144 -0.33359992504119873 -0.06113797426223755 -0.07990578562021255 0.1089382916688919 -0.286826491355896 -0.16110078990459442 0.00834857951849699 -0.38515564799308777 -0.03856382891535759 0.32634174823760986 -0.1310122162103653 -0.1156369149684906 -0.023540446534752846 -0.13972200453281403 0.130881667137146 0.0650521069765091 -0.1739414483308792 0.04793457314372063 -0.21715550124645233 -0.28456056118011475 0.012115881778299809 0.33705559372901917 0.35906755924224854
0.1309233158826828 -0.017012260854244232 -0.025637784972786903 -0.14002613723278046 -0.1638733148574829 -0.21669676899909973 -0.0875474214553833 0.04369253292679787 -0.4914814531803131 -0.3780394196510315 -0.3348112106323242 -0.18820418417453766 0.12031912058591843 0.12209036201238632 -0.25338006019592285 0.10776019841432571 -0.017395228147506714 -0.3162332773208618 0.09465816617012024 -0.06700874119997025 0.0582939051091671 -0.11178462952375412 -0.05966119095683098 -0.17660829424858093 -0.24988415837287903 0.0747375562787056 0.16591458022594452 0.05422687903046608 0.08277473598718643 0.17951630055904388 -0.034098487347364426 0.011668620631098747 -0.11722908169031143 -0.049439411610364914 0.020484672859311104 -0.21681073307991028 0.33969664573669434 0.1611175686120987 -0.07113917917013168 0.1522386223077774 -0.1936725378036499 0.3141563832759857 0.009656177833676338 -0.03733942285180092 -0.03555836156010628 0.11808545887470245 0.03825683146715164 -0.03889375552535057 -0.0018483190797269344 -0.0855683982372284 0.15489792823791504 0.46652552485466003 0.3879547417163849 0.0461929589509964 0.5713551640510559 -0.3646652400493622 0.35676249861717224 0.07164798676967621 -0.1492590606212616 -0.0652436837553978 0.03842802718281746 0.12143805623054504 -0.2624826729297638 0.15693099796772003
-0.5106255412101746 -0.11268655955791473 0.029716365039348602 0.04618950933218002 -0.23198342323303223 0.08511684089899063 -0.13900011777877808 -0.8980411887168884 -0.14895769953727722 0.13016600906848907 0.03923029825091362 -0.019241224974393845 0.17456163465976715 0.18767471611499786 0.13599367439746857 -0.11966967582702637 -0.33999502658843994 0.04623175784945488 -0.1233024075627327 0.1622515171766281 -0.16208302974700928 0.08102072030305862 0.2011054903268814 -0.14951960742473602 0.024715997278690338 -0.09559626877307892 -0.10031961649656296 0.016192425042390823 -0.0383184477686882 -0.20200784504413605 0.1113983690738678 -0.13845674693584442 -0.0058837635442614555 0.12254923582077026 0.09181596338748932 0.10131131112575531 0.13882650434970856 -0.0028362590819597244 0.020990509539842606 -0.2199837863445282 0.21781782805919647 0.10295775532722473 -0.03264851123094559 -0.2641800343990326 -0.11141697317361832 0.10968107730150223 0.01693168468773365 0.27134913206100464 0.12167719006538391 0.03027624823153019 0.2276589572429657 -0.13562141358852386 0.148369699716568 0.17103463411331177 0.045184120535850525 -0.23283255100250244 -0.6764592528343201 0.008973980322480202 0.06213028356432915 0.004907220136374235 -0.036991655826568604 0.27797362208366394 0.08508788794279099 -0.5248703360557556
0.715463399887085 0.08326832205057144 -0.12130112946033478 0.007948665879666805 -0.058326009660959244 0.12533216178417206 0.14755557477474213 0.33565255999565125 -0.10362214595079422 -0.0704190582036972 0.011295175179839134 0.027289731428027153 0.03516732156276703 -0.12398318946361542 -0.2349616140127182 -0.3402482271194458 -0.032435037195682526 0.07744349539279938 0.034400250762701035 -0.11877584457397461 -0.20617088675498962 -0.10737109929323196 0.18698491156101227 -0.028892220929265022 -0.0036356551572680473 0.1627359539270401 0.07542187720537186 -0.10602587461471558 0.07083504647016525 0.03423852100968361 0.2325611561536789 -0.020431146025657654 0.13256026804447174 0.1857369989156723 -0.09806574136018753 0.12071490287780762 -0.12912504374980927 0.033588655292987823 -0.06324061751365662 0.1837906539440155 0.21334239840507507 0.09806148707866669 0.18805798888206482 -0.08527436852455139 0.05436697602272034 0.1379949301481247 0.11139802634716034 0.20503327250480652 0.027755344286561012 0.13874366879463196 -0.0982305184006691 0.09034355729818344 0.3579578101634979 0.22310341894626617 0.4577108323574066 -0.22397950291633606 0.21384648978710175 -0.37627866864204407 -0.11820042878389359 0.16724838316440582 0.05191143974661827 0.13394348323345184 -0.05350187048316002 0.26579028367996216
-0.23036104440689087 -0.19071204960346222 0.22213530540466309 -0.15456832945346832 0.17010314762592316 -0.21936815977096558 -0.014325033873319626 -0.26856371760368347 0.06614971905946732 0.015601283870637417 -0.47326356172561646 -0.12904834747314453 0.0040779877454042435 0.26448360085487366 0.016546936705708504 0.16091059148311615 0.28095558285713196 -0.2077951729297638 -0.031105991452932358 0.13707296550273895 0.15762771666049957 0.2728182375431061 -0.057312704622745514 -0.23341257870197296 -0.08697476983070374 -0.04816751927137375 0.0801999568939209 -0.000179745489731431 0.31257960200309753 0.16765134036540985 -0.06256764382123947 -0.07729814201593399 0.029484517872333527 -0.0461137518286705 0.3150492310523987 0.2542853057384491 -0.12626908719539642 0.170819491147995 -0.015945740044116974 -0.03641638159751892 -0.4319220781326294 -0.01233904529362917 -0.0012123237829655409 0.2496255785226822 -0.03383863344788551 0.004056830890476704 0.060045190155506134 0.42906156182289124 0.2563418745994568 0.3503492474555969 0.06913598626852036 0.046588800847530365 -0.13339266180992126 -0.08146533370018005 0.19320598244667053 0.10887796431779861 -0.024693598970770836 0.5954583883285522 0.07442070543766022 -0.016046632081270218 -0.18974626064300537 -0.13819308578968048 0.30521559715270996 -0.1509203314781189
0.17587947845458984 0.18209728598594666 0.023393960669636726 -0.05669108033180237 0.26575571298599243 0.04500903561711311 -0.03811469301581383 -0.50233393907547 0.11832896620035172 -0.0756358653306961 -0.15690408647060394 0.12117272615432739 0.1967979222536087 0.044408638030290604 0.19472217559814453 0.002969602821394801 -0.33445578813552856 -0.03132890909910202 0.28115642070770264 0.266250342130661 0.16474048793315887 0.1675165891647339 0.25806745886802673 -0.16871438920497894 0.034397780895233154 0.04557284712791443 0.1818380206823349 0.11629503220319748 -0.11132387816905975 -0.03358869254589081 -0.22983111441135406 -0.0857340469956398 0.12863042950630188 0.21983125805854797 0.04996903985738754 0.03633269667625427 0.0866677463054657 -0.04657452180981636 0.10017292201519012 -0.11691676825284958 0.18419712781906128 -0.10533468425273895 0.11384135484695435 -0.04505900666117668 -0.034445781260728836 0.04266071319580078 -0.060773737728595734 0.21003565192222595 0.061541225761175156 0.12302973866462708 -0.11475606262683868 -0.3088268041610718 0.05248606577515602 0.09115119278430939 0.26600730419158936 0.14613288640975952 -0.5018103122711182 -0.21473397314548492 0.1991286724805832 -0.19911718368530273 -0.18982984125614166 0.3458850383758545 0.24944615364074707 -0.15342800319194794
0.1883227825164795 0.12527598440647125 -0.1254758983850479 0.2763613760471344 -0.00789907481521368 -0.15762938559055328 -0.18187929689884186 -0.17710544168949127 -0.20015326142311096 0.11423054337501526 0.2998582720756531 0.1305982768535614 0.359171986579895 -0.13548526167869568 0.12522932887077332 -0.17475852370262146 0.12833693623542786 -0.05580673739314079 0.026322567835450172 0.016067706048488617 -0.14215172827243805 0.08842776715755463 0.06005661562085152 -0.17344653606414795 0.05980885028839111 0.22270062565803528 0.21539069712162018 0.19860456883907318 -0.014566329307854176 -0.07997093349695206 0.1385413110256195 -0.18728306889533997 0.052458301186561584 -0.18458230793476105 0.1860501617193222 0.14236299693584442 0.01310727372765541 -0.31038615107536316 -0.15976493060588837 0.2110574096441269 0.28110331296920776 0.15062958002090454 -0.2953035533428192 -0.14496372640132904 -0.1975402981042862 0.10156585276126862 0.12252368777990341 -0.09647157043218613 -0.013402270153164864 0.010510426014661789 -0.11646775156259537 0.07649539411067963 0.19020460546016693 0.27808693051338196 -0.5050466656684875 -0.05350068211555481 0.3412493169307709 -0.24784386157989502 0.07736281305551529 0.19611838459968567 0.20515954494476318 0.32054251432418823 0.05468311533331871 -0.07427003234624863
0.4184507429599762 -0.2809038460254669 0.1452721506357193 0.056545089930295944 -0.18733832240104675 0.2035081684589386 -0.21568000316619873 0.234705850481987 -0.3318980932235718 -0.2346929907798767 -0.21069277822971344 -0.00916059035807848 0.24392402172088623 -0.10101828724145889 0.40494200587272644 0.05151916667819023 -0.27320313453674316 -0.23655463755130768 -0.16813313961029053 0.032661072909832 -0.07316889613866806 0.3771735429763794 -0.03852168470621109 -0.14424516260623932 0.022374318912625313 0.1956067979335785 0.019482385367155075 -0.022248132154345512 -0.014097119681537151 0.008466142229735851 0.06770563125610352 0.06141024827957153 -0.248960480093956 -0.024151509627699852 -0.048239607363939285 -0.16407491266727448 0.17356760799884796 0.19808386266231537 0.08024805784225464 -0.07235974818468094 0.08064587414264679 -0.008127245120704174 -0.08840727806091309 0.18194565176963806 0.11645981669425964 -0.18019703030586243 0.15074655413627625 0.34211546182632446 0.6833158135414124 0.07508932054042816 -0.07790647447109222 -0.007994255982339382 0.08267071843147278 -0.04862673580646515 0.24817191064357758 -0.0154661163687706 0.42416948080062866 0.33121001720428467 0.12399900704622269 -0.08904945105314255 0.11648504436016083 -0.42422178387641907 -0.264600932598114 -0.1494278907775879
1.2594157457351685 0.1988099068403244 0.10830668359994888 0.038530316203832626 -0.012051508761942387 -0.09269534051418304 0.21311847865581512 1.0022605657577515 -0.19993002712726593 0.11847192794084549 -0.03465471789240837 -0.00713711604475975 -0.08077507466077805 -0.06239951401948929 0.022084666416049004 -0.031600188463926315 0.23224689066410065 -0.007901906035840511 0.03901823237538338 -0.014084589667618275 0.01876687817275524 0.012475010938942432 -0.10317289084196091 0.054946355521678925 0.06830280274152756 -0.06112726405262947 0.029336633160710335 -0.06433544307947159 0.04866976663470268 -0.0327923484146595 -0.06910286098718643 0.09229729324579239 0.01891295425593853 0.0022208052687346935 0.0025167567655444145 -0.00990314595401287 -0.052070096135139465 0.03015245869755745 -0.05495397746562958 0.0037994130980223417 0.2799622714519501 0.05794672295451164 0.02563883177936077 0.012805993668735027 -0.05250072106719017 -0.05998142436146736 -0.08757605403661728 0.21226559579372406 -0.030947834253311157 0.01639183610677719 0.02348310314118862 -0.10346228629350662 0.06065940111875534 -0.09205099940299988 -0.11481944471597672 0.008463162928819656 1.3858296871185303 -0.2396230399608612 0.21571892499923706 -0.04253355786204338 0.010296384803950787 0.17973634600639343 -0.02815902791917324 1.0679265260696411
-0.09407196938991547 0.1072772964835167 -0.01454418059438467 -0.1429954171180725 -0.09421355277299881 -0.1251204013824463 0.3056600093841553 -0.01554250530898571 -0.036984581500291824 0.45764774084091187 -0.26878780126571655 -0.4102015793323517 0.2561105489730835 0.29293400049209595 0.0678829476237297 0.07747413963079453 -0.40040072798728943 -0.34389883279800415 0.0835941880941391 -0.11467217653989792 0.15967504680156708 0.11547821015119553 0.04174140840768814 0.027790581807494164 -0.03807694464921951 -0.002435649512335658 -0.3167473077774048 -0.07184816896915436 -0.14477033913135529 0.06844664365053177 -0.14578352868556976 -0.03810315579175949 -0.1258155256509781 0.030985213816165924 0.2775748670101166 -0.03201686963438988 -0.08402980118989944 -0.11076819151639938 -0.05076470226049423 0.12033665180206299 0.007296971511095762 -0.31126999855041504 0.05703023448586464 -0.1065257266163826 -0.00021924282191321254 -0.0782952532172203 -0.027733882889151573 -0.32455509901046753 0.19195951521396637 0.27353259921073914 -0.19639523327350616 -0.13162051141262054 -0.04054480046033859 -0.010599659755825996 -0.06572578102350235 -0.06768983602523804 0.03308140113949776 0.4355328381061554 -0.15820778906345367 -0.04012244567275047 -0.0831480398774147 0.16067369282245636 0.5902301669120789 0.08907566964626312
0.2214554101228714 0.23675034940242767 0.08741886168718338 0.0713033527135849 0.002312482800334692 -0.25804847478866577 0.40213102102279663 -0.2840884327888489 0.021019164472818375 0.09273741394281387 -0.08052364736795425 0.147881418466568 -0.046410754323005676 -0.1131330281496048 0.15937332808971405 -0.49541524052619934 -0.257804274559021 0.1747872233390808 0.11814526468515396 0.33189186453819275 -0.028073951601982117 -0.21763131022453308 0.24962060153484344 -0.2782902121543884 -0.09482938796281815 0.37990301847457886 0.2343621402978897 0.16920724511146545 -0.14522363245487213 -0.1808808296918869 0.31697484850883484 -0.16119877994060516 0.041863493621349335 -0.08356643468141556 0.06497206538915634 -0.07967116683721542 0.2032816857099533 -0.053374744951725006 -0.33375126123428345 -0.11355575174093246 0.10471346229314804 -0.036478444933891296 -0.13540701568126678 0.1618904173374176 -0.1001279354095459 -0.03891482949256897 0.01931574195623398 0.3010808229446411 -0.09975327551364899 -0.24450980126857758 0.04534541442990303 0.11176589131355286 0.06831850111484528 0.11823149770498276 -0.019243713468313217 -0.17700432240962982 0.17404673993587494 -0.26560303568840027 0.15640337765216827 -0.10749301314353943 0.09226300567388535 0.2286428064107895 0.2791288495063782 -0.06863390654325485
-0.207818403840065 -0.03833121061325073 0.19036835432052612 -0.09933768212795258 -0.11046066135168076 -0.24804387986660004 -0.26127153635025024 0.2849440276622772 -0.053916823118925095 0.42167365550994873 -0.27140873670578003 -0.20148544013500214 -0.03475366160273552 0.10499447584152222 0.021975765004754066 0.2835070788860321 0.26216816902160645 0.07818298786878586 -0.21930290758609772 -0.09652336686849594 -0.15744583308696747 -0.3743327260017395 -0.05613825470209122 0.36654266715049744 0.22159747779369354 0.07042667269706726 0.31703633069992065 -0.08175603300333023 0.1613680124282837 -0.10593674331903458 -0.12420614808797836 -0.08788669109344482 -0.1217699646949768 0.1331101357936859 0.08386488258838654 0.15881742537021637 0.24635224044322968 0.005684648174792528 0.05443776771426201 -0.1721990704536438 -0.23213809728622437 0.0667857676744461 0.3238857686519623 -0.06745810061693192 0.0388161838054657 0.12482266873121262 0.09412546455860138 -0.3592349588871002 -0.3153102993965149 -0.0055245147086679935 -0.19956018030643463 0.05180710554122925 -0.028073294088244438 -0.057170264422893524 0.4002592861652374 -0.5176423788070679 -0.07788924872875214 -0.14061646163463593 -0.03724571689963341 -0.226253941655159 -0.05816422402858734 -0.41809988021850586 0.14611120522022247 0.04261225461959839
0.315434992313385 0.1545332968235016 -0.13463056087493896 -0.25317075848579407 -0.23310470581054688 0.23758390545845032 -0.522148847579956 0.07728943973779678 -0.21471650898456573 0.4842216968536377 0.013080600649118423 -0.23324783146381378 0.40280261635780334 0.21077266335487366 -0.1593610644340515 0.014226539060473442 0.017525970935821533 0.32065141201019287 -0.15082702040672302 0.010148151777684689 -0.20244073867797852 -0.09235586225986481 0.016526279971003532 0.005245720501989126 -0.10824161767959595 -0.042316701263189316 0.14783690869808197 -0.11293621361255646 -0.2780798673629761 -0.01934370957314968 0.14762532711029053 -0.0036340393126010895 -0.11627721786499023 0.18684165179729462 -0.07944779098033905 -0.16622203588485718 0.22778485715389252 -0.10043792426586151 -0.1949562132358551 0.22283922135829926 0.11913244426250458 -0.29513978958129883 -0.12179618328809738 -0.0780840516090393 -0.0661771297454834 -0.07619574666023254 0.0012109203962609172 -0.38913044333457947 -0.008519134484231472 0.1381833851337433 -0.16096580028533936 -0.05910204350948334 -0.01765245757997036 -0.00751977926120162 -0.23348817229270935 -0.08997200429439545 0.20425266027450562 -0.40484362840652466 0.02442806586623192 0.04072299227118492 0.10867031663656235 0.07896017283201218 -0.3398008644580841 0.023591086268424988
0.12509684264659882 0.21273791790008545 -0.31929096579551697 -0.034365903586149216 0.22065459191799164 -0.14122892916202545 0.3599614202976227 -0.0168229341506958 0.08755937963724136 -0.2904818058013916 -0.20044268667697906 0.050203580409288406 0.16702531278133392 0.020836148411035538 0.3873291313648224 0.3558591306209564 -0.14307112991809845 -0.07805448770523071 0.17184439301490784 0.26831871271133423 0.06541524082422256 0.2547479569911957 0.1684720665216446 -0.003928666934370995 -0.175156369805336 0.025728244334459305 -0.051014360040426254 -0.03251800313591957 -0.007373010274022818 0.1666955202817917 0.16086195409297943 0.009969264268875122 -0.12848000228405 -0.04098443686962128 -0.03178536146879196 0.009434136562049389 0.19125939905643463 -0.04089388623833656 0.12208981812000275 0.10431502014398575 0.1940278261899948 0.10047232359647751 0.02702668495476246 0.06595274060964584 -0.10218849033117294 -0.0939856618642807 -0.014962582848966122 0.02231684885919094 0.08384796977043152 0.04061537981033325 -0.007866807281970978 0.06662054359912872 0.00865725614130497 0.07107022404670715 0.2638784646987915 0.21993538737297058 0.09707444161176682 -0.16701418161392212 -0.03147261217236519 -0.16116182506084442 -0.09702584147453308 0.3532979488372803 0.20965099334716797 -0.06318800896406174
0.47369372844696045 0.4797689914703369 -0.13036292791366577 -0.05284044146537781 0.22556445002555847 0.04613193869590759 0.06682078540325165 -0.023249462246894836 -0.2543838620185852 -0.03872876241803169 0.1389496624469757 0.051428861916065216 -0.08000732958316803 0.27377626299858093 0.024652451276779175 -0.19158706068992615 0.040701691061258316 -0.08521479368209839 -0.24996554851531982 0.023319529369473457 -0.03322364762425423 -0.09205237030982971 0.07081843167543411 -0.08620226383209229 -0.06174860894680023 0.17662779986858368 0.02492116577923298 -0.07987567782402039 0.3955961763858795 0.018326452001929283 0.06191723048686981 0.34258151054382324 -0.015891777351498604 0.004177252296358347 0.039415065199136734 0.03725278750061989 0.13898450136184692 0.13054609298706055 -0.033128153532743454 -0.035939015448093414 0.18221919238567352 0.26991385221481323 -0.11915869265794754 0.027598392218351364 0.12587103247642517 0.09471326321363449 -0.18811772763729095 0.014541626907885075 -0.33349037170410156 0.10770096629858017 -0.1349683254957199 0.017637556418776512 0.0500192791223526 -0.15112419426441193 -0.09837960451841354 0.23424796760082245 -0.10617752373218536 -0.2678833603858948 0.1613580882549286 -0.1424831598997116 0.00708416011184454 0.11331832408905029 0.22300641238689423 0.008928198367357254
-0.2882082760334015 -0.002242271089926362 -0.10476259142160416 0.09557261317968369 0.19747789204120636 0.028633788228034973 0.22892822325229645 -0.03693998605012894 0.18706944584846497 0.16328923404216766 0.01531195268034935 0.12310612946748734 0.25066789984703064 -0.20588141679763794 0.1257028877735138 -0.20036347210407257 0.02783244475722313 -0.523491621017456 -0.20960956811904907 -0.07090963423252106 0.03582179173827171 0.2122061848640442 0.1218021810054779 0.24437782168388367 0.07231591641902924 -0.2233325093984604 -0.2638993561267853 -0.2791074812412262 -0.06202376261353493 0.3548431396484375 0.15252967178821564 -0.15528593957424164 -0.23022150993347168 -0.3220030665397644 -0.18553748726844788 -0.002778335241600871 -0.06010055169463158 0.14511927962303162 -0.15162315964698792 -0.024557607248425484 -0.27501705288887024 -0.09490077942609787 -0.03152953460812569 -0.055688969790935516 0.11772117018699646 0.1427740901708603 -0.0916706845164299 0.25092530250549316 0.4510732889175415 0.037600815296173096 0.01892724260687828 0.2681945264339447 -0.08160778880119324 0.1273931860923767 -0.2892268896102905 -0.3088780343532562 -0.13073444366455078 0.21429701149463654 -0.04599032923579216 -0.05520082637667656 0.07929818332195282 0.20446117222309113 0.11487783491611481 -0.6200141906738281
-0.2834039032459259 0.05924207717180252 -0.08402963727712631 -0.08231794089078903 0.09208377450704575 -0.10074163973331451 0.17278164625167847 -0.3996928632259369 -0.014735104516148567 0.4411658048629761 -0.10836318135261536 0.15553709864616394 -0.004262191243469715 -0.09468834847211838 -0.12509670853614807 0.3214297592639923 0.2349747121334076 -0.15700675547122955 0.18436478078365326 0.029204104095697403 -0.19933877885341644 0.09952796250581741 -0.12795409560203552 0.31825846433639526 -0.10799362510442734 0.0069491066969931126 0.05138123780488968 -0.07576847076416016 0.16602589190006256 0.04262079671025276 0.10513053834438324 0.09605268388986588 -0.1606072634458542 -0.03619539365172386 -0.19081225991249084 0.03580908104777336 -0.11741548776626587 -0.09176119416952133 -0.03934430703520775 -0.02139190398156643 -0.22735142707824707 0.2744116485118866 0.07645939290523529 0.02765682339668274 -0.07635550945997238 -0.009206567890942097 0.04085667058825493 -0.07851645350456238 -0.10062924772500992 -0.2024102509021759 0.2179899662733078 -0.024271182715892792 0.10363093763589859 -0.19331181049346924 0.237931489944458 0.07138141244649887 -0.45577794313430786 0.40805038809776306 -0.13250212371349335 0.08229735493659973 -0.020040275529026985 -0.03179740160703659 0.20994462072849274 -0.39641499519348145
0.3666081130504608 0.17277464270591736 -0.32404786348342896 -0.10124759376049042 -0.18471509218215942 0.29164886474609375 -0.03730818256735802 0.5530523061752319 0.23205696046352386 0.27159398794174194 0.15236400067806244 -0.36856597661972046 -0.031035201624035835 -0.053723037242889404 0.042310912162065506 0.015107822604477406 -0.08117428421974182 0.0018200620543211699 -0.10740818083286285 0.13714715838432312 -0.1103246733546257 -0.053067341446876526 0.053167738020420074 0.3697861135005951 0.0855984166264534 0.044744767248630524 0.0945616215467453 0.08581602573394775 -0.28363439440727234 -0.04928769916296005 -0.03068992681801319 -0.015272879973053932 0.040786560624837875 0.05255524814128876 -0.06699244678020477 0.14111080765724182 -0.13809923827648163 -0.215886652469635 -0.09200598299503326 -0.23366153240203857 0.017699090763926506 -0.09466347098350525 0.13437294960021973 0.0996924489736557 0.09847983717918396 0.039830733090639114 0.1947965919971466 -0.14349189400672913 0.009289558045566082 0.07253869622945786 -0.01631269045174122 0.006662735249847174 -0.05553314834833145 -0.262182354927063 0.1202251985669136 -0.26664838194847107 0.03538738563656807 0.11023233830928802 -0.2491905689239502 -0.1952449530363083 -0.08094245940446854 -0.04800654947757721 0.015556980855762959 0.2475517988204956
0.2875973582267761 -0.21989955008029938 -0.19811032712459564 -0.10844100266695023 0.044361114501953125 -0.08215390890836716 -0.37556636333465576 0.16960953176021576 0.12272603064775467 -0.1354641616344452 0.24599337577819824 0.0495113879442215 0.16697868704795837 0.03528671711683273 -0.019245725125074387 -0.2639712691307068 -0.04227352514863014 0.11839783936738968 -0.17691192030906677 0.14005236327648163 0.11128755658864975 -0.03989652171730995 -0.019240092486143112 -0.13464397192001343 -0.050801120698451996 0.3468349277973175 0.021837227046489716 -0.014201201498508453 -0.1732984036207199 0.09398330748081207 0.3490920066833496 -0.03456698730587959 0.032601796090602875 0.1163165271282196 0.06122571602463722 -0.0992128849029541 0.026643341407179832 0.08654848486185074 0.2045144885778427 0.0949125736951828 -0.16555482149124146 -0.07106618583202362 -0.042397595942020416 -0.044211868196725845 0.013450047001242638 0.07904024422168732 0.08064461499452591 -0.08780591934919357 -0.4784422516822815 0.2761232256889343 -0.03928437829017639 0.12078486382961273 0.035233721137046814 -0.07886409759521484 0.14977502822875977 0.05833746865391731 0.4932141602039337 0.11561337858438492 -0.12040118128061295 0.012127059511840343 0.0547066330909729 -0.04804180562496185 -0.34788885712623596 0.11411605030298233
-0.10293550044298172 0.04201967641711235 0.03696178272366524 -0.061052482575178146 -0.1690877079963684 -0.02320215292274952 -0.05839388072490692 0.19261394441127777 -0.21494194865226746 0.29320406913757324 0.15451675653457642 -0.12238142639398575 0.06158928945660591 -0.07753091305494308 -0.19023901224136353 -0.04122495278716087 0.23469670116901398 0.19958022236824036 0.058094412088394165 0.0033372212201356888 0.12950356304645538 -0.009416728280484676 -0.20413461327552795 -0.024510933086276054 0.08254805952310562 0.12371832132339478 0.04703584685921669 0.02697613276541233 0.14721642434597015 -0.10712496191263199 -0.21082036197185516 -0.010873284190893173 -0.07405605912208557 -0.08138274401426315 0.00628174701705575 0.1000850722193718 -0.23397986590862274 -0.011942917481064796 0.12329912930727005 0.09440986067056656 0.07288504391908646 -0.011302163824439049 0.11483465135097504 0.19847321510314941 0.17682459950447083 -0.05124267563223839 0.17276109755039215 -0.028052866458892822 -0.2724682092666626 0.18281345069408417 -0.016538117080926895 -0.17021486163139343 0.13348758220672607 -0.01466448325663805 0.21588283777236938 -0.25212255120277405 0.7638064622879028 -0.16805069148540497 -0.11507172137498856 -0.12774382531642914 -0.036738354712724686 0.32034140825271606 -0.097007617354393 0.306145578622818
0.35133546590805054 0.23050940036773682 0.03319966048002243 -0.1301449090242386 -0.07663198560476303 0.02900012582540512 0.18208995461463928 0.3442469537258148 -0.013446939177811146 -0.018135273829102516 0.04102979972958565 -0.03979320451617241 -0.13681001961231232 -0.1371544450521469 0.143430694937706 -0.0823402926325798 -0.025869423523545265 0.12901796400547028 -0.05417904257774353 -0.08070233464241028 0.1575026512145996 0.04206673055887222 -0.035605426877737045 0.16076216101646423 0.02197905071079731 0.14641088247299194 -0.038670189678668976 -0.003620339557528496 0.13415265083312988 -0.0235954187810421 0.02800767682492733 -0.243707075715065 0.07083417475223541 0.14874717593193054 -0.05682490020990372 0.0820329487323761 0.00789975468069315 0.0015818446408957243 -0.09951690584421158 -0.2262677252292633 -0.019346699118614197 -0.002494662534445524 0.09985819458961487 -0.09806165844202042 -0.10753143578767776 0.01108553633093834 0.21956299245357513 0.17134545743465424 0.18175730109214783 -0.06084456667304039 0.2581780254840851 0.06728974729776382 0.07184666395187378 -0.06046092137694359 -0.2602252960205078 -0.20827654004096985 0.28525370359420776 0.0028576671611517668 -0.24040991067886353 -0.26313403248786926 -0.11625125259160995 0.17891111969947815 -0.1688523292541504 -0.3354704678058624
0.28806430101394653 -0.12998664379119873 -0.2072458267211914 0.04032013937830925 0.1757165789604187 0.20769725739955902 0.5344696044921875 0.3011453449726105 0.03362410143017769 0.12006013840436935 0.29506757855415344 0.1579197496175766 -0.07000028342008591 -0.08874442428350449 0.2327488362789154 -0.019814293831586838 0.02270842343568802 0.16702628135681152 0.09592819213867188 0.03130612149834633 0.11725085228681564 -0.01883622072637081 0.07633798569440842 -0.045984428375959396 0.0014025361742824316 0.16308142244815826 0.02260737679898739 -0.024769973009824753 0.006464244797825813 0.15001316368579865 0.04873314127326012 0.11038344353437424 0.14596502482891083 0.1075243428349495 0.11224193125963211 -0.16027167439460754 0.011140769347548485 0.043640099465847015 0.0689326599240303 0.038788050413131714 0.023962629958987236 -0.024014819413423538 -0.1875944286584854 0.16986943781375885 0.025897052139043808 -0.015401587821543217 0.05948033556342125 -0.13650788366794586 0.1797916442155838 -0.3024339973926544 -0.07759421318769455 0.16615290939807892 0.04431014135479927 -0.009849547408521175 0.11575300246477127 -0.34834420680999756 0.22850236296653748 -0.036563895642757416 0.04024810716509819 -0.015138134360313416 0.07526830583810806 -0.29355818033218384 -0.11896154284477234 0.28321436047554016
-0.415089875459671 0.08061777800321579 0.15771517157554626 0.05786573141813278 -0.17660005390644073 0.09254874289035797 -0.298699289560318 -0.6750924587249756 0.06580391526222229 0.4114857316017151 0.053020164370536804 -0.01424380112439394 0.2468259185552597 0.02297957055270672 0.0879502221941948 -0.14440159499645233 0.13087038695812225 -0.21708333492279053 -0.17284101247787476 0.0901639387011528 -0.10040637105703354 -0.22910912334918976 -0.040121663361787796 0.10858901590108871 0.14407378435134888 0.04919792711734772 -0.044752128422260284 0.002653714269399643 0.24201534688472748 -0.2256477177143097 0.11184561252593994 -0.0882268100976944 -0.15624327957630157 0.11928974092006683 0.23039758205413818 0.02091335505247116 0.03603202849626541 0.2085503190755844 -0.13615845143795013 -0.17717911303043365 -0.08361010998487473 0.061548732221126556 0.07903158664703369 -0.4047698676586151 0.18868617713451385 0.2805769443511963 -0.08135690540075302 0.09198019653558731 0.031238535419106483 0.16442595422267914 -0.18994317948818207 -0.09695306420326233 -0.01292447093874216 0.02551060914993286 0.39988192915916443 0.01783633418381214 -0.4327792525291443 -0.002205335069447756 0.03671341761946678 0.09467542916536331 0.11589159816503525 0.1942322552204132 0.07586222887039185 -0.3192635476589203
0.1305985003709793 0.24267947673797607 -0.08149600774049759 0.1981438845396042 0.13556095957756042 0.031105680391192436 0.03400310128927231 -0.28918835520744324 0.38338181376457214 -0.12496982514858246 0.18457742035388947 -0.22408254444599152 0.0970277413725853 0.009128108620643616 0.1268555074930191 0.07063306868076324 0.01945347525179386 0.13773632049560547 -0.04003734514117241 -0.0930677056312561 -0.024889152497053146 -0.11787543445825577 0.19622884690761566 0.08013373613357544 0.0036309929564595222 0.07648447901010513 0.07394496351480484 -0.18477238714694977 0.05432327091693878 -0.045366715639829636 -0.026738539338111877 -0.15649281442165375 0.05016634240746498 -0.01958477310836315 -0.02483653463423252 0.057447146624326706 -0.21938008069992065 0.1532900631427765 -0.021581796929240227 0.012623688206076622 -0.052083875983953476 -0.025360137224197388 0.05579482018947601 0.1397266834974289 0.04620964825153351 -0.13192643225193024 -0.029628558084368706 0.2957177758216858 -0.07998117059469223 0.19800721108913422 0.19463542103767395 0.048103176057338715 -0.13152199983596802 -0.05332630127668381 -0.08710823208093643 -0.14345498383045197 -0.10166595876216888 0.11773227900266647 -0.041246380656957626 -0.05763620510697365 0.1096905916929245 0.2579149603843689 -0.01671094074845314 -0.35469648241996765
-0.15810739994049072 0.18258628249168396 -0.06488241255283356 0.30475351214408875 0.2894825041294098 -0.028240064159035683 0.20594120025634766 -0.46378293633461 0.020493004471063614 -0.511583685874939 -0.1023271456360817 0.14396345615386963 -0.14500881731510162 -0.16224704682826996 0.3745170831680298 0.06893278658390045 -0.15462155640125275 0.1317623257637024 -0.09706385433673859 -0.07412916421890259 -0.04835378751158714 -0.1824701726436615 0.3372955620288849 -0.10322634130716324 -0.04449648782610893 0.26151925325393677 -0.1118180900812149 -0.30828481912612915 -0.052392568439245224 0.32255250215530396 0.11414839327335358 0.19786226749420166 0.03460425138473511 -0.2365046590566635 -0.36966848373413086 -0.041015297174453735 -0.07638386636972427 0.11010673642158508 -0.13564816117286682 0.057751089334487915 -0.043946780264377594 0.004309999756515026 -0.012518040835857391 0.015841422602534294 0.017155203968286514 0.201380655169487 -0.06495002657175064 0.2514466345310211 -0.14152802526950836 -0.06809581071138382 -0.13114480674266815 0.20506823062896729 0.30409932136535645 -0.01874622516334057 0.09228192269802094 -0.014848819002509117 -0.316318541765213 0.0610479973256588 -0.11463839560747147 -0.02832554467022419 0.20129528641700745 0.3241548538208008 0.5161309838294983 -0.2005128711462021
-0.31865790486335754 0.1321091204881668 -0.11963919550180435 0.04698712378740311 0.14791925251483917 0.14778344333171844 -0.13254006206989288 -0.517432451248169 0.3642260730266571 0.5763320326805115 -0.012988937087357044 -0.01733389124274254 -0.05949466675519943 0.03456120565533638 -0.1596881002187729 0.14015807211399078 -0.018795134499669075 0.11422201246023178 0.10061094909906387 0.13400107622146606 -0.010762170888483524 0.18274731934070587 -0.04044771194458008 0.2717287838459015 0.15285959839820862 -0.03158989176154137 -0.1214323416352272 0.193862184882164 0.024584658443927765 -0.01025876123458147 0.044054996222257614 0.08404551446437836 0.00857668649405241 0.018917657434940338 -0.13853035867214203 0.07369082421064377 -0.025323105975985527 -0.09518129378557205 -0.07214776426553726 0.08274352550506592 -0.30180343985557556 0.14058604836463928 0.07498882710933685 0.208957239985466 0.05718456953763962 -0.05772349610924721 -0.053872205317020416 -0.13331769406795502 0.09027693420648575 0.06662110984325409 -0.05828486755490303 0.13282433152198792 0.02003101073205471 -0.2881704866886139 0.38795289397239685 0.15271879732608795 -0.5153858065605164 0.1985534280538559 -0.10182839632034302 0.0821431428194046 0.09702257812023163 -0.08152893930673599 0.16941824555397034 -0.35921111702919006
0.4328567087650299 -0.26901519298553467 0.38066887855529785 0.13483189046382904 -0.013022680766880512 -0.3325372040271759 0.24410562217235565 0.35777223110198975 -0.43167969584465027 0.5193904638290405 0.025061573833227158 0.5277332067489624 0.32886502146720886 0.14717154204845428 0.19899235665798187 0.12631575763225555 -0.12600107491016388 0.056275829672813416 -0.18712835013866425 0.1622551679611206 0.12962263822555542 -0.08841974288225174 -0.12111489474773407 0.08104614913463593 -0.05744572728872299 0.20250464975833893 -0.05973458290100098 -0.005562187638133764 -0.011448212899267673 0.21916861832141876 0.1854689121246338 -0.053363483399152756 -0.12415459752082825 -0.025998026132583618 0.2435581386089325 0.045165929943323135 0.24198579788208008 0.13714367151260376 0.0872405543923378 0.002267180709168315 -0.004192020744085312 0.044459450989961624 -0.06021817401051521 -0.13382311165332794 -0.0690840557217598 -0.03576062247157097 -0.056955818086862564 -0.14625683426856995 0.09822021424770355 -0.17323161661624908 -0.21229732036590576 0.022734232246875763 0.15392474830150604 0.0023404774256050587 -0.12756627798080444 -0.298024445772171 0.5364473462104797 -0.28832823038101196 0.09677234292030334 0.07798498123884201 0.06631380319595337 -0.3011130690574646 -0.41036781668663025 0.05683515593409538
-0.12219623476266861 -0.019962821155786514 0.208028644323349 0.11809027940034866 -0.0945630893111229 0.17321641743183136 -0.16921034455299377 -0.15823279321193695 -0.050803009420633316 0.4940221309661865 0.4162360727787018 -0.1835697889328003 -0.1526566594839096 0.013883263804018497 -0.05239098519086838 0.048138633370399475 0.08064375817775726 -0.01110357977449894 0.11880916357040405 -0.1391095072031021 0.08398426324129105 0.17522823810577393 -0.32343238592147827 0.06319364160299301 -0.03990871459245682 0.07603719830513 -0.08947568386793137 0.18184711039066315 0.18458358943462372 -0.014721542596817017 -0.1991228461265564 -0.3071858584880829 -0.050899095833301544 -0.08723857253789902 0.11207743734121323 0.2567017376422882 -0.07363080233335495 0.003693674923852086 -0.2617996335029602 0.22275090217590332 0.31000056862831116 0.32804641127586365 -0.0643906369805336 0.08562520146369934 -0.11668822914361954 0.019085828214883804 0.15958762168884277 -0.09261828660964966 -0.33729010820388794 -0.0664808452129364 -0.21022853255271912 -0.24862973392009735 0.11995941400527954 0.22389604151248932 -0.1234930083155632 0.05015654116868973 -0.07024884223937988 0.02385830320417881 0.0007232138887047768 0.11572734266519547 0.13202032446861267 0.019761428236961365 0.03286216780543327 0.5099707245826721
-0.2512173354625702 -0.19259445369243622 -0.39922037720680237 -0.37297317385673523 -0.24633429944515228 0.2826814353466034 -0.012252491898834705 0.4900068938732147 0.061850711703300476 0.16315189003944397 0.3945728838443756 -0.009589806199073792 -0.20675313472747803 -0.3425864279270172 -0.215860053896904 0.04636352136731148 0.05521325021982193 -0.29208433628082275 -0.07521949708461761 -0.0430777482688427 -0.1325095146894455 0.1196083128452301 0.14193709194660187 0.2597576677799225 -0.05866751819849014 0.02039436064660549 0.03075806424021721 0.24489738047122955 -0.10178447514772415 0.17127664387226105 -0.16420842707157135 0.04562719538807869 -0.053840521723032 0.12284819036722183 0.020616190508008003 0.08086870610713959 -0.0942269042134285 -0.213943213224411 0.21741479635238647 -0.08598630875349045 -0.3060249984264374 0.33698076009750366 -0.1469874083995819 0.16629302501678467 0.03765137121081352 0.10202806442975998 -0.09438022971153259 -0.095748171210289 0.06907212734222412 0.17250949144363403 -0.14626184105873108 -0.3033525049686432 -0.13911612331867218 -0.020737774670124054 0.19075529277324677 0.11514157056808472 0.12860769033432007 0.205231174826622 0.06620180606842041 -0.002443073084577918 -0.028772762045264244 -0.2600101828575134 0.04868681728839874 -0.21566630899906158
0.18429267406463623 -0.12819631397724152 0.05444582551717758 0.09933609515428543 0.2654588520526886 0.06153829023241997 -0.10887724906206131 0.21432122588157654 -0.20613984763622284 -0.003959811758249998 0.20342078804969788 -0.20287249982357025 -0.02370070479810238 0.09267973899841309 0.05066623166203499 0.15304328501224518 0.12827585637569427 0.03502717614173889 -0.0037765558809041977 0.20277884602546692 0.19290541112422943 0.15034209191799164 0.015976108610630035 -0.23061580955982208 -0.06959863752126694 0.2652956545352936 -0.0029876953922212124 0.09513995796442032 -0.1838037520647049 0.13188792765140533 0.17685675621032715 0.41015467047691345 -0.06056959554553032 -0.12473214417695999 -0.12234329432249069 -0.022918621078133583 0.2754303216934204 0.04108627140522003 0.11894108355045319 -0.07616845518350601 0.10997132211923599 0.206186905503273 -0.14126133918762207 0.021071337163448334 -0.12269240617752075 -0.18600322306156158 0.13384845852851868 -0.07772286236286163 0.04068576917052269 -0.004671014845371246 -0.15597891807556152 0.04500216618180275 0.11477505415678024 -0.19687965512275696 0.11242952197790146 0.005373508203774691 0.17817065119743347 -0.15609313547611237 0.0539935827255249 0.047772835940122604 0.11272365599870682 0.17000477015972137 -0.2525025010108948 -0.10447926074266434
